/* Generated by Edge Impulse
*
* Permission is hereby granted, free of charge, to any person obtaining a copy
* of this software and associated documentation files (the "Software"), to deal
* in the Software without restriction, including without limitation the rights
* to use, copy, modify, merge, publish, distribute, sublicense, and/or sell
* copies of the Software, and to permit persons to whom the Software is
* furnished to do so, subject to the following conditions:
*
* The above copyright notice and this permission notice shall be included in
* all copies or substantial portions of the Software.
*
* THE SOFTWARE IS PROVIDED "AS IS", WITHOUT WARRANTY OF ANY KIND, EXPRESS OR
* IMPLIED, INCLUDING BUT NOT LIMITED TO THE WARRANTIES OF MERCHANTABILITY,
* FITNESS FOR A PARTICULAR PURPOSE AND NONINFRINGEMENT. IN NO EVENT SHALL THE
* AUTHORS OR COPYRIGHT HOLDERS BE LIABLE FOR ANY CLAIM, DAMAGES OR OTHER
* LIABILITY, WHETHER IN AN ACTION OF CONTRACT, TORT OR OTHERWISE, ARISING FROM,
* OUT OF OR IN CONNECTION WITH THE SOFTWARE OR THE USE OR OTHER DEALINGS IN THE
* SOFTWARE.
*/
// Generated on: 16.05.2021 21:44:12

#include <stdio.h>
#include <stdlib.h>
#include <vector>
#include "edge-impulse-sdk/tensorflow/lite/c/builtin_op_data.h"
#include "edge-impulse-sdk/tensorflow/lite/c/common.h"
#include "edge-impulse-sdk/tensorflow/lite/micro/kernels/micro_ops.h"

#if EI_CLASSIFIER_PRINT_STATE
#if defined(__cplusplus) && EI_C_LINKAGE == 1
extern "C" {
    extern void ei_printf(const char *format, ...);
}
#else
extern void ei_printf(const char *format, ...);
#endif
#endif

#if defined __GNUC__
#define ALIGN(X) __attribute__((aligned(X)))
#elif defined _MSC_VER
#define ALIGN(X) __declspec(align(X))
#elif defined __TASKING__
#define ALIGN(X) __align(X)
#endif

namespace {

constexpr int kTensorArenaSize = 9024;

#if defined(EI_CLASSIFIER_ALLOCATION_STATIC)
uint8_t tensor_arena[kTensorArenaSize] ALIGN(16);
#elif defined(EI_CLASSIFIER_ALLOCATION_STATIC_HIMAX)
#pragma Bss(".tensor_arena")
uint8_t tensor_arena[kTensorArenaSize] ALIGN(16);
#pragma Bss()
#elif defined(EI_CLASSIFIER_ALLOCATION_STATIC_HIMAX_GNU)
uint8_t tensor_arena[kTensorArenaSize] ALIGN(16) __attribute__((section(".tensor_arena")));
#else
#define EI_CLASSIFIER_ALLOCATION_HEAP 1
uint8_t* tensor_arena = NULL;
#endif

static uint8_t* tensor_boundary;
static uint8_t* current_location;

template <int SZ, class T> struct TfArray {
  int sz; T elem[SZ];
};
enum used_operators_e {
  OP_RESHAPE, OP_CONV_2D, OP_MAX_POOL_2D, OP_FULLY_CONNECTED, OP_SOFTMAX,  OP_LAST
};
struct TensorInfo_t { // subset of TfLiteTensor used for initialization from constant memory
  TfLiteAllocationType allocation_type;
  TfLiteType type;
  void* data;
  TfLiteIntArray* dims;
  size_t bytes;
  TfLiteQuantization quantization;
};
struct NodeInfo_t { // subset of TfLiteNode used for initialization from constant memory
  struct TfLiteIntArray* inputs;
  struct TfLiteIntArray* outputs;
  void* builtin_data;
  used_operators_e used_op_index;
};

TfLiteContext ctx{};
TfLiteTensor tflTensors[45];
TfLiteRegistration registrations[OP_LAST];
TfLiteNode tflNodes[21];

const TfArray<2, int> tensor_dimension0 = { 2, { 1,650 } };
const TfArray<1, float> quant0_scale = { 1, { 0.047446545213460922, } };
const TfArray<1, int> quant0_zero = { 1, { -9 } };
const TfLiteAffineQuantization quant0 = { (TfLiteFloatArray*)&quant0_scale, (TfLiteIntArray*)&quant0_zero, 0 };
const ALIGN(8) int32_t tensor_data1[2] = { -1, 128, };
const TfArray<1, int> tensor_dimension1 = { 1, { 2 } };
const ALIGN(8) int32_t tensor_data2[64] = { -1000, -473, -937, -477, -1218, -1567, -853, -432, -1129, -853, 1336, -1550, -313, 1049, -288, -2983, -143, -1417, -1273, -351, -555, -1367, -267, -2031, -1085, 1608, -1585, -2056, -1650, 320, -482, -1181, -1006, -1666, 1232, 15, 473, -934, -1676, -1208, -1080, -2554, -151, -822, -414, -863, 827, -1285, -1412, -1435, 1010, 236, -1203, 943, -1295, 618, -641, -1218, 770, -623, -736, -589, -1097, -1241, };
const TfArray<1, int> tensor_dimension2 = { 1, { 64 } };
const TfArray<64, float> quant2_scale = { 64, { 0.00012336115469224751, 0.0001700547436485067, 0.00015399930998682976, 0.00019135033653583378, 0.00017254149133805186, 0.00013985847181174904, 0.00013224429858382791, 0.00015243321831803769, 0.00014283541531767696, 0.00010182303958572447, 0.00015132881526369601, 0.00013567661517299712, 0.00015700848598498851, 0.00014934873615857214, 0.00010330279474146664, 0.00011221942258998752, 0.00015621121565345675, 0.00014481651305686682, 0.00011671693937387317, 0.00013996598136145622, 0.00010993761679856107, 0.00014910504978615791, 0.00021803814161103219, 0.00013067066902294755, 0.00015462482406292111, 0.00017316894081886858, 9.1913316282443702e-05, 8.9620560174807906e-05, 0.00015292063471861184, 0.00012296387285459787, 0.00019430139218457043, 7.9308185377158225e-05, 0.00011246573558310047, 0.00011263223859714344, 0.00022119469940662384, 0.00018281288794241846, 0.00012278194481041282, 0.00014244869817048311, 0.00011241384345339611, 0.00014117876708041877, 0.0001166350266430527, 9.4078081019688398e-05, 0.00014302479394245893, 0.00014399010979104787, 0.00012205759412609041, 0.00016664181021042168, 0.00012467530905269086, 0.00012960523599758744, 0.0001072654704330489, 0.00010777786519611254, 0.00022655457723885775, 0.00015125988284125924, 0.00013352760288398713, 0.00015433802036568522, 0.00010239495168207213, 0.00013781945744995028, 0.00015446409815922379, 0.00010970138100674376, 0.00011037410149583593, 0.00010065520473290235, 0.00017148569168057293, 0.00019953146693296731, 0.00013921252684667706, 0.000137804847327061, } };
const TfArray<64, int> quant2_zero = { 64, { 0,0,0,0,0,0,0,0,0,0,0,0,0,0,0,0,0,0,0,0,0,0,0,0,0,0,0,0,0,0,0,0,0,0,0,0,0,0,0,0,0,0,0,0,0,0,0,0,0,0,0,0,0,0,0,0,0,0,0,0,0,0,0,0 } };
const TfLiteAffineQuantization quant2 = { (TfLiteFloatArray*)&quant2_scale, (TfLiteIntArray*)&quant2_zero, 0 };
const ALIGN(8) int32_t tensor_data3[32] = { 171, -260, 48, -243, -6, 136, 77, 228, 71, -279, -210, 55, 275, -98, 216, -11, -39, 58, -131, 109, -139, -138, -377, -621, 150, 119, 149, -171, -46, -148, 129, -150, };
const TfArray<1, int> tensor_dimension3 = { 1, { 32 } };
const TfArray<32, float> quant3_scale = { 32, { 0.00055391184287145734, 0.00039059523260220885, 0.00061714224284514785, 0.00042972451774403453, 0.00034782564034685493, 0.00037594715831801295, 0.00040610207361169159, 0.00033181763137690723, 0.00038953506737016141, 0.00045744021190330386, 0.00032470456790179014, 0.00032124909921549261, 0.00043733755592256784, 0.00033643477945588529, 0.00032012385781854391, 0.00038129609310999513, 0.00037088972749188542, 0.0003391668142285198, 0.00050992419710382819, 0.00054538360564038157, 0.00051084358710795641, 0.00034944279468618333, 0.00028709252364933491, 0.00040741305565461516, 0.00042396847857162356, 0.00032225687755271792, 0.0006190165295265615, 0.0002163491299143061, 0.00042490742634981871, 0.00067203637445345521, 0.00040174392051994801, 0.00042010692413896322, } };
const TfArray<32, int> quant3_zero = { 32, { 0,0,0,0,0,0,0,0,0,0,0,0,0,0,0,0,0,0,0,0,0,0,0,0,0,0,0,0,0,0,0,0 } };
const TfLiteAffineQuantization quant3 = { (TfLiteFloatArray*)&quant3_scale, (TfLiteIntArray*)&quant3_zero, 0 };
const ALIGN(8) int32_t tensor_data4[15] = { 680, -34, -91, -116, 330, 74, -119, -110, 352, -239, -516, 148, -19, -222, -324, };
const TfArray<1, int> tensor_dimension4 = { 1, { 15 } };
const TfArray<1, float> quant4_scale = { 1, { 0.00057162222219631076, } };
const TfArray<1, int> quant4_zero = { 1, { 0 } };
const TfLiteAffineQuantization quant4 = { (TfLiteFloatArray*)&quant4_scale, (TfLiteIntArray*)&quant4_zero, 0 };
const ALIGN(8) int32_t tensor_data5[64] = { 950, -357, -34, 1360, -1402, -55, -285, -213, -246, -619, -1705, 501, 2585, 196, 436, -724, -357, -70, 538, 655, -12, 45, -523, 527, 1027, -323, 169, -1101, -890, -64, -662, -703, -437, 1082, 1964, -421, 159, 253, -1599, -206, 2691, 205, -498, 604, -655, -813, 99, -351, 91, -1314, 185, -247, -233, 1134, -469, 913, -1164, 168, -367, -934, 1711, -85, -905, -926, };
const TfArray<1, int> tensor_dimension5 = { 1, { 64 } };
const TfArray<64, float> quant5_scale = { 64, { 0.00011762572830775753, 0.00011365528189344332, 9.5033043180592358e-05, 9.018428681883961e-05, 7.772610115353018e-05, 0.00010315510007785633, 9.8927004728466272e-05, 0.00012222626537550241, 0.00014292258128989488, 0.00020300399046391249, 7.4118775955867022e-05, 0.00011932770576095209, 0.00010377124272054061, 0.00016357671120204031, 0.00011534924851730466, 9.055803093360737e-05, 0.00012161127961007878, 0.0001372985279886052, 8.5544881585519761e-05, 0.00012822440476156771, 0.0001281885924981907, 8.7209577031899244e-05, 0.00014452384493779391, 0.00010467249376233667, 0.00012121441977797076, 0.00010691019269870594, 9.2995229351799935e-05, 6.3220701122190803e-05, 0.00010910181299550459, 0.00016345015319529921, 0.0001756875280989334, 0.00011420996452216059, 0.00011273442942183465, 0.00011282087507424876, 0.00011628842185018584, 0.00010172429756494239, 8.0385179899167269e-05, 9.5015238912310451e-05, 0.00012501516903284937, 0.0001320315059274435, 0.00011006436398020014, 0.00011908612214028835, 8.2565558841452003e-05, 9.9414137366693467e-05, 0.00010094969911733642, 4.214622822473757e-05, 0.00011777463078033179, 0.00017542464775033295, 7.4092589784413576e-05, 5.002677789889276e-05, 0.00010681874118745327, 0.0001235974341398105, 0.00017042623949237168, 8.4678591520059854e-05, 0.00013877921446692199, 0.00010577986540738493, 0.00011711523256963119, 0.00010527260019443929, 0.00014345388626679778, 8.0876015999820083e-05, 6.9259273004718125e-05, 0.00013684376608580351, 0.00012441439321264625, 4.5370292355073616e-05, } };
const TfArray<64, int> quant5_zero = { 64, { 0,0,0,0,0,0,0,0,0,0,0,0,0,0,0,0,0,0,0,0,0,0,0,0,0,0,0,0,0,0,0,0,0,0,0,0,0,0,0,0,0,0,0,0,0,0,0,0,0,0,0,0,0,0,0,0,0,0,0,0,0,0,0,0 } };
const TfLiteAffineQuantization quant5 = { (TfLiteFloatArray*)&quant5_scale, (TfLiteIntArray*)&quant5_zero, 0 };
const ALIGN(8) int32_t tensor_data6[64] = { -1054, -584, -272, -220, 740, 164, -18, -754, 789, -467, 354, 555, 435, 161, -254, -88, -278, -95, 89, 9, -910, -259, 73, 85, 614, -569, 57, -69, -230, 169, -172, -256, 648, 726, -388, -176, -196, -304, -341, -196, -748, 23, -1443, 300, -150, -51, 756, 763, 38, -281, -613, -86, -131, -125, -67, -108, 32, -410, -864, -803, 182, 107, 462, -350, };
const TfArray<1, int> tensor_dimension6 = { 1, { 64 } };
const TfArray<64, float> quant6_scale = { 64, { 0.00012953096302226186, 0.00018255454779136926, 0.00021134655980858952, 0.00021398322132881731, 0.00020275493443477899, 0.00018776906654238701, 0.00018283321696799248, 0.00016132270684465766, 0.00020251185924280435, 0.00017214275430887938, 0.00025168558931909502, 0.00031293460051529109, 0.00016500447236467153, 0.00021336364443413913, 0.00021963979816064239, 0.00018354917119722813, 0.00020903952827211469, 0.0003050236264243722, 0.00021222210489213467, 0.00021845329320058227, 0.00012863302254118025, 0.00025141003425233066, 0.00024643907090649009, 0.00018868275219574571, 0.00019956570758949965, 0.00016876136942300946, 0.00032823072979226708, 0.00025955212186090648, 0.00017662311438471079, 0.00018172184354625642, 0.00015011297364253551, 0.00022907924721948802, 0.00017702311743050814, 0.00016513632726855576, 0.000185784199857153, 0.00031504168873652816, 0.00018131099932361394, 0.00021728046704083681, 0.00018270111468154937, 0.00019495577726047486, 0.00014853077300358564, 0.00026570350746624172, 0.00015002457075752318, 0.00016702037828508765, 0.00022022836492396891, 0.00018340762471780181, 0.00019110519497189671, 0.00019021752814296633, 0.00029754979186691344, 0.00019460139446891844, 0.00011959629046032205, 0.00025051788543350995, 0.00022896789596416056, 0.00019267805328126997, 0.00023109104949980974, 0.00025683312560431659, 0.00025491567794233561, 0.00012188370601506904, 0.00012576035805977881, 0.00023003542446531355, 0.00019758894632104784, 0.00023906325805000961, 0.00015803622954990715, 0.00016059393237810582, } };
const TfArray<64, int> quant6_zero = { 64, { 0,0,0,0,0,0,0,0,0,0,0,0,0,0,0,0,0,0,0,0,0,0,0,0,0,0,0,0,0,0,0,0,0,0,0,0,0,0,0,0,0,0,0,0,0,0,0,0,0,0,0,0,0,0,0,0,0,0,0,0,0,0,0,0 } };
const TfLiteAffineQuantization quant6 = { (TfLiteFloatArray*)&quant6_scale, (TfLiteIntArray*)&quant6_zero, 0 };
const ALIGN(8) int32_t tensor_data7[32] = { 138, 74, -162, 318, -343, -199, -862, -850, -660, 62, 9, -283, -423, 226, -752, -179, -268, -96, 16, -499, -765, 501, 843, -98, 62, 572, 252, 193, 442, 114, 488, 508, };
const TfArray<1, int> tensor_dimension7 = { 1, { 32 } };
const TfArray<32, float> quant7_scale = { 32, { 0.00026883551618084311, 0.00017796934116631746, 0.00020589574705809355, 0.00016364541079383343, 0.00013632710033562034, 0.00021767000725958496, 0.00014744765940122306, 0.00012015981337754056, 0.0001987506402656436, 0.00024391159240622073, 0.00026523682754486799, 0.00015731043822597712, 0.00020499897073023021, 0.00019852921832352877, 0.00023296171275433153, 0.00021701339574065059, 0.00017723138444125652, 0.00020723177294712514, 0.000176557558006607, 0.00026540763792581856, 0.00015863493899814785, 0.00020615567336790264, 0.0001685216702753678, 0.00019506379612721503, 0.00016125952242873609, 0.00019548871205188334, 0.00020619462884496897, 0.00021712781745009124, 0.00021747419668827206, 0.00021742399258073419, 0.00028085886151529849, 0.00027227419195696712, } };
const TfArray<32, int> quant7_zero = { 32, { 0,0,0,0,0,0,0,0,0,0,0,0,0,0,0,0,0,0,0,0,0,0,0,0,0,0,0,0,0,0,0,0 } };
const TfLiteAffineQuantization quant7 = { (TfLiteFloatArray*)&quant7_scale, (TfLiteIntArray*)&quant7_zero, 0 };
const ALIGN(8) int32_t tensor_data8[32] = { -104, -523, -62, 227, 74, 238, 192, 338, -561, -78, -100, 348, -391, 22, -501, 251, -241, -201, 287, -410, 161, 87, -297, 255, -411, -251, -359, 438, -7, -301, -45, 22, };
const TfArray<1, int> tensor_dimension8 = { 1, { 32 } };
const TfArray<32, float> quant8_scale = { 32, { 0.0003156019956804812, 0.00026402898947708309, 0.00031383460736833513, 0.0003602950309868902, 0.00038580625550821424, 0.00042006856529042125, 0.00027348389266990125, 0.00035006090183742344, 0.00025711039779707789, 0.00029418920166790485, 0.00029735744465142488, 0.00029296611319296062, 0.00019910121045541018, 0.00031025425414554775, 0.00026077334769070148, 0.00045196685823611915, 0.00034186491393484175, 0.00027886554016731679, 0.0002752890286501497, 0.00046404823660850525, 0.00033596862340345979, 0.00030736872577108443, 0.00038599307299591601, 0.00028813636163249612, 0.00017393815505784005, 0.00034328177571296692, 0.00037648060242645442, 0.00027593784034252167, 0.00033324750256724656, 0.00026136124506592751, 0.00031400029547512531, 0.00039034293149597943, } };
const TfArray<32, int> quant8_zero = { 32, { 0,0,0,0,0,0,0,0,0,0,0,0,0,0,0,0,0,0,0,0,0,0,0,0,0,0,0,0,0,0,0,0 } };
const TfLiteAffineQuantization quant8 = { (TfLiteFloatArray*)&quant8_scale, (TfLiteIntArray*)&quant8_zero, 0 };
const ALIGN(8) int8_t tensor_data9[15*128] = { 
  -62, 46, -106, -55, 42, 44, -15, -47, 4, 34, -47, -63, 48, -60, 7, -70, 18, -75, -86, -85, -5, -19, -73, -54, -34, -17, -49, -27, -21, -119, 30, 21, -1, -79, -65, -65, 33, 29, -45, -47, 47, 24, -115, -66, 41, -69, 11, -120, 17, -87, -40, -99, -36, 6, -70, -93, -8, -83, -36, 20, -67, -85, 27, -30, -57, -26, -19, -56, 48, 73, -13, -57, 5, 38, -27, -86, 50, -41, -27, -91, -8, -34, -60, -43, -46, -41, -85, -81, -30, -41, -52, -38, -22, -98, 68, -34, 5, -20, 20, -8, 73, 50, -52, -32, 41, 77, -49, -37, 74, 25, 3, -91, 30, -31, -24, 10, -58, -13, -52, -57, 19, -70, -43, -16, -59, -8, 44, -70, 
  -62, -6, 3, 6, -7, 9, 16, 15, -13, -11, 3, 5, 8, 21, -3, 11, 34, 20, -23, 8, 65, 22, -16, -11, -2, 2, -30, -11, -1, 14, -2, 54, -27, 14, 8, 28, -5, -5, 28, 4, -25, -8, -11, 14, 12, 14, 2, -8, 39, 39, -34, 39, 33, 34, 14, 15, 6, -19, 16, -3, 11, 8, 13, 26, -5, 23, 2, 12, -28, 2, 24, 24, -18, 1, 11, 0, 2, 14, 20, -9, 13, 31, -23, 15, 7, -11, 16, 3, 16, -27, 16, -17, 8, -26, 7, 15, -1, 15, 0, -16, 3, -7, -11, 18, -23, -10, -7, -6, 9, 0, -1, 8, 9, 7, -31, -2, 3, 17, 10, 18, 10, -19, 10, -34, 31, 21, -32, 8, 
  -56, -13, -32, 26, -7, 47, 17, 14, -23, -8, 53, -28, 11, -7, -20, -24, 16, -96, -52, -47, 3, -85, 21, -43, 50, 41, 4, -4, -22, -54, -17, -33, -35, -7, -87, 40, 6, 31, 30, 39, -12, -18, 52, -43, 6, -15, -63, -23, 2, 27, 55, -43, -71, -22, 36, -49, -3, 27, 52, 29, -6, -90, -45, -84, -60, 21, -80, 29, 16, 44, 11, 35, 19, 12, 33, -53, -1, -34, -38, -15, -39, 34, 45, -46, -65, 20, 17, -20, 29, 35, 32, 11, -7, -88, -23, -1, -49, 11, -51, 11, -47, -5, 5, 32, 17, 39, 17, -61, 9, -34, -9, 9, -29, 20, 40, -61, -5, 36, 6, 17, 33, 36, 48, -10, 6, -122, 15, -5, 
  -78, 29, -63, -59, 14, 29, -15, -1, 11, -30, -29, 33, 23, -83, -29, 21, 27, -42, -27, 5, 17, -71, 24, 5, 27, -22, -13, 3, 2, -35, 42, -2, 27, 8, -76, -24, -1, 24, -41, 60, 5, -90, -15, 57, -2, -17, -4, 4, 3, 11, -39, 9, 36, -24, 40, 22, -55, -14, 27, -2, 3, -27, 29, -8, 29, 24, -42, -34, 45, 13, -55, 66, -52, -76, 12, 52, -19, -14, 28, -9, -78, 33, -30, 7, 14, -18, 23, 12, -90, -5, 21, -27, -8, -13, 30, 6, -2, 1, -18, -38, -47, 17, -10, 48, -4, -22, -9, 44, -55, -69, 5, -103, -97, 14, 9, 1, 8, 29, 22, 19, -50, 17, 9, -2, -63, -67, -4, 10, 
  -86, -24, 19, -2, -30, -47, 9, -3, -7, -26, -40, -16, -28, -44, 10, 2, -57, 25, -42, 27, 34, 1, -58, -125, -28, 7, 30, 28, -17, 3, -20, -56, -81, 10, 23, 31, -12, -71, 19, 42, 37, -18, -71, 11, -7, -87, -43, -6, -44, 42, -10, 49, -28, 41, -46, -36, 51, 19, 18, 31, 8, -2, -38, -23, -71, 8, 32, 15, -42, -35, 15, 43, 39, 16, -9, 7, -17, -81, -29, -1, -57, 29, 18, 24, -48, 22, -29, -20, 63, 30, 16, -33, 0, 27, -30, -14, -14, -18, 46, -1, -26, 6, -3, 45, 32, -3, 3, -1, -22, -18, -34, 36, -8, 14, 10, 16, -9, 20, -6, -25, 45, 27, 11, 18, -35, -21, -30, -20, 
  11, 0, -5, -64, -3, -23, -38, 32, 0, -9, -41, -18, 35, -26, -36, 24, -9, -28, -14, 20, 7, -39, 34, -39, 23, 21, 28, 0, 9, -23, -6, -41, 15, -32, -5, -23, -30, -27, -17, 24, -7, -68, -61, 30, 33, -6, -50, 25, -14, 17, 10, 42, 37, -13, 45, -23, 6, 10, 21, -11, 17, -15, -11, 57, 15, -58, -4, -27, -30, -44, -31, 20, -25, -29, -27, 30, -7, 51, -23, 23, -35, 28, 7, 19, 20, -20, 22, -39, 0, -1, 19, 6, 1, 8, -14, 33, 5, -29, 40, -60, 3, -15, -64, 3, 4, -62, -27, 39, 18, 38, -36, 51, 4, 7, 32, 18, 12, -17, 24, -56, 33, -39, 27, 3, 28, 27, 1, 21, 
  9, -41, -40, 17, -5, 37, -37, 14, 23, 9, 46, -37, -13, 44, -61, 26, -9, 18, 19, -4, -8, -2, -3, 22, 13, 33, -61, 30, 36, 23, -53, 20, -69, -50, -42, 39, -27, 27, -17, -41, 7, 20, 40, -19, -27, 40, 16, 1, 20, 27, 2, 0, 12, 11, -6, 30, -8, 6, -81, -21, 34, 10, -69, -71, -24, -49, 13, 23, -8, 21, -36, -39, 20, 29, 47, -27, -10, 25, 32, 1, -7, -27, -61, 2, 3, -25, -32, 24, -43, -1, -115, 12, 21, 6, -41, -96, -41, -61, 22, -8, 14, 3, -71, -45, 5, 26, 18, -63, 19, -7, 21, -64, -7, 1, -10, -1, -28, -12, -16, 36, -62, -11, -51, -29, 44, -50, 30, -118, 
  1, -103, -47, -53, -34, 35, -36, -93, 30, -29, 3, 19, -41, -25, -39, 19, 12, 6, -10, 3, -23, 20, 29, 0, -31, -60, 34, 11, 34, 29, 3, -50, 24, -44, -56, -24, -22, 25, -50, -4, 28, -86, 22, 45, -21, -17, -45, 9, 25, 33, 8, 25, 40, 12, 40, 5, 10, -42, 19, 7, 35, 11, -6, 33, 18, -32, -63, -35, -13, -17, -13, 11, 10, -39, 33, 32, -25, -25, -15, 5, -4, 39, 18, 2, 18, 8, 25, -2, 6, -27, 18, 0, 14, -6, -44, 32, 9, -34, -16, -67, -30, 14, -11, -25, 39, -17, 10, 32, -63, -36, -29, 9, -1, 28, 35, 2, 6, 27, 25, -14, 23, -66, 17, 25, 17, 41, 1, 22, 
  -28, -12, 28, -29, -52, 15, 35, 14, -53, 42, -39, 29, -31, -31, 35, -24, -48, -1, 49, 22, 16, -37, -5, -106, -39, 30, 6, -13, -14, 18, -24, -13, 3, -52, 23, -40, -39, -41, 35, -56, -18, 23, -15, 24, -31, -77, 33, -41, 31, -57, 28, 48, 15, -67, -3, -81, -14, 12, -36, 28, -20, 13, -27, 28, 7, -63, 26, -69, -31, 7, 30, -46, -39, 24, -42, 22, 35, -16, 37, -14, 30, -65, 17, 21, 11, -102, -30, -110, 36, 25, -43, -25, -5, -17, 5, 10, 19, -85, 35, -25, 17, 17, 14, 14, -70, 19, -31, -37, 31, 57, 22, -51, 30, -22, -19, 15, -9, 59, -49, -87, 42, 12, -41, -21, -25, 43, -4, -6, 
  -30, 2, 18, 9, -23, -13, 28, -29, -9, 20, -52, 58, -54, -80, 30, -78, -53, 12, 0, 17, 9, -94, -69, -34, 3, -13, 11, 2, -14, 11, -8, -39, -23, 20, 20, 14, -60, 24, 29, 33, 22, -16, -66, 39, -45, -64, 31, -121, -35, 21, -6, 44, -43, -11, -46, -9, -25, -16, 14, 5, -52, 8, 10, 30, 24, 24, 18, 4, -12, 44, 34, 43, 40, -1, -40, 28, -60, -24, 27, -66, -33, 26, 0, 10, -42, -1, -39, -24, -18, 5, 8, -13, -50, 18, 22, 23, 19, 5, -26, -39, -7, 26, -3, 39, 12, 37, -67, -12, -40, -58, -17, 1, -58, 15, -2, 22, -4, 18, -32, 7, -46, -7, 13, 31, -9, 40, -28, 16, 
  0, 27, -21, 23, -32, -36, 12, 56, -1, 22, 28, -37, 25, 34, -42, 18, 22, 31, -64, -66, -19, -47, -65, 7, 43, 27, -71, -10, -53, 5, -3, -11, -64, 22, -1, 35, -32, -60, 28, -25, 2, 15, 19, -37, 35, 36, -9, 17, -1, 30, -59, -39, -45, 10, -33, 17, 31, 10, -78, 42, -34, -4, 26, 34, -66, 22, 12, 21, -12, -37, 29, -17, -16, 29, 19, -47, 25, -3, 3, 5, -11, 28, 9, -69, -65, -28, -40, 4, 20, -8, -75, -14, -30, 33, 23, 33, -114, 14, -34, 7, 1, -18, 23, -32, -19, 19, 3, -45, 8, -1, 0, -45, 14, -2, 5, -35, -89, -57, -30, 23, -38, -48, -60, -40, -29, -69, 19, 6, 
  -65, -27, -63, -17, 25, -40, -43, -39, -65, 64, -55, -22, -15, -21, 19, 2, 54, -83, 19, -53, 73, 35, 12, -51, -62, -12, -30, -1, -19, -9, 1, 33, 41, -66, -66, -54, 27, -88, -27, 16, -98, 21, -48, 11, -62, -41, 9, -29, 29, -81, 56, 11, 51, 36, 39, -28, -63, 40, -27, 3, -35, -34, 4, 8, 38, -39, -49, -52, 29, -49, -49, 0, -46, 0, -68, 20, -41, 26, 20, -37, 1, -62, 49, -14, 29, 21, 26, -8, -33, 36, -20, 30, -44, 46, 16, -10, 25, -42, 16, 14, -37, -40, -36, -10, -37, -32, -10, 17, 13, 41, 52, -18, 32, -61, 37, 13, 15, -40, -1, -33, 5, 40, -39, -16, 13, 27, 12, -7, 
  -11, -7, 13, -5, -30, -14, 34, 16, -79, -15, 26, -36, -15, -42, 35, -68, 4, 9, 32, 12, 30, -63, 20, -49, 18, 47, -12, 8, -14, -69, 9, 18, 33, -33, 24, 3, -41, 4, 39, 9, -50, -15, 4, -23, -40, -53, 29, -59, -12, -22, 30, 36, 31, -85, 40, -64, 36, 39, -32, 17, -47, -45, 1, 1, 40, -24, 8, -21, 8, 0, 36, -10, 13, 0, 17, -15, -31, -33, 25, -63, -55, -73, 17, 15, 22, -5, 23, -89, -28, 36, -28, 23, -42, -83, 10, -10, 31, -27, 29, 36, 29, 17, 17, 14, 37, -9, 0, -24, -7, -38, 27, -66, 19, -31, -10, -20, 5, -22, 23, -47, -78, 19, 9, -31, -33, -26, 8, -43, 
  36, 16, 6, 25, 40, -50, -34, -33, 14, -2, -36, 27, 25, 43, -72, -59, 52, 3, -85, -67, -27, -33, 21, -66, -48, -61, 72, 4, 37, -6, -60, -54, 9, 24, -12, 35, 31, -60, -13, -60, -2, -29, -25, -1, 22, 39, -98, -38, 44, 34, 54, -84, -8, -28, 37, -61, -9, -60, 28, 24, 40, -12, -66, -73, -39, 23, -46, 14, 9, -42, 9, -36, -2, -13, -23, -8, 13, 39, -70, -21, 13, 29, 61, -21, 9, -29, 6, -41, 22, -6, 20, -30, 41, -10, -69, 10, -31, 29, 25, -4, 25, -64, 6, -11, 8, -31, -40, -9, 12, 11, -31, 29, 27, 15, 25, 22, 2, 30, -16, -8, 27, -30, 28, 11, 58, -28, -14, 23, 
  -39, 26, -61, -27, 27, 39, -44, -36, 24, -27, -3, -7, 16, 6, -95, 29, 41, -47, -3, 29, -47, 55, -32, 30, 3, -48, -68, 0, 45, 28, 17, -30, -127, -23, -76, -14, 15, 40, -52, -33, 9, -7, 4, 8, 32, 10, 24, 27, 43, -12, -57, 36, 16, 50, -38, 35, -20, -52, -96, 10, 48, 26, -25, -47, -97, -54, -52, -28, -31, 10, -113, -71, -77, -15, 12, -4, 39, -1, 32, 0, 15, -12, -39, 16, -12, 18, -53, 23, -16, -36, -97, 14, 28, 4, -30, -120, -86, -6, -6, -60, -79, -25, -71, -52, -66, -31, -11, 30, 23, 11, 28, -77, 21, -33, -44, 61, -18, 37, -41, 31, 13, -32, -42, 7, 53, -75, 7, -102, 
};
const TfArray<2, int> tensor_dimension9 = { 2, { 15,128 } };
const TfArray<1, float> quant9_scale = { 1, { 0.0054890192113816738, } };
const TfArray<1, int> quant9_zero = { 1, { 0 } };
const TfLiteAffineQuantization quant9 = { (TfLiteFloatArray*)&quant9_scale, (TfLiteIntArray*)&quant9_zero, 0 };
const ALIGN(8) int8_t tensor_data10[64*1*3*13] = { 
  /* [0][0][][] */ -41,84,-73,72,-79,57,51,0,-104,85,17,-51,-70, -16,43,-67,-42,82,-4,-86,52,-86,-5,0,26,-51, -36,23,-34,95,127,-23,-11,68,-4,-34,16,92,-48, 
  /* [1][0][][] */ -3,-42,-13,-11,8,-66,63,11,22,-3,-38,56,-6, 17,34,-44,-49,71,48,31,7,29,14,6,-41,48, 21,-9,127,-64,-24,-41,-4,8,-6,40,-19,-14,-14, 
  /* [2][0][][] */ -127,-25,16,5,112,32,-40,32,20,13,-69,11,9, -77,93,86,8,29,-3,-55,-51,71,3,23,-15,-2, -27,56,60,51,53,14,-62,-68,76,11,60,47,7, 
  /* [3][0][][] */ -127,2,14,59,23,31,-30,-3,63,-54,-1,-14,-21, -90,-11,58,35,22,32,-12,-5,-1,-30,16,-59,-24, -38,35,58,75,-9,96,9,65,-18,-45,8,-58,-2, 
  /* [4][0][][] */ -18,-1,-51,-14,90,-10,-83,36,106,-72,-83,127,-42, 25,27,-39,-46,86,-61,-44,78,11,-126,7,95,-84, -21,-14,-44,36,14,-51,19,61,-10,-53,21,-5,-40, 
  /* [5][0][][] */ 13,28,44,-40,-88,-36,-111,48,69,-6,23,46,-31, 22,-46,19,44,51,-58,-29,10,-49,9,69,-18,-117, -45,40,-58,-16,127,-24,-41,-11,-60,82,27,-12,26, 
  /* [6][0][][] */ -43,-13,85,-48,-92,-34,-82,-16,-89,-33,-6,115,-9, -94,3,92,-46,-18,-29,-127,-22,-88,-15,-23,20,-2, -95,-36,56,-58,85,-10,-85,-37,-36,-15,-24,-8,-70, 
  /* [7][0][][] */ 9,-17,-40,71,62,42,109,35,68,-127,-26,1,-12, 10,-75,6,-38,-21,-48,-88,-95,-25,39,43,37,36, 40,-1,65,22,-65,-67,-67,-43,10,41,4,12,-8, 
  /* [8][0][][] */ 38,-64,-27,28,-10,62,37,-44,-12,-7,0,1,31, 75,-21,-2,-37,-31,-6,-55,46,84,-50,-6,32,-33, 21,18,102,-34,-66,-49,-127,16,93,-24,49,30,-16, 
  /* [9][0][][] */ -127,67,67,2,3,81,-18,-67,-34,-38,-8,50,-75, -81,85,5,-16,104,24,34,22,26,120,-3,17,-15, -84,103,56,-76,-39,44,-42,33,66,93,-83,83,16, 
  /* [10][0][][] */ -127,-64,58,-77,-12,-81,-11,34,-5,-26,-83,-61,19, -88,-67,-7,-24,-1,82,37,-29,18,-26,66,25,5, -43,-95,-83,59,8,-43,35,-38,95,-79,-35,-25,32, 
  /* [11][0][][] */ 62,17,20,-39,-70,-22,58,80,0,104,-48,-62,120, -47,3,29,127,-34,66,-4,-15,-30,90,16,-27,-22, -58,-73,19,10,-2,19,44,-79,-34,30,-34,10,125, 
  /* [12][0][][] */ 29,34,-34,28,-36,-12,22,-21,55,-18,-52,-30,3, -74,23,4,78,-14,73,42,-73,18,-59,38,-46,6, -127,-4,-58,11,-110,68,-11,-75,22,-38,34,-37,-15, 
  /* [13][0][][] */ 28,-25,58,-45,26,-72,12,-16,117,22,-15,-31,-27, 34,-127,-13,58,63,49,-9,-64,-66,-12,8,27,25, -118,64,34,6,77,-31,32,45,66,51,30,29,-12, 
  /* [14][0][][] */ -67,107,4,-105,100,-42,-33,5,-74,-13,92,56,-19, -73,77,58,-127,84,-16,-1,-107,-27,54,36,5,14, -58,44,-29,-117,-42,35,28,30,-12,22,31,-14,-42, 
  /* [15][0][][] */ -12,20,-4,35,-83,12,83,-16,54,92,-100,59,23, 63,41,-33,-19,-120,-42,81,-33,-31,-30,-73,24,-7, 39,-17,-123,-49,-67,-1,127,17,16,-102,-41,56,-22, 
  /* [16][0][][] */ -40,-20,-58,-66,118,1,41,-48,-49,-30,23,15,-66, -50,-69,6,-77,-10,-6,-96,-67,-6,79,-68,37,17, 11,-75,-1,23,83,-127,82,9,4,21,3,28,58, 
  /* [17][0][][] */ -47,4,15,-17,-65,-40,10,87,22,-46,-53,-21,-11, 33,-5,9,-70,40,75,-3,29,21,27,-86,-20,5, -41,43,-44,-45,57,67,20,-44,32,127,-19,-92,-52, 
  /* [18][0][][] */ -20,-61,59,53,77,-26,7,-13,-127,30,51,-4,3, 100,-3,42,5,8,-69,-17,-39,-85,49,57,-16,7, 91,74,-39,-93,-63,-121,-5,37,-27,21,-45,-67,81, 
  /* [19][0][][] */ -14,7,-81,7,-3,127,-18,-48,-25,127,55,-48,-86, -63,-16,-101,-33,36,-7,-16,-95,-18,118,-8,-84,4, 28,-49,-27,80,89,-41,-53,2,64,52,-2,30,14, 
  /* [20][0][][] */ -119,-5,-10,28,-84,5,-57,-39,-15,-4,18,5,49, -45,-9,32,58,11,43,-27,35,29,-52,45,-24,-77, 31,28,112,101,58,-65,-127,-12,-59,-10,-11,58,48, 
  /* [21][0][][] */ 32,-8,-13,55,-7,-127,15,59,-84,9,64,-68,0, 34,36,-52,-3,-24,-107,57,8,-74,-28,100,-76,2, 52,-54,-31,97,55,-10,45,6,-60,37,65,0,-41, 
  /* [22][0][][] */ -117,-40,-44,8,56,-33,-20,-33,9,3,28,3,-25, 11,43,-127,37,31,20,-40,-3,-15,-17,33,39,-58, 10,-17,-11,1,1,4,12,-10,25,-1,-4,-20,-31, 
  /* [23][0][][] */ -59,-70,75,9,-19,-51,-61,18,40,-51,-64,54,-53, 19,16,18,-8,-8,-17,-103,-71,49,55,-13,55,-14, -62,73,-80,-74,-69,-1,-55,7,127,45,-30,-81,-46, 
  /* [24][0][][] */ 5,32,-60,80,77,-39,64,55,-49,-20,61,42,9, -61,-38,51,127,57,11,-58,37,8,-11,49,-22,39, 30,57,-97,11,47,57,-7,-53,38,53,53,-86,-5, 
  /* [25][0][][] */ -76,-127,-11,29,-2,-8,2,-11,-76,45,67,33,-74, -88,-54,5,-12,-42,-67,-36,-12,26,-40,-33,18,32, -110,-123,23,-68,49,-19,-16,-6,-21,66,25,-69,10, 
  /* [26][0][][] */ 75,88,72,-57,28,75,-39,-25,36,-126,-7,-43,-14, -3,99,89,-55,-24,-102,-106,-127,-10,-104,-6,-122,5, -79,55,-6,15,-72,-74,-36,2,38,-7,-33,-70,-55, 
  /* [27][0][][] */ 127,-3,-52,-12,113,-44,77,-53,-99,-114,67,58,61, 110,78,-37,72,56,-62,-10,13,8,3,-35,-35,87, 36,63,-17,45,-61,-68,-3,-13,58,-62,63,37,77, 
  /* [28][0][][] */ 24,70,46,-25,-67,-21,20,124,31,-96,75,-37,71, 31,62,29,-44,2,-24,20,96,-2,-127,102,-8,-36, -48,-30,-89,14,26,30,11,1,28,-25,21,56,9, 
  /* [29][0][][] */ -10,38,88,-57,118,48,-63,-72,68,27,-66,47,32, -5,-105,93,43,-13,-16,39,54,-75,107,89,-11,-49, 33,-100,-42,48,-83,-73,1,91,74,-127,40,-67,35, 
  /* [30][0][][] */ -127,-11,-90,-21,95,29,15,71,-31,34,26,37,19, -56,-21,-42,22,-17,54,-4,-25,-23,-57,15,-2,21, -15,-46,8,1,21,-34,59,8,42,-58,69,21,41, 
  /* [31][0][][] */ 102,-12,-127,-108,53,78,-23,-96,-4,-54,-88,-113,-77, 76,42,8,2,67,-22,-4,56,-91,-5,28,110,-40, -45,48,-60,-19,118,-45,-12,-14,96,-101,-63,-3,-11, 
  /* [32][0][][] */ 103,-71,-74,16,-115,10,40,34,-69,-34,22,-63,32, 25,50,29,10,44,-25,-15,94,-45,-59,44,111,-50, 65,-45,49,24,127,36,-102,-32,31,9,-85,-17,24, 
  /* [33][0][][] */ 18,23,15,-61,117,-127,-87,53,-77,-45,-36,38,33, 36,16,80,-89,15,8,40,18,44,-61,-93,42,12, 53,-59,14,-88,12,68,-30,-15,28,73,-11,-2,64, 
  /* [34][0][][] */ -66,52,19,22,14,-16,27,-22,17,19,9,-44,-7, -90,-65,-26,-48,23,-11,15,-14,-26,10,-44,-8,0, -45,-127,-18,-25,-63,-33,5,-17,-28,3,66,-10,5, 
  /* [35][0][][] */ 77,24,27,24,-43,17,66,-15,-11,-96,32,28,3, -55,-127,26,34,55,-52,-23,51,32,-19,-7,-21,72, -96,108,-70,-42,-20,20,-26,-48,-28,45,-55,26,-40, 
  /* [36][0][][] */ 91,-17,19,94,-2,77,0,-51,73,-3,33,53,2, 79,19,19,69,59,30,46,29,32,-6,49,-7,6, 7,-101,-8,58,127,-36,-37,-22,-45,-31,-61,-1,-45, 
  /* [37][0][][] */ 33,45,-50,-9,45,25,37,3,-82,-27,73,-2,-12, 52,-93,-76,-19,0,18,127,-60,-45,65,-18,-57,18, -32,-89,44,96,-115,37,34,-105,71,59,-117,17,-19, 
  /* [38][0][][] */ -28,43,-33,58,68,-46,-28,20,6,-1,-38,32,54, 62,65,-43,-43,10,22,3,42,54,-33,-14,-12,92, 70,78,-43,-3,127,-25,-32,46,-10,58,-98,20,77, 
  /* [39][0][][] */ -16,52,-21,67,58,-108,-65,64,-12,-127,82,44,-60, -63,29,-113,70,-1,-20,-83,30,25,-75,-31,7,80, -13,-38,52,-22,43,-25,-44,-57,22,35,17,43,72, 
  /* [40][0][][] */ -28,37,-3,-37,-95,46,-51,-121,58,75,-18,56,1, 54,3,44,-64,-69,78,-28,-56,-30,127,42,37,23, -22,0,72,-76,-30,33,24,9,-3,43,63,-50,-94, 
  /* [41][0][][] */ -6,-30,69,43,-103,-38,-63,83,20,-16,-62,55,-110, -8,-2,74,-32,-127,6,-35,59,24,-37,-57,-23,-25, 117,-19,92,77,-108,120,-69,-2,32,11,-92,39,61, 
  /* [42][0][][] */ -80,16,80,-25,-35,21,-27,-13,-72,-54,104,40,-16, -68,-57,72,-40,-28,42,53,-9,-51,-110,65,82,-64, -49,2,6,26,-36,0,-29,-127,3,23,-59,126,33, 
  /* [43][0][][] */ -43,56,58,33,66,-19,-62,67,39,-106,-30,-33,-127, 17,-18,51,27,42,-42,2,10,-45,-20,25,-79,-56, 40,-67,6,58,-1,31,45,19,-15,92,0,-18,0, 
  /* [44][0][][] */ -127,101,-81,-33,18,42,-54,-29,27,9,-32,-70,90, -81,84,-4,-68,78,-12,-64,56,4,42,-57,-17,94, -20,-44,42,-28,110,77,-52,7,-27,-60,-84,1,52, 
  /* [45][0][][] */ -46,-2,29,56,-10,2,-93,-127,58,18,-8,78,-18, 47,10,3,19,-10,-48,-16,2,-1,18,30,-56,45, 1,-60,-57,26,-38,33,39,74,-9,2,-20,-44,-14, 
  /* [46][0][][] */ -39,21,66,-71,-74,27,44,-36,18,34,-102,26,75, -70,-11,58,42,2,108,72,16,-78,96,-31,-23,18, 78,-77,-32,47,125,-76,-86,-27,46,-33,110,-25,-127, 
  /* [47][0][][] */ -79,5,-114,127,-38,-44,-32,-87,9,11,8,38,56, 26,-26,91,73,-64,-61,13,-48,-59,-35,4,7,44, -44,53,42,-73,-75,-67,-25,15,-67,24,-13,65,53, 
  /* [48][0][][] */ 45,-33,0,-41,-26,69,13,72,-81,-92,7,-2,31, -11,88,-109,-64,-57,96,21,-60,-55,-42,27,-15,15, 85,35,75,14,5,106,-34,-38,34,20,127,-19,49, 
  /* [49][0][][] */ 24,18,-66,-18,7,123,42,79,-52,51,-127,29,21, -65,44,-71,-33,0,74,32,51,-55,-60,3,68,-1, 68,-76,-29,23,-11,-5,23,-10,9,-23,-11,-30,29, 
  /* [50][0][][] */ -127,-10,-60,-33,-30,-34,-3,11,-40,-43,25,-14,-5, -87,-18,37,24,-32,8,-4,37,-37,7,-30,35,2, 20,-78,-79,-4,32,-20,-75,-50,14,9,2,-6,-46, 
  /* [51][0][][] */ -31,127,52,46,9,45,-70,4,78,-7,-6,32,27, -69,51,-49,89,48,-87,20,54,15,-10,-99,65,-2, -69,-65,-38,10,-5,-64,101,46,15,2,18,3,-55, 
  /* [52][0][][] */ -16,-3,11,-20,-56,-35,-45,-64,44,51,-59,-76,32, -67,40,-1,-10,17,-32,-7,27,11,34,15,-32,40, 26,48,37,65,-9,-76,-127,-80,-81,-55,8,63,49, 
  /* [53][0][][] */ 8,-121,66,110,44,82,59,1,23,46,13,-25,2, -102,-101,-23,44,24,-23,-19,44,67,-17,19,19,-27, -98,-127,-60,-80,22,99,-44,-19,45,20,-71,-11,13, 
  /* [54][0][][] */ 71,45,45,-27,-12,-68,-99,56,67,-70,20,-25,-61, 5,52,-90,-51,59,73,-82,7,30,78,-18,19,-69, -18,29,-37,2,-36,-17,50,-14,32,32,122,21,-127, 
  /* [55][0][][] */ -97,12,127,-28,28,63,55,105,70,-2,9,-50,-1, -85,-23,-28,-22,-42,25,80,-64,-90,-78,-30,74,79, 37,-36,-112,-76,-4,-24,-85,-46,4,80,3,-81,-102, 
  /* [56][0][][] */ -43,-7,19,24,-38,-69,52,14,-25,-2,64,-1,-87, -63,44,15,14,1,-17,-46,2,48,77,23,-61,11, -62,73,-109,43,73,8,-97,-21,108,52,-127,-25,73, 
  /* [57][0][][] */ -118,71,-29,-46,52,-60,-99,55,-3,32,-12,-1,69, 22,57,64,55,-42,-127,-85,-110,-97,-65,69,82,-1, -46,17,73,-12,-49,-96,-47,-92,-50,111,62,101,61, 
  /* [58][0][][] */ 110,-127,44,-63,45,-73,-81,-40,84,-20,58,24,15, 67,-103,20,23,44,4,-19,-73,45,72,-14,56,-83, 9,45,38,77,-61,67,-67,-15,-69,-32,-50,24,1, 
  /* [59][0][][] */ 12,-79,-32,12,-24,-9,109,-108,-80,-1,86,-77,-90, -65,89,89,-74,75,-38,-64,-5,28,67,-22,127,-59, 107,97,18,-95,92,-124,-13,-44,67,-42,-23,72,-27, 
  /* [60][0][][] */ -53,-10,-91,-41,60,-51,-34,93,127,-60,-38,10,5, -28,46,18,65,28,-87,-5,7,-41,-11,46,67,-5, -3,-22,-9,82,-14,-66,68,22,-76,57,12,-39,-52, 
  /* [61][0][][] */ -34,-39,-69,49,-17,1,12,-1,-30,26,29,26,-15, -14,8,70,-3,-22,-49,89,-12,-70,-4,27,4,-40, -41,5,22,-2,-61,12,-28,-91,127,-70,-18,-8,-51, 
  /* [62][0][][] */ 23,-28,0,-109,52,-23,44,104,-127,23,16,-29,-3, -88,34,24,-68,3,-28,-16,59,-21,32,62,-35,-11, -108,90,70,26,46,27,-43,88,6,-23,29,17,80, 
  /* [63][0][][] */ 34,-5,62,1,-9,34,-66,-34,-66,-29,45,60,-61, 0,-27,-25,2,27,70,-102,-43,-96,87,-15,21,-18, 61,-127,25,39,-26,-4,92,122,-89,122,-97,-5,-83, 
};
const TfArray<4, int> tensor_dimension10 = { 4, { 64,1,3,13 } };
const TfArray<64, float> quant10_scale = { 64, { 0.0026000028010457754, 0.0035841334611177444, 0.0032457434572279453, 0.0040329666808247566, 0.0036365448031574488, 0.002947706263512373, 0.0027872270438820124, 0.0032127357553690672, 0.0030104492325335741, 0.0021460580173879862, 0.0031894592102617025, 0.002859567990526557, 0.0033091658260673285, 0.0031477261800318956, 0.0021772459149360657, 0.0023651758674532175, 0.003292362205684185, 0.0030522036831825972, 0.0024599670432507992, 0.0029499721713364124, 0.0023170837666839361, 0.0031425901688635349, 0.004595448262989521, 0.0027540607843548059, 0.0032589267939329147, 0.0036497691180557013, 0.0019371971720829606, 0.0018888743361458182, 0.0032230087090283632, 0.002591629745438695, 0.0040951641276478767, 0.0016715270467102528, 0.0023703672923147678, 0.002373876515775919, 0.0046619768254458904, 0.0038530284073203802, 0.0025877952575683594, 0.0030022985301911831, 0.002369273453950882, 0.0029755332507193089, 0.0024582406040281057, 0.0019828225485980511, 0.0030144406482577324, 0.0030347860883921385, 0.0025725285522639751, 0.0035122011322528124, 0.0026277005672454834, 0.0027316052000969648, 0.0022607645951211452, 0.0022715639788657427, 0.0047749434597790241, 0.0031880063470453024, 0.0028142745140939951, 0.0032528822775930166, 0.0021581118926405907, 0.0029047310817986727, 0.0032555393408983946, 0.0023121046833693981, 0.0023262831382453442, 0.0021214443258941174, 0.0036142924800515175, 0.0042053950019180775, 0.0029340919572860003, 0.0029044232796877623, } };
const TfArray<64, int> quant10_zero = { 64, { 0,0,0,0,0,0,0,0,0,0,0,0,0,0,0,0,0,0,0,0,0,0,0,0,0,0,0,0,0,0,0,0,0,0,0,0,0,0,0,0,0,0,0,0,0,0,0,0,0,0,0,0,0,0,0,0,0,0,0,0,0,0,0,0 } };
const TfLiteAffineQuantization quant10 = { (TfLiteFloatArray*)&quant10_scale, (TfLiteIntArray*)&quant10_zero, 0 };
const ALIGN(8) int8_t tensor_data11[64*1*3*64] = { 
  /* [0][0][][] */ -87,5,-2,-54,0,-17,47,17,-12,-16,-84,109,-10,-22,14,15,-56,-40,16,-126,-30,29,-76,-34,9,-4,-2,-32,27,70,-75,-56,44,2,-7,-54,34,-48,-61,-28,-12,58,-33,-58,-84,0,7,-54,-34,-92,-77,-22,42,-62,-85,93,-38,-35,41,62,7,-27,-86,-62, -9,-51,9,27,-51,-21,-84,7,-17,-9,-36,10,-49,71,-41,1,-6,11,-8,-104,-51,30,-22,10,-37,-86,35,-43,62,-16,21,-8,-16,-33,10,30,-11,38,18,-5,-1,57,36,34,12,-22,16,-69,33,-67,-24,-28,-25,-89,-20,27,-16,-48,62,-16,-103,-110,-31,-34, 24,33,-16,-56,4,-36,-62,13,-57,-56,43,34,108,1,-69,23,-99,-12,-102,-35,-79,44,-17,3,-27,19,4,19,10,-100,63,17,60,-38,52,49,114,14,-59,-30,19,-70,-45,-127,-37,-46,43,-48,-3,13,40,26,24,44,-1,7,12,-53,37,-13,107,-1,-39,-40, 
  /* [1][0][][] */ -26,-14,21,9,3,14,53,17,11,19,-109,6,49,-71,-2,48,-8,3,5,-35,47,36,18,-36,-18,-57,4,-12,-32,-1,-57,58,-34,-19,-67,-6,28,7,-16,-10,-12,-1,-13,23,18,27,-43,34,-33,9,-39,-77,19,-66,-69,-82,53,10,-20,23,-110,23,44,-15, -26,53,35,35,-16,-42,51,-11,41,6,-20,57,51,-3,-8,-36,-27,-13,-21,-49,48,-38,39,40,-2,-24,2,-96,-26,36,-68,-37,10,-13,-26,-127,24,-56,-20,-3,19,51,18,41,61,-35,19,-5,2,-53,-6,-56,26,-90,-56,-45,39,-5,9,32,-21,4,5,45, -4,25,26,66,-46,-37,50,18,28,25,-90,24,-13,-50,27,-37,19,-2,-31,-77,-9,-26,-9,-19,51,-38,13,-73,-20,32,-41,-1,32,23,-20,-46,-21,-8,24,-9,-29,51,-10,18,48,61,-36,1,-80,1,-2,-3,17,-56,-15,-87,-55,-6,5,-12,-58,-41,19,46, 
  /* [2][0][][] */ 16,-48,22,-1,-43,24,60,1,-29,54,54,53,85,-47,59,-45,-46,-18,-103,6,16,-122,-19,-32,-80,-25,18,-77,47,-34,1,14,-42,-53,-15,62,-12,-77,-62,-101,11,-29,47,-71,25,-5,55,-34,-81,-43,52,76,-46,12,42,58,32,-8,-108,17,-18,-26,94,-42, 79,-73,-3,78,34,-5,-13,5,-53,-64,-28,-8,57,-82,-19,-48,-110,-9,-77,-35,36,-107,61,-27,-34,-31,-102,-63,-66,29,-8,-33,-21,-84,13,-71,-67,-17,2,-52,-87,-109,-62,13,42,-14,89,-58,55,28,17,37,23,-86,11,91,34,-112,-46,-69,26,-100,16,-28, 77,-84,-27,-35,56,56,-42,-62,-31,-15,-20,28,-1,-70,34,-127,-26,-70,13,34,11,6,30,-33,-34,-66,-23,5,49,-56,79,23,39,41,11,-97,-35,-44,50,48,-68,-74,-41,-14,-4,-15,49,-93,46,45,57,25,-53,-52,-41,-7,-4,-22,-108,6,1,-36,66,-45, 
  /* [3][0][][] */ -45,-15,-78,-19,-73,-41,22,69,42,-117,-28,28,-38,-55,-55,5,-10,-27,28,-36,8,41,-17,25,-99,-64,28,-36,35,32,-114,8,31,-49,32,126,28,41,-10,-96,63,-2,-78,-51,-127,1,31,-26,58,51,37,-42,50,-73,-58,46,-78,-3,-16,77,-96,-66,8,-38, 46,-19,-45,-80,-44,9,14,-37,16,-47,3,10,7,-31,-24,45,119,-4,-19,-36,19,42,-14,-24,-110,-3,-3,44,80,-39,-52,26,14,-55,-4,-24,44,7,-54,-59,12,39,13,-35,-51,-2,-14,-31,-30,-68,-10,-52,60,-96,-7,-48,-4,38,54,66,-81,-86,-44,11, 45,-29,8,-14,-22,45,15,-42,-72,-14,10,46,105,4,-15,-58,-115,-43,-25,-22,-46,-7,15,3,82,-30,20,-5,42,-64,93,22,-38,64,-34,61,25,10,25,-64,10,14,34,-18,-80,-35,45,47,-24,53,-1,50,-29,2,17,67,-66,-21,51,-9,47,-6,32,20, 
  /* [4][0][][] */ -36,26,-106,-59,31,-85,-56,-73,-73,-33,-51,-109,-17,-119,-39,-78,-33,20,-94,-21,-56,-11,-76,-36,-64,-78,-38,-35,-73,-77,-20,53,-70,-108,-58,-6,-66,-97,-39,-62,19,-66,-43,14,-84,-99,-58,2,-51,-4,-18,-15,-9,-113,-23,-10,-103,-25,55,8,10,-78,-10,21, 1,-43,-47,-54,-17,-87,38,-49,-14,-127,-30,8,44,-5,-59,12,-43,-61,-2,-82,-4,-59,-3,-83,-78,-82,-36,8,-94,1,-6,4,-32,-47,-53,-75,-63,-66,15,-24,-5,-91,-49,-33,-81,-11,-75,-28,-92,-66,9,-29,-54,-51,-75,-56,-57,-1,-98,-66,-79,5,-24,-35, -26,-58,-36,-58,22,-94,8,-15,-83,-39,-26,-4,18,-83,28,-15,-80,24,-67,-42,0,-71,1,-52,-13,-40,-44,-53,-67,-6,-19,53,22,-7,-28,0,-16,46,-68,-46,68,-27,-52,-46,-13,-10,-66,17,-45,-13,-57,11,-7,39,11,-6,-88,-52,-101,-100,34,-58,10,69, 
  /* [5][0][][] */ 31,46,2,21,11,17,-34,-97,11,38,-24,-39,-4,-44,9,6,31,8,11,31,0,7,32,39,17,-39,22,24,-34,-29,-6,0,-16,27,-127,-60,-12,-26,20,12,-24,-23,-13,11,16,33,-20,21,-20,34,-86,-25,32,-21,-38,-22,41,-27,31,50,19,-4,-17,57, 13,32,37,-3,47,45,-10,-47,16,11,-44,-93,-22,-29,49,-2,-37,4,33,3,-7,-29,-27,42,38,-31,21,39,14,-27,-73,44,-14,-20,-57,2,18,-75,22,-9,-17,27,-31,20,-19,19,-114,-42,14,-13,2,-16,33,-41,42,-62,22,40,-11,53,24,-74,7,7, -5,-13,46,50,25,-44,-31,-42,65,-42,31,-46,-52,-74,-39,-6,-3,23,-10,-38,8,50,-28,12,-73,-17,36,16,57,-13,29,8,21,26,-73,-27,-12,4,47,31,-8,-16,-61,-24,28,-8,-58,-24,28,16,1,-37,-25,-28,8,-3,-8,16,24,19,-21,-65,-10,53, 
  /* [6][0][][] */ 25,-2,34,2,-48,39,-94,-71,23,32,-102,56,4,-24,27,-20,-14,19,-23,-3,-71,32,-52,29,-47,-18,5,20,-18,11,27,-20,26,51,-20,-82,-8,17,31,-124,23,40,-63,-6,51,-63,-48,-76,61,20,-76,-32,-20,1,20,38,-58,-47,48,-24,-124,-31,0,69, 37,7,-31,-54,-18,-12,-127,-13,42,25,-88,35,37,-28,-2,29,-4,-30,23,-40,-35,56,-46,-23,24,-30,23,15,10,-64,-95,-20,21,45,37,-12,36,-4,9,-49,37,12,-69,-8,7,-79,-121,-21,26,8,-23,-44,-69,-66,-13,4,-97,-20,41,-40,-59,-28,-30,84, -24,38,37,-35,-59,21,-107,10,63,-3,-95,1,3,-19,-5,20,68,-49,18,16,-40,-1,-37,17,-30,4,51,69,44,-25,25,-1,31,55,8,-23,-9,11,-19,-64,54,6,-94,-39,46,-49,-67,-6,50,-25,-44,18,-50,-6,42,-10,-51,-31,8,-10,23,-26,13,-4, 
  /* [7][0][][] */ -99,3,-6,30,-73,28,27,40,10,0,30,21,23,27,-50,-22,-10,15,-10,-71,-12,22,44,46,-11,-9,3,-29,-16,3,43,2,-47,-16,-9,42,29,23,-21,16,39,48,14,-43,-32,57,12,38,-14,4,49,12,-22,-64,-17,71,7,0,-9,-21,-32,15,-3,21, -29,-7,-24,-26,-59,-17,19,42,23,4,-12,32,10,-1,-70,32,-26,23,-22,-81,-3,8,-27,-15,-41,-70,8,-14,-24,-32,1,12,36,0,-51,-50,24,-41,-29,-10,34,10,-16,-8,-17,25,-4,32,4,-38,-67,22,29,-24,4,-35,6,-16,-3,-8,-65,-9,54,0, -10,-12,-30,-50,-127,31,-13,-23,-23,-27,9,28,29,29,-59,13,-36,-15,26,-72,18,28,-38,14,-19,-14,-33,-6,-16,-20,-16,-20,-4,-38,-23,26,53,-26,-20,-44,21,-4,0,24,-75,33,17,10,-63,31,-40,52,27,-80,-38,5,11,-35,31,-51,-39,-49,1,23, 
  /* [8][0][][] */ -63,26,-11,42,-29,-44,-22,41,50,-7,42,-21,-33,-39,-29,-100,-55,-52,7,-78,38,-9,96,-32,26,-17,-41,36,-83,16,-10,27,6,7,74,-25,0,0,3,-10,17,18,-11,14,-31,-17,10,-9,15,18,12,-15,18,8,-71,-3,-46,19,-3,-18,-25,-7,-42,26, 38,-48,-38,14,-56,-45,-2,35,46,-16,-66,-55,41,31,-14,-56,-16,-14,-6,-71,10,-6,34,29,-34,-111,11,-11,-41,2,-8,1,10,0,-40,21,32,-15,-50,-69,23,16,38,14,46,-5,26,40,4,-6,-48,-15,29,-106,-37,-68,-13,-23,30,-12,-32,-24,127,28, -21,-40,-42,-98,-60,37,5,-47,16,-24,-24,19,-33,-35,7,47,-26,-12,-20,-29,-25,21,-50,15,-11,-114,-4,-26,37,42,-93,-47,67,15,-57,-64,38,-16,-31,-14,-20,25,-33,-18,-48,46,-5,4,-13,-15,-44,-18,-7,-86,20,-15,22,-23,-17,5,-65,0,2,40, 
  /* [9][0][][] */ 11,9,-39,-7,-33,-24,-85,49,19,23,11,12,-20,10,-24,39,-24,3,-8,-22,16,41,-26,-14,-41,22,-18,6,-25,-43,9,-47,6,-95,-31,-31,25,-23,-23,-33,14,-26,-23,-24,50,-28,5,29,-40,0,1,25,46,9,-4,18,-25,18,-5,-16,-1,7,18,-40, 38,-41,17,22,-16,-24,-28,16,-23,-19,-49,-21,27,96,14,29,-53,-9,19,-32,-22,5,-27,0,-46,-39,-22,16,18,0,-25,24,16,-38,-24,-12,-8,-25,-14,17,8,-1,-16,-44,-4,11,23,47,-15,1,-13,34,57,-26,-30,-25,-25,-26,4,-6,-51,82,59,-26, 55,-44,56,-45,-7,10,-68,-88,-20,-1,4,6,-1,8,9,20,13,28,-34,-24,-127,24,-25,-16,-14,-13,-67,-29,52,-43,2,23,49,36,-52,-24,4,-54,46,20,-87,-30,-61,-65,24,-42,1,-32,6,17,-23,-37,-39,6,2,-4,17,-50,-11,28,-57,20,35,-88, 
  /* [10][0][][] */ -73,-25,8,-6,-75,-93,-21,-87,-34,-34,-110,-16,-25,-33,-5,-84,-35,-78,-54,-95,-4,-69,-74,-9,-31,-22,-5,-51,-9,-80,-24,-111,-29,-86,-34,-84,-98,-26,-103,-19,-46,-71,-17,-102,-86,-92,-127,-21,11,-82,-123,2,-20,-48,-16,38,-50,16,-83,-94,-74,-79,-27,-102, -28,-92,-80,-36,-40,-104,-6,16,-23,-82,-8,-28,-15,-29,-17,-60,-90,-24,22,-5,-26,-105,-127,-58,-51,-75,23,-55,-83,-104,-21,-27,-64,-82,9,-82,-78,-26,-5,-94,-75,0,-96,-95,1,-31,-101,-81,-7,-48,-101,0,-34,-51,-11,-15,28,12,6,-24,-41,-20,-35,-35, -88,-45,-101,-43,-36,-39,-46,-14,-29,-38,-47,12,-38,-51,-49,53,-19,10,-77,-76,-30,-57,-110,-31,-9,-87,-39,-25,8,-82,-65,-96,-103,-4,-60,-88,-105,-50,-69,-93,-11,-67,-73,-44,-70,-24,-44,-4,0,-96,-24,-49,-87,-16,-63,-72,1,-63,-48,-31,-74,-66,-63,-23, 
  /* [11][0][][] */ -107,50,-49,-25,1,41,12,-8,-29,-2,17,33,-9,18,-41,-79,-97,18,56,-127,31,14,-81,1,39,-67,31,-18,-6,55,-107,6,18,35,-5,-11,45,-12,41,-2,-8,34,-3,33,-121,10,30,31,-89,-104,-33,-41,70,-55,-17,-33,27,8,-1,35,-56,-12,-2,16, -82,59,-22,-15,30,-24,20,1,-8,31,-61,4,23,30,6,-63,-17,-57,22,-37,-3,39,-93,-3,-34,-42,-4,43,29,33,-122,1,15,48,-87,44,72,17,-3,32,-22,-4,-6,47,-76,21,45,-27,-9,-77,-53,-45,-20,-75,-13,-42,-21,-31,17,-16,-50,-37,-2,39, -70,67,-18,-48,-27,-58,-43,-4,-45,-20,45,15,-27,-28,-4,36,-69,-29,-9,-38,-12,36,101,-28,-76,-29,-10,-12,-13,86,-57,-32,49,49,-44,-40,27,66,18,-28,-27,40,31,24,0,44,20,-19,-60,-35,-28,-114,-12,-12,-57,-61,-47,-7,15,-51,-21,-38,-61,40, 
  /* [12][0][][] */ 2,40,-53,-9,-21,12,-117,36,37,-33,12,-50,-46,27,-28,-39,-9,-54,49,-58,13,2,-47,-52,32,-12,0,95,23,70,-50,88,31,33,15,-59,57,-12,33,22,-13,-15,-23,15,-18,-6,10,-51,1,31,-26,-51,15,-41,47,-35,-53,-23,17,56,-62,-53,-91,-16, 21,65,-65,-50,4,0,-86,37,-33,-63,26,-127,-55,101,5,-3,-7,13,-7,-32,-87,-22,-59,-61,-43,-35,19,61,6,-14,-103,19,-50,10,30,88,52,-42,-21,-4,21,4,-33,38,-75,-14,-100,-80,-37,-49,-108,41,-107,-53,62,-8,-41,-52,21,-17,6,-85,-54,30, 45,0,-35,-49,39,17,-35,17,-12,-23,40,24,-23,106,-20,-97,54,-37,-49,7,59,32,-15,-74,-47,36,-2,1,-24,53,-41,49,25,-64,25,66,29,-3,36,-1,-96,-79,6,-4,-50,-37,17,-19,-43,-79,39,-31,47,-37,-1,53,65,61,47,-19,51,72,6,-56, 
  /* [13][0][][] */ -14,21,-70,7,-66,-18,18,5,-59,-2,13,-67,1,18,32,44,16,45,-15,4,-36,-63,-23,-15,23,-7,17,1,5,33,-20,47,-29,-5,-13,73,-66,-57,9,-49,22,-22,25,-28,11,-40,-27,43,25,-12,-27,-66,-22,40,-3,8,-3,-17,-14,16,2,-2,8,35, -26,63,-53,17,-75,-39,4,-20,-47,-22,-28,-49,-52,-70,26,9,5,29,10,4,5,-36,-18,-44,28,-45,25,-11,9,8,-11,32,-15,-8,-82,-71,-32,-28,-24,-75,-3,-32,-13,-60,19,-10,-65,38,-10,35,67,-51,-60,-34,2,31,-53,-30,-33,28,-36,16,20,16, 6,38,-32,-19,-127,-44,24,-33,13,17,-65,-23,-47,-15,45,55,-29,4,42,-37,11,-21,-25,-41,-6,-55,30,-19,28,-7,-7,5,-8,16,-68,-24,-33,-1,-19,-53,40,5,30,-82,-7,-67,-41,52,-14,18,16,-14,-76,-46,-9,5,-20,20,-31,20,-91,-34,22,-14, 
  /* [14][0][][] */ -16,-19,31,22,3,-21,-41,0,-35,-22,-57,-63,-24,-12,27,2,-47,54,-42,6,13,4,-33,27,23,-58,38,-33,-9,33,-25,26,-82,44,-45,-23,58,32,24,35,-15,-21,79,12,6,22,-39,17,-10,-20,-37,19,12,-9,68,-69,-67,36,24,-20,39,15,4,17, -17,-13,52,41,-59,-11,-46,-6,-46,-30,-66,32,-41,36,-3,24,-86,22,13,7,-18,-30,-42,-17,-48,-37,-3,-31,3,-58,-22,-5,-53,8,32,3,16,28,-38,-22,43,28,68,10,-28,-36,-16,-2,-27,19,-19,0,-20,-89,24,-48,-61,53,-27,6,-8,-18,-52,14, 21,-13,40,12,-127,19,-28,-9,-67,34,-32,15,-69,-14,52,55,-18,52,-19,21,-7,-33,-24,-30,24,-61,-40,3,-17,-27,19,-10,-3,19,-18,-32,0,8,-51,-30,56,19,59,44,-29,-15,-14,24,22,43,-12,-3,-21,39,55,87,-63,8,3,-4,3,-18,-40,69, 
  /* [15][0][][] */ 70,-69,-77,-5,9,11,12,-124,-31,5,-33,2,-4,-9,46,27,13,8,65,40,-58,43,65,-20,33,5,28,-2,30,-27,-19,40,48,-34,-48,-30,-53,-90,39,10,-13,40,-24,12,-22,-18,-63,1,47,49,-59,5,-27,18,51,-37,17,-58,-61,44,-54,-127,33,102, 50,4,-47,-23,36,25,25,-89,11,44,-87,-62,64,-2,9,8,-15,27,-18,-18,19,28,61,14,33,17,-38,-12,1,-70,-17,47,26,30,-48,-95,-44,-77,17,41,-10,24,-62,30,27,-54,-91,-106,25,-4,43,-61,-55,0,1,-2,-22,-2,50,25,1,-90,19,18, 3,48,-39,-74,40,-77,-26,-7,1,-6,-83,-80,14,13,25,45,39,-13,-3,21,-54,58,61,-52,34,5,-36,30,-60,32,-20,52,52,15,35,-18,55,2,26,12,-19,24,-102,-13,38,-51,-78,-122,22,28,16,-36,-67,-13,38,-22,-28,-120,6,2,13,-79,-7,74, 
  /* [16][0][][] */ -25,-65,-17,-25,28,23,-25,48,21,-16,29,34,-42,56,6,-35,-35,18,59,-23,-24,53,-65,-6,-60,-29,30,-37,50,73,-3,7,-43,32,-1,-38,-14,-54,-29,31,-13,57,-8,59,127,19,-29,23,-51,-33,-46,10,19,-86,6,31,-46,23,32,-26,27,12,21,-40, 12,-40,-30,2,21,31,-46,-9,8,26,29,3,3,29,1,32,-31,-2,21,-43,-87,40,-49,-12,-50,40,4,12,8,58,-65,-9,-40,50,-70,-7,-18,2,-51,32,-16,43,-25,18,73,28,0,17,-33,4,17,50,-33,-99,-6,54,-17,-47,13,-1,-11,46,-29,-31, -6,-77,-63,-53,-26,-9,-76,-36,-37,-12,0,31,-6,-32,-5,40,29,0,53,-60,-41,40,-116,-41,12,-27,-26,-27,-20,41,3,-2,-43,-47,6,-39,-65,18,-9,-26,-65,3,-74,-56,41,53,-35,-22,54,22,-93,45,-24,-100,6,63,-3,-51,0,-85,-14,-5,-8,-8, 
  /* [17][0][][] */ 28,11,-47,12,22,30,24,36,21,-11,-27,13,-60,28,2,-30,14,10,84,61,-41,-23,-32,0,-57,-28,-4,-8,14,7,-89,-32,-6,16,-53,-2,-42,-5,-38,-58,5,22,45,15,-90,-4,-28,-20,20,-40,-43,-41,-17,-126,-40,42,-44,-28,68,12,-27,-26,49,16, -11,-15,12,-38,-18,-59,2,29,-37,48,-13,28,41,-34,-27,33,55,28,25,64,-91,-20,12,16,-67,-11,-6,14,-25,-51,-88,19,36,8,-93,-51,-14,40,-11,-28,20,36,17,-39,-8,-24,-7,-18,41,-18,-19,-48,-9,-113,27,12,40,-18,30,-11,29,60,-13,-49, 21,-11,-77,-51,-44,-63,-64,9,21,-2,-67,17,57,-23,-9,8,42,6,-64,127,-79,14,32,-54,34,-34,-17,-6,-12,-34,16,23,-34,0,-1,-49,63,46,-19,-18,17,-13,0,-85,-38,31,-6,-49,-11,22,9,31,-27,-70,-63,66,-9,-58,20,-47,17,-20,-58,12, 
  /* [18][0][][] */ 20,62,-63,-36,-21,17,16,67,-23,-28,-1,37,97,113,0,-28,86,-6,-57,34,76,-2,12,36,18,15,-19,69,-45,-25,22,19,16,13,8,92,-44,-74,-44,65,-34,34,-45,-94,7,-39,36,0,24,47,6,-9,26,-34,44,44,-7,-50,96,22,51,-31,11,32, -50,16,-51,-68,22,-21,-93,14,-98,-18,13,8,74,30,48,-36,-23,13,-16,-31,-34,1,23,-44,57,-114,-22,-34,-72,46,-9,36,-36,52,-49,71,-52,-52,0,-32,-2,51,-44,47,-43,7,43,23,-13,54,107,-23,-35,-4,11,91,-53,-19,47,29,18,12,10,-40, -4,24,-59,-102,-44,-66,13,-11,-22,55,-23,8,86,63,56,13,22,35,-20,-30,-9,-63,80,56,-26,-75,-13,-78,-81,-27,-13,-25,42,-42,-77,11,-3,-5,-42,57,18,36,-62,-18,21,41,54,-23,11,2,17,-23,-30,14,6,86,-13,-127,1,5,-39,-118,-98,22, 
  /* [19][0][][] */ -36,55,-65,-27,-33,-16,-10,3,46,-88,-18,9,-40,2,-27,43,21,1,-30,-30,-35,52,3,-76,-84,70,6,22,5,14,-127,72,56,-51,-12,-42,27,61,-41,-62,28,6,-41,9,-116,0,-4,-62,4,17,-46,-84,61,-31,-41,-8,-42,-16,23,-6,-40,45,-80,12, -6,69,-22,5,-32,-53,5,20,22,-59,-7,2,-16,-3,-68,18,-10,-36,-50,21,-19,-35,-32,-75,-74,16,30,18,30,-30,-80,7,-5,-6,48,1,8,43,-78,-45,4,23,0,-46,-116,-59,48,-69,-30,20,-72,-86,-31,-39,-17,-54,36,-15,53,-39,-80,21,-80,-5, -51,14,-68,26,27,-10,70,59,33,-57,10,4,-17,-4,20,-59,-37,-16,33,-46,35,-59,10,-17,-16,20,59,-13,-33,12,-63,-13,7,-13,22,32,8,22,-79,5,2,0,8,27,-58,-34,0,-44,-43,-4,-42,-8,25,-11,-68,-28,-13,-20,23,11,-24,31,-63,7, 
  /* [20][0][][] */ -17,13,-71,-80,11,86,-20,6,13,-2,-44,-5,20,64,37,34,75,55,-51,21,-53,-41,-4,24,-77,-20,78,-35,85,-15,-50,54,-3,38,-16,-27,4,13,-30,21,39,-22,46,-16,-98,-63,10,-5,-39,-23,-17,56,-80,-19,49,-58,-42,38,43,11,54,38,-13,-14, -35,-29,-70,-66,36,7,-37,-5,-37,33,-19,-36,-52,-18,-39,-5,-30,-37,-98,21,-108,17,-22,-45,14,12,88,4,47,56,-23,50,-51,24,14,18,-46,-33,-85,-13,-18,43,-14,48,-78,-30,-38,-54,-38,-48,-68,2,30,-31,20,-57,-58,-110,41,-23,-57,-45,49,-119, -59,-110,-63,-5,-63,-14,-69,-62,-107,-45,-9,-74,-77,51,-47,-31,24,-3,-91,-68,-70,-88,-53,30,-26,-40,-61,-56,-52,-43,-60,30,-15,-55,6,-27,-88,-13,-71,-62,-74,-94,-127,-38,-37,-83,-43,-14,-109,-120,5,-23,-10,-75,-68,41,-7,-63,-38,-87,-26,-25,-23,-20, 
  /* [21][0][][] */ -79,-25,-58,-17,-94,-2,75,10,-62,-25,58,32,-51,51,40,41,-14,12,-85,-13,-28,-63,-53,-6,-103,85,-46,-84,8,94,-49,-24,-39,-12,62,-112,25,-59,-4,-32,-13,-73,2,-11,-22,0,53,-127,-89,-5,9,7,-39,-22,22,54,-56,38,-88,-75,29,-13,-26,-115, 19,34,-68,-36,-88,115,-22,58,44,1,-78,-16,-85,69,-77,-55,-35,-8,-11,75,14,24,-71,9,8,42,-24,10,-24,34,9,-30,57,19,22,11,-30,42,35,-5,-23,11,-48,-15,-11,32,28,53,-27,-7,-32,-64,-29,-2,-25,-52,9,41,-1,-7,-71,-22,39,-6, 82,-22,-86,-74,75,37,-85,-2,64,21,-45,-77,-43,15,-17,-31,-29,47,38,16,19,66,96,80,15,-88,-36,85,77,37,-49,47,77,-17,-46,24,62,-17,11,-41,-4,31,-43,14,-5,60,19,-74,26,60,-72,-23,16,-83,15,-44,65,-121,22,52,12,-75,-79,32, 
  /* [22][0][][] */ -1,-51,37,15,60,18,-40,-22,-14,-2,7,77,9,26,-7,46,7,-25,-18,26,-119,40,17,-26,-9,34,-63,-8,16,9,-50,24,25,-36,-49,-74,15,25,-29,-17,-26,-10,17,-35,6,-13,12,-49,18,5,-64,23,-15,-1,-12,-44,-4,-30,19,-57,32,-38,-36,35, 44,-4,-25,-17,38,-24,-102,-31,-45,-25,1,3,17,12,-14,-2,42,-37,-3,26,-30,13,60,-24,51,5,-28,-24,-32,-12,-29,-15,40,-19,-24,-68,42,25,-2,-39,-8,-20,8,-40,3,-37,46,-35,2,5,-53,-22,-46,-29,-12,-8,-10,-30,-50,48,-8,-8,-116,30, -4,33,-14,-39,24,3,-52,-2,-25,4,-58,0,-13,-29,-15,34,7,-29,12,0,-76,51,72,-53,24,-25,-35,50,3,-6,-50,14,39,-2,-127,-40,11,41,39,-9,-8,4,-6,-25,24,8,-3,-9,42,34,-47,-34,-83,19,-27,-37,-93,-50,-37,-9,-24,13,4,14, 
  /* [23][0][][] */ 36,-36,-29,43,-100,-9,9,33,-18,-24,-27,15,25,-23,4,-25,-11,-25,-46,-7,30,-85,-44,-46,46,-33,-18,-43,-53,10,-53,29,-28,-11,21,66,71,48,-44,-65,-28,-36,51,51,29,28,61,-82,55,45,68,87,-25,-56,-31,-28,44,-75,8,-31,-5,-34,-33,34, 13,-26,-29,-11,49,-38,-84,37,28,-37,29,-28,-6,16,1,-37,-20,-45,19,84,11,23,4,34,55,-73,13,-44,-39,49,41,-49,30,-25,-13,40,-27,21,-2,-15,-71,21,-31,7,1,-17,39,-44,17,14,7,37,-15,-51,-26,-15,38,-29,18,-30,58,37,-62,-4, 18,-19,-17,-102,-30,-94,-53,83,52,-53,-2,55,41,-51,-62,52,-20,-127,-23,-2,-26,33,59,28,26,-9,-78,42,-62,22,10,-53,-18,20,31,-38,29,12,-21,71,-5,-31,-23,39,39,52,55,51,13,-24,-15,46,-73,-24,-2,46,-17,36,-38,-2,47,39,-86,-46, 
  /* [24][0][][] */ -2,40,4,27,28,-42,-1,7,-3,59,40,-45,-10,-30,30,-43,14,-40,-17,17,8,-79,82,-27,20,18,36,-13,-35,12,-12,-40,-18,24,2,-43,-9,4,-21,15,13,-7,51,46,-22,-5,25,50,-22,7,48,31,-36,27,-63,4,21,-1,-13,-57,-63,0,-49,16, -58,-48,12,3,13,7,38,18,34,21,52,-24,-10,-3,-43,-42,28,-47,-8,10,-17,-46,55,-26,15,12,-54,-12,-2,45,-4,-18,56,-34,21,-39,0,-36,-42,26,-15,57,36,2,-14,28,40,17,-127,-60,72,1,-50,3,-73,-2,15,10,24,-65,19,22,-60,-26, 22,-66,13,41,34,33,54,-7,11,-37,63,-18,54,3,31,-74,12,-47,-83,64,14,31,-14,13,-35,62,-107,-70,-33,6,23,-77,-21,-18,29,-21,52,5,-71,-29,-51,-25,-10,-5,-11,6,44,-37,-16,-54,66,41,-46,-2,-4,15,0,-10,1,-55,-19,64,-62,-17, 
  /* [25][0][][] */ -58,49,47,86,9,26,13,-73,-22,27,-49,-7,18,21,-46,-33,-18,13,9,20,69,-62,-49,-17,50,-127,11,-28,25,-48,30,16,-40,-30,-76,30,12,31,0,29,25,-19,28,68,-44,-13,22,5,32,23,-4,3,38,-20,21,44,-49,29,-87,-27,69,42,5,15, -37,42,14,60,1,52,-45,-87,-42,-20,-77,14,-11,54,-18,1,-20,41,55,55,6,0,-113,-60,34,3,42,67,27,-6,4,-6,-21,-63,-93,43,-34,3,11,21,3,-44,-2,26,-107,-18,-10,59,-8,-23,-85,44,-18,5,-13,-4,-47,16,-20,15,-13,51,-53,34, -7,-21,19,88,-90,44,-51,-70,-85,-22,-62,14,0,-5,-25,17,30,10,8,30,7,21,-103,-40,-14,24,31,10,3,-28,2,10,19,-62,1,30,42,-42,33,50,-3,37,4,52,-35,-6,2,6,11,21,-52,3,-51,-22,-50,-90,1,-28,-74,22,33,-4,13,10, 
  /* [26][0][][] */ 0,-32,53,65,60,-74,79,-70,-80,6,34,-57,39,-24,0,-82,84,-13,-81,-21,9,-34,40,-7,18,40,26,48,-99,-78,65,65,-49,35,29,-10,-22,-55,-1,-12,-41,-105,-27,23,20,-6,-72,-83,-9,42,28,72,-22,59,-26,24,18,-79,-59,-24,-3,-8,-5,16, -16,35,101,52,-8,-49,56,-69,36,1,51,-9,-5,-103,38,-64,35,-23,0,11,-11,-30,64,-53,-40,-82,1,-1,-30,-10,24,-28,-31,-39,-6,-39,-64,-39,-30,-21,-15,-107,-37,0,89,35,-39,22,-76,48,-46,63,28,-4,-49,0,-70,-8,-124,48,34,47,82,-102, -20,-12,41,19,45,-13,17,81,46,37,42,39,-46,-19,21,-127,11,-91,6,58,80,15,-33,-14,-52,-11,65,-47,-24,-44,74,39,18,-22,50,-53,-57,-35,-19,25,-57,-40,52,-27,52,24,19,-8,-63,4,46,51,8,-97,0,72,38,35,-70,66,-35,44,-2,-52, 
  /* [27][0][][] */ -53,-84,8,-20,-19,-97,-19,-5,-67,-17,-75,47,-90,-17,-38,-77,-44,-92,-19,6,-3,-10,45,28,-29,-2,-120,34,-61,-39,41,-35,-47,-77,-48,-24,-92,-109,41,-31,-73,-76,-50,-91,-84,-52,-4,-19,12,-86,-6,-25,2,17,-28,37,-64,29,-65,-20,-20,31,-36,-106, 26,-2,-82,23,-76,-52,-24,-1,-83,10,39,-25,63,40,-82,-54,12,-80,-84,-54,-37,-110,0,31,-83,60,34,0,-90,-127,-112,11,44,-57,-93,-85,-64,17,-44,-52,30,-8,16,-49,13,-93,-21,40,-54,54,56,-97,24,-37,-62,-76,21,-54,-65,-27,-6,-49,3,-99, -13,-6,30,-29,-61,39,-53,-43,30,7,-1,-45,-46,-92,-22,-9,-48,-65,-59,-27,-100,-51,-84,-62,35,22,-47,11,-83,34,7,-20,1,-63,-9,16,-62,-40,-23,-24,-56,13,8,-1,-91,20,-28,24,-19,-11,-108,20,14,-13,-2,-65,-20,-10,-73,21,-7,-79,-18,-15, 
  /* [28][0][][] */ 0,21,23,-76,18,10,-10,30,5,-3,-8,-42,-64,-25,-27,4,-8,-18,28,-33,8,73,34,58,54,-117,29,30,-18,-27,-2,-23,31,15,-77,-29,16,-23,33,6,35,-13,15,-17,-31,-36,-3,48,-10,-18,-42,48,29,10,22,-3,10,32,-4,34,44,40,0,10, -49,-34,47,-29,-37,-14,-40,15,32,-9,-51,-26,-69,-17,20,46,-76,1,12,-21,-52,54,-44,63,14,4,30,48,-26,-3,6,-23,17,18,-72,-91,-38,38,39,34,-7,-14,-21,12,-27,-11,-58,-9,13,-30,-84,-6,-17,-92,34,4,32,31,27,41,37,63,-26,-18, 6,-28,-34,-53,-27,31,3,0,31,-27,-27,43,-60,-58,20,4,-56,47,29,42,-9,-23,-127,28,-32,-40,24,-28,-30,-36,-6,-25,-47,-11,-67,-36,-78,-40,33,-50,8,-24,-75,15,9,-11,-33,-11,24,30,-87,3,-23,-57,-25,-15,61,16,6,-6,17,-4,39,-77, 
  /* [29][0][][] */ 44,-32,-37,-24,-58,-33,59,-46,28,68,-25,-10,-54,1,12,31,-11,13,-27,39,-14,-57,-42,28,-55,8,7,-3,-59,-23,-11,34,-26,-28,-61,1,-20,54,-16,-25,14,30,-36,-63,43,5,40,-34,0,39,-32,15,37,-127,-3,-6,49,-40,4,0,-14,-7,-16,38, -2,-10,-17,-33,37,4,23,-15,48,-15,15,17,-19,-48,-42,30,-12,-19,-39,26,46,-2,-13,4,-77,-39,14,12,-8,5,-25,6,-1,3,-46,-72,-18,-31,24,-12,-8,-27,-21,-15,26,7,5,-6,-32,17,-43,10,37,-40,12,-26,-15,1,29,7,40,36,27,8, -39,-14,-9,-7,55,24,11,-10,29,-29,-2,-31,17,56,-32,10,-71,-69,-41,-24,5,-23,17,-33,-29,8,5,-28,20,21,18,22,-29,-1,-38,-28,16,-21,-12,20,-23,-24,-67,24,-26,-17,-6,-11,-42,49,-37,36,-29,-34,-4,-24,8,18,-11,-22,42,16,-1,37, 
  /* [30][0][][] */ -11,2,87,-64,54,-18,-73,33,43,-48,10,-98,-22,-37,13,6,-45,-43,8,-91,-35,10,9,9,43,-127,-6,-7,50,12,57,4,40,31,-68,16,-3,-95,-3,0,-73,45,33,-25,4,15,-14,-12,-11,0,12,43,-37,-76,-44,-26,-44,-9,38,8,37,21,38,-38, -33,5,63,-20,5,-44,-69,51,36,-12,-43,-73,-8,-40,22,29,20,-11,-10,-21,-42,-38,-37,10,-11,-73,10,-4,18,-46,45,-22,14,6,-25,18,-20,-113,-9,2,-43,10,-12,-48,21,21,-60,-24,-2,10,-21,30,-7,-50,-10,-37,6,-17,41,-10,-20,-16,43,4, -86,-4,69,-87,9,-16,-17,40,62,49,-58,-74,-94,9,-26,-4,-55,30,-16,-25,-28,-13,-45,48,-86,-38,-22,-2,-5,-67,58,-6,-1,54,70,-11,-8,-48,-5,-26,-43,24,-58,-30,14,-40,-92,-91,2,-6,71,-17,0,-15,-27,-17,65,-7,34,-7,-15,-31,19,0, 
  /* [31][0][][] */ -2,-28,29,20,55,18,21,-19,40,-6,-81,25,-43,-31,27,-2,-8,-69,-11,-30,35,32,-49,-55,-1,-82,20,61,12,-19,19,51,17,-81,-42,42,1,97,-25,-20,-5,-3,-35,35,-65,8,-19,30,-1,45,-49,-52,-17,-47,-62,-65,-11,64,-25,-38,39,-6,38,48, -36,-32,16,-5,56,32,-18,-31,35,1,-97,31,-2,-10,17,13,-17,-34,-2,-127,8,4,-22,6,-88,-77,17,-17,5,12,23,44,-11,-4,-58,22,-16,11,-70,-29,8,-8,-31,1,-50,39,2,26,-7,-38,-71,-15,35,-55,-37,-114,-9,34,34,3,-35,29,80,-24, 22,57,-20,-10,11,17,59,25,26,49,-95,40,23,-11,-34,21,-4,11,32,-90,-32,-17,-26,9,-56,-4,-10,-45,44,10,48,21,6,12,13,58,15,-3,32,53,-12,32,-36,17,-26,-11,33,23,-108,-13,-15,20,14,-102,-21,-49,52,-3,-20,25,-2,68,60,14, 
  /* [32][0][][] */ -26,41,-7,2,70,5,-16,-26,58,-46,35,15,-37,0,-19,-82,-83,-11,32,-64,5,-40,65,-47,3,-42,-24,19,-54,37,3,49,-5,27,-20,47,8,33,-53,-6,-11,-8,12,-14,-16,0,77,-26,-24,7,62,-33,22,-1,-33,-10,-66,7,32,-7,28,17,18,-19, 23,6,44,-45,71,-35,51,-9,17,-9,-1,3,16,-37,-29,-60,40,-29,-25,-40,29,-24,98,6,23,-86,2,5,7,38,25,22,0,-17,-47,-45,-4,-14,-61,28,-34,-12,22,8,-18,3,24,9,-2,-36,5,-33,-9,-89,-3,-67,31,-2,-2,-22,31,34,34,0, -12,-33,31,3,-38,29,24,-15,-33,-34,-127,48,-31,9,7,55,-25,-12,34,-30,-49,-12,0,35,-17,1,33,-11,-36,4,-31,12,-49,61,5,15,19,11,-60,73,15,27,-73,55,-47,45,26,-23,-86,-15,-2,5,8,-112,8,-44,43,22,-7,5,-50,-35,-24,36, 
  /* [33][0][][] */ -67,68,-45,-19,-56,-20,-8,32,34,-23,78,37,38,-3,-8,-58,7,53,10,6,-13,5,20,5,-44,-4,-18,1,1,-3,21,-65,7,20,21,11,-49,-43,-11,43,5,47,-26,44,-58,-8,59,26,-38,36,-26,-39,-7,10,-12,83,-18,15,-17,20,-39,-45,-30,-28, 25,10,-88,-38,-45,-54,19,55,45,25,-4,-30,6,-53,-47,-45,-24,-49,9,21,8,-74,29,23,-36,-29,-41,-2,-13,-1,-37,-40,34,21,-2,-5,57,25,2,25,35,11,-43,29,-34,33,22,7,-47,-12,33,31,-17,-21,-38,45,-57,23,-11,-15,10,-81,0,11, -32,11,-127,17,-54,30,-24,21,6,-75,-22,43,-47,93,14,-53,38,-23,-12,-55,10,11,-9,-16,-24,-41,10,-13,-51,-4,-40,-30,55,28,33,95,-2,41,-7,-48,-12,-34,-17,7,7,-12,23,-6,-32,-34,-18,-16,-5,39,29,14,-46,17,83,-34,1,55,4,52, 
  /* [34][0][][] */ -79,21,-53,42,-42,25,-8,-3,-40,0,42,-10,26,36,-21,-22,20,31,-33,-45,14,-61,26,-1,-25,-37,-62,-54,-107,17,-30,40,-35,-7,-38,-1,11,-43,29,9,48,13,-28,-35,-43,39,-2,-15,-8,-40,-65,-61,27,11,43,28,-30,-35,12,-3,-50,-15,-16,10, -15,100,-9,53,-53,-16,-30,40,25,-22,-45,-24,-127,-5,-6,-5,-46,-66,32,9,3,6,-76,-123,-34,-19,-34,14,-75,26,-4,-2,-56,-1,-3,-9,56,-38,29,-23,-37,-29,-35,16,-68,15,24,12,41,6,-80,-46,22,-62,11,12,-110,-56,-2,-24,-100,-33,19,18, 45,32,-42,-17,-43,-3,-99,52,26,-50,7,-9,-13,-7,-5,-9,15,-30,54,24,-12,41,-2,36,-23,-90,24,14,6,97,22,65,12,-20,11,-6,27,23,52,-85,-49,-12,-44,-8,-54,41,23,-24,17,-3,-9,-12,24,-85,-58,-87,59,4,20,70,44,47,48,42, 
  /* [35][0][][] */ -34,-4,-45,-54,-34,54,-79,-34,2,51,-31,29,78,-69,-14,62,-57,84,-92,-11,-32,7,-7,-7,-24,-24,-31,-40,84,-30,-58,-92,-67,-32,-11,-41,-65,-63,-72,-11,-38,28,-65,30,10,54,-2,-91,-98,16,27,56,44,-21,20,-22,23,-33,-50,-2,19,-33,-46,-63, -50,43,-69,-50,-59,-29,-60,-40,-11,-57,44,38,-37,-10,-53,8,5,-10,-50,-20,-102,-17,-115,-48,-59,-32,-42,-67,9,-31,-15,-28,-55,-46,-35,-1,-19,-25,-17,-49,-72,12,-110,-80,7,-34,-49,-66,-27,16,-102,-25,32,-48,-1,2,-19,-59,-61,-39,16,-127,33,-55, -99,-32,-48,-75,19,-36,-92,-61,-44,-14,-2,17,14,-21,-88,12,-42,-64,-24,-42,-78,-54,-25,-11,-109,-9,-92,-71,-22,-63,-24,-79,-61,-21,-85,-83,-13,-69,11,-59,-75,-68,-35,-96,8,11,20,-38,-11,-48,-45,24,-7,17,-75,7,-77,-35,-10,-84,39,-32,-9,-65, 
  /* [36][0][][] */ -14,-48,61,29,23,-79,-2,-18,-12,-15,90,36,21,-35,-41,-14,49,13,-70,-20,12,34,44,-5,10,-29,27,-98,17,-29,-67,-11,-56,24,112,-33,-21,81,-76,64,18,21,50,58,33,8,37,-48,-68,18,72,59,-78,4,59,74,-48,-20,-50,20,-64,6,5,54, -80,30,82,41,-65,-82,-41,8,-20,64,27,10,105,-25,-78,-19,15,-37,24,71,28,-40,-79,44,58,-33,-47,-47,10,29,-36,-107,2,21,88,-28,35,-2,-49,14,-24,18,11,29,-14,27,-33,41,-61,5,36,-3,48,-125,-53,42,-104,47,53,-71,-20,10,55,-26, -34,26,77,48,-127,-54,-40,16,5,-23,-52,34,85,6,-7,90,-71,-74,-2,-21,-10,20,-64,46,-62,-57,-6,22,17,41,-38,-44,55,41,36,1,7,-55,-14,-65,-12,12,-12,12,-15,107,-7,13,12,51,-11,-108,-12,-44,-100,-29,-40,-82,-14,31,-38,-21,73,-11, 
  /* [37][0][][] */ -35,22,-23,-48,-17,-2,-12,-23,-21,-4,-86,22,39,-95,33,59,-3,75,-18,-27,-53,-4,1,-7,26,-96,36,-20,8,-127,-14,-64,-76,7,-71,98,-67,-9,-9,9,43,29,43,-43,-28,-25,-54,17,-42,-53,-21,-26,-56,-47,-9,119,32,11,-36,24,14,25,60,-14, 22,47,47,29,-28,8,-14,-4,-6,56,-4,-35,42,16,34,-3,-53,28,-47,-6,8,-42,-60,16,50,-126,-19,20,-44,-6,21,-14,-14,3,-26,16,-10,-88,-8,-30,49,22,66,-8,68,-11,15,-43,15,-16,-61,2,53,-123,-46,-6,31,56,-61,41,48,3,-31,-7, -14,51,72,61,2,52,-31,-61,-8,34,-69,-33,45,46,27,28,-83,23,-11,35,19,44,-58,-40,-34,-112,48,-7,40,-34,50,-29,-32,-12,-17,37,19,-59,-28,-41,46,0,19,-16,65,9,-16,42,40,-51,-46,-1,3,-50,-28,29,-40,99,0,19,59,14,-2,14, 
  /* [38][0][][] */ 12,-3,-48,-104,43,29,-20,-66,-34,29,-106,3,-4,-41,-18,14,-30,61,-17,40,-78,40,18,-36,87,-16,62,23,26,-66,-24,58,28,67,-85,18,20,-35,62,45,-21,-17,-54,-58,3,-76,-21,-48,64,30,-64,27,-17,-64,10,-73,-11,-47,-35,-28,30,-120,-27,-44, 26,39,-1,-15,51,-17,30,-31,-46,31,-85,-3,12,42,29,-5,-37,23,-68,52,-103,3,3,-17,59,-23,30,15,19,25,42,30,11,21,8,50,-19,49,12,11,31,-24,1,-51,30,-114,1,-20,-27,13,48,68,-18,-12,43,-50,55,-64,-25,-12,6,-15,5,11, -32,-20,45,-19,36,-53,33,-47,-29,50,-9,-9,18,-126,-18,-53,-24,-34,-127,27,37,-30,70,0,64,-18,-41,-21,-46,-9,20,10,-16,-46,-21,39,49,-6,-20,-16,10,-4,22,-40,-25,-41,-10,-10,-41,-6,41,-11,10,-45,-23,-20,73,-30,19,-18,-47,-18,-40,40, 
  /* [39][0][][] */ 9,20,-1,9,-18,-36,-51,7,39,25,-58,-18,9,-49,-16,-14,-7,-26,32,-24,-51,14,-10,-4,-40,-80,-27,46,-31,-56,-116,19,19,23,-57,-15,-3,9,5,-51,-11,-28,-80,3,1,-47,-77,-63,39,53,-49,-65,10,-119,42,-4,-23,-54,30,26,-10,-63,3,8, -30,22,8,-71,-27,7,28,-13,52,-17,-57,5,-6,-28,-3,-22,-13,-7,17,-25,-30,-2,-25,-29,-26,-127,28,36,-2,-65,55,-12,-8,-6,-31,15,21,-66,20,-24,15,40,-7,-77,-23,24,-34,3,0,-18,-82,-75,-5,-60,-26,-79,-41,45,-11,-20,-23,-23,45,1, -7,11,23,-82,-48,19,99,28,-2,46,54,61,19,26,-2,-2,57,55,16,-23,12,-14,-69,21,-75,60,53,-16,29,-43,36,21,47,-7,33,46,34,-91,-5,-52,11,27,33,9,57,-18,-19,-65,12,-35,-27,-24,40,-26,-19,-21,60,-24,29,1,-46,42,90,-34, 
  /* [40][0][][] */ 36,18,-72,29,-25,52,-78,-22,16,-96,-2,18,-31,39,40,5,-103,23,25,-33,-18,20,10,1,-77,-32,-40,-30,-1,4,-49,36,-5,28,22,38,56,40,-18,2,67,-29,-101,-11,-40,99,-18,-92,-32,-23,-61,57,-101,-48,-11,62,-77,-38,40,45,-22,-60,-56,111, -52,21,-107,-22,-8,10,-28,-24,13,-82,17,-83,39,14,-43,-105,-62,57,-24,-66,-85,-16,-83,-83,-5,21,-25,10,-67,55,16,8,-2,52,52,110,31,19,-54,14,-38,-17,3,3,-74,-12,-17,-58,-9,-14,-38,-22,15,-61,26,-33,1,-83,69,-39,-99,-1,-66,-68, -12,-62,-17,-23,-14,-36,-57,4,21,-28,-26,71,47,17,24,-17,21,-44,18,-19,15,-99,-61,46,-5,13,18,24,-33,-58,45,28,25,-36,14,127,-21,-17,-73,-43,-22,-69,-37,5,-10,-79,7,24,-20,6,-25,41,-25,-3,-50,18,46,5,25,22,44,49,56,23, 
  /* [41][0][][] */ -41,-43,70,27,13,-19,-9,-52,-14,36,-35,-31,10,43,-50,-48,-16,-41,-31,-10,26,57,44,-66,69,-37,-82,-55,-9,-29,57,-46,-71,-25,-18,-15,-19,57,-14,-9,-32,-3,-19,-5,-3,-49,-16,-15,-24,-21,-6,-2,20,-21,-53,-5,2,7,-16,4,49,-17,49,-42, -50,33,81,-9,-41,2,28,-34,-14,57,-17,56,-14,64,-36,12,-12,13,-52,-34,42,25,-38,-21,33,-127,-5,-13,10,-21,-28,-51,3,-55,-54,54,-11,11,-41,-9,32,-33,5,-22,-10,11,34,14,0,-25,-24,41,27,-46,-14,-96,-10,-2,6,12,-10,-12,10,32, -1,15,73,17,-53,21,34,-15,-37,42,-87,67,-15,4,23,41,-13,-54,-58,14,33,-28,39,-41,64,-70,0,-43,-7,0,62,10,-4,-55,-22,76,5,34,-23,-3,9,-37,-30,48,27,11,-14,33,-25,-23,-28,71,25,-49,-40,30,62,52,12,-9,73,17,-21,30, 
  /* [42][0][][] */ 36,-16,39,110,74,54,8,-21,-41,-108,-48,-48,-84,-31,14,-19,27,-43,53,34,10,54,72,-45,14,-74,-17,-8,13,-8,-40,43,6,-22,-92,0,28,-1,29,-46,-2,-19,-31,57,-89,34,36,67,-16,-25,-122,14,62,-109,17,-4,-68,111,-96,-57,84,14,-7,3, -10,5,13,10,13,-29,-9,-74,-29,62,-127,42,33,-11,49,-6,4,-35,79,66,-11,5,-20,27,17,-121,18,6,-14,-45,-40,5,-22,-51,-115,68,10,87,-22,-17,-36,35,26,80,-124,8,-22,58,-16,56,-34,-91,-49,-80,-15,-106,33,68,-57,4,-64,-28,60,84, 79,9,-60,-9,-114,30,-5,34,-9,-14,-77,13,20,-28,40,-45,25,3,41,6,-50,27,-54,-25,-32,37,-62,-22,-82,-80,-14,29,-21,-57,-22,-82,-50,31,-27,-14,-13,12,3,66,-33,24,14,-33,-20,11,-72,-78,-51,-38,22,0,-53,-25,-16,-42,-58,-23,68,46, 
  /* [43][0][][] */ 10,39,0,31,-9,53,37,24,-6,23,3,-7,71,-53,24,-72,-17,-4,-15,-55,12,-55,120,45,-48,39,-59,-21,-101,65,-22,-63,-65,-57,16,38,-101,10,-40,57,-81,-6,33,-3,10,23,31,66,-12,-31,99,86,-93,-12,-41,-23,2,21,-107,-67,-11,69,-34,-51, 40,21,-60,8,46,17,-20,6,-10,-68,44,-83,41,-105,-10,22,-1,14,-38,7,-14,66,37,-62,-46,-62,-127,-50,-18,68,3,-95,50,0,-21,83,-76,-25,15,18,-93,-73,30,-39,41,-29,47,35,35,39,80,24,-41,-44,-9,12,40,-49,-93,36,6,46,-54,-86, -60,94,-43,-72,14,55,-65,-5,45,-2,10,78,111,4,26,62,-103,-18,58,-20,-26,-21,19,65,-41,-42,-81,-54,16,58,26,12,-63,11,-11,81,-26,17,-28,-40,-1,-6,35,-57,59,29,22,-8,73,25,7,-17,-31,-55,-15,53,-28,-11,-2,-27,-56,50,48,-5, 
  /* [44][0][][] */ -104,23,81,27,30,28,23,18,-33,31,-35,-75,32,-29,-4,-39,34,39,-69,-52,-37,-43,-60,73,30,26,56,25,5,-33,-52,-4,6,67,-13,19,6,0,82,14,-41,-5,-17,-57,38,-91,-7,-15,-24,31,40,-35,-25,53,26,54,13,-12,-92,-64,-14,24,-15,-54, -79,25,36,14,6,49,38,48,-56,-20,-17,-28,31,-21,-1,9,-26,92,-72,4,-16,-57,10,16,-29,20,27,-24,-81,-28,-24,3,-43,40,46,-15,-70,-49,11,-42,35,50,32,-21,-52,-27,-27,-26,-17,13,-6,-39,-45,-12,16,19,15,-14,-57,-69,39,1,-84,-84, -48,-50,17,5,-58,121,-33,-23,-107,42,6,50,46,20,27,38,1,-12,-57,87,21,-23,-1,-9,-22,67,84,-86,-127,-17,-14,-10,-86,-62,-18,-28,-49,-33,-60,-53,19,-7,-2,-2,-20,-74,30,-63,-22,26,20,-45,7,52,50,-32,85,55,-100,-9,-54,55,-31,-25, 
  /* [45][0][][] */ -105,-40,-1,-115,-90,61,36,58,9,-60,-6,65,-36,66,-64,25,37,-34,-58,-12,-77,-118,48,-11,6,-68,58,34,50,-120,29,-55,-103,-95,48,0,61,73,-80,2,-73,47,-42,-87,62,-73,-69,-47,-31,21,-91,52,-96,-119,-70,-74,-38,-116,-4,-114,41,47,-19,-72, 0,-87,-72,-115,-88,-26,25,5,-48,30,-54,-93,-102,-46,-70,-78,-11,-127,-47,-59,-47,-90,24,-15,49,-23,2,-91,-23,42,-21,44,14,-47,5,-88,18,33,-110,41,-77,33,17,2,24,-43,-66,-88,-31,1,-45,32,-21,-115,-37,-116,-35,44,-76,69,-60,34,-107,-17, -103,33,-59,-105,27,27,28,-21,-55,-99,-69,-15,-100,-96,-57,-8,-100,-99,5,-15,71,49,-59,7,52,74,10,9,-100,-8,-54,-100,-91,-52,-90,45,-116,5,-10,28,50,-79,-99,43,46,-90,-98,-55,-84,65,53,-30,35,-41,51,39,47,-73,4,-63,63,4,-87,34, 
  /* [46][0][][] */ 17,2,-8,-20,14,2,13,7,-28,7,-28,2,16,-52,57,-27,88,22,2,-26,5,-54,-33,-13,10,-63,51,17,72,-28,-22,9,-7,50,20,109,27,-80,7,39,-17,-18,70,-43,27,-84,-127,54,31,-24,-41,-13,5,-49,30,23,10,18,-36,0,-41,49,-17,-52, 2,40,20,46,-25,-20,-14,-48,-30,-11,21,-28,-33,-11,56,-31,57,44,6,17,19,-39,-54,4,69,-62,38,-25,6,-13,-15,-13,-39,2,-10,20,-11,-62,27,-11,-5,4,13,15,40,-12,-112,49,-18,-34,36,-29,3,-14,33,60,-30,13,-85,11,28,-1,-22,-31, 19,-6,-48,39,-6,36,26,-28,43,33,-66,-93,12,-66,48,31,65,-34,9,-8,-38,-11,20,-14,-34,-50,37,-10,38,-23,31,15,-4,33,-4,-18,3,-15,20,-35,9,6,38,34,3,-52,-97,-5,-3,-12,-14,11,-6,-92,-3,12,-29,38,-28,56,51,-22,-6,2, 
  /* [47][0][][] */ -15,-26,-18,25,43,-24,-12,11,-7,-2,-51,48,26,-85,16,6,-33,16,15,-28,-20,26,-35,-42,13,-45,18,20,66,15,2,2,22,16,-44,3,-35,9,9,18,2,18,-33,8,-39,-6,-26,-19,37,20,-70,6,-2,-127,8,13,-52,-5,-10,-30,-13,-63,8,-8, 31,7,-2,17,-7,13,-24,6,38,-6,22,7,38,-52,5,-13,-20,-21,-13,7,-12,11,-15,-83,-28,-27,5,4,42,-36,4,13,22,16,-74,-28,10,27,-25,-5,-3,18,15,-28,-18,-40,12,8,34,2,-1,-6,-5,-55,26,-66,-20,-20,-18,-41,-25,-14,-7,45, 26,-4,19,16,-25,-18,-30,14,7,3,-19,10,-10,-81,-5,4,31,-51,10,-31,-13,24,-14,-58,6,-75,26,1,1,-19,71,0,2,-36,30,-4,2,9,-39,-28,25,14,-26,28,-33,-34,18,12,15,-12,9,43,-18,-39,-18,-17,-52,10,-16,-20,28,-23,32,18, 
  /* [48][0][][] */ 29,-30,-5,-25,85,-29,39,53,0,-60,17,-21,48,40,13,-12,-31,37,21,5,-4,8,-28,-21,127,-85,-36,80,26,-6,-23,-2,-26,-12,-24,106,38,35,-29,-1,4,-60,10,17,-16,28,19,-18,-47,31,-49,13,10,-93,-17,-37,-38,42,81,11,42,-4,7,30, -42,64,51,36,38,50,-67,17,33,-37,88,-12,8,-2,-48,54,-60,-27,-72,-33,-50,10,37,5,-1,-97,3,-13,-56,18,-67,2,-29,-69,3,7,38,34,-88,23,4,60,30,39,-34,-16,-39,-49,36,20,59,-21,19,-127,-64,20,-40,41,4,-74,25,-62,60,75, -80,29,-10,-3,-109,-50,-34,24,49,30,-96,56,0,-2,-53,28,-26,18,-10,-46,-19,-10,-36,-13,-21,-70,-4,-8,-44,-13,-18,-15,-22,-85,-25,42,-5,1,-59,-46,25,7,47,-18,-113,30,52,31,23,50,-24,74,37,-70,-57,-23,-92,45,-53,33,3,-4,55,53, 
  /* [49][0][][] */ -65,-7,-31,-24,45,-19,48,16,-5,-74,-23,30,33,-71,-36,-32,1,-55,-47,-43,-22,31,-60,-18,-90,-83,-68,-38,8,-35,-44,-76,-39,-26,-86,-53,31,43,-22,31,-71,5,-48,47,-80,15,21,-40,-72,-30,31,-75,-102,-121,-3,11,30,46,-67,-44,54,46,-99,-44, -86,-2,-32,-85,-47,-23,-87,36,8,-70,66,-107,-12,-32,-31,-93,33,47,39,-20,22,-7,-78,-52,-109,-101,50,-89,-34,-96,25,80,-77,20,42,28,-97,-59,-80,-127,29,-21,-83,-10,-85,-47,-15,-89,-33,-72,-34,34,-52,-57,-72,-90,-8,-16,-7,18,-79,-23,40,41, -19,46,-73,-71,45,34,37,-12,-109,-82,-102,29,36,62,-46,-4,-109,-47,68,19,-78,1,11,-63,19,-80,39,-29,-14,21,34,39,-2,10,-119,-89,44,-48,-58,57,-22,14,-57,25,-98,-37,-9,-71,-22,33,-98,31,-95,-63,-34,-16,-6,10,36,58,-13,-69,-45,-57, 
  /* [50][0][][] */ -34,-54,75,-7,-89,54,27,-7,-28,-8,-19,14,-37,-38,33,-74,-12,14,-19,56,10,-37,19,-12,9,-127,-2,-78,0,-33,40,1,21,-7,-75,-51,-30,-38,-33,13,38,-15,54,29,-13,-29,-50,12,16,-95,-65,-11,8,-63,10,-55,-31,74,19,1,-72,4,19,-44, 34,15,8,-61,-99,45,28,-11,-27,12,-27,-59,-34,44,12,-67,-122,-43,-26,-2,-6,-63,-22,2,-28,-104,-33,-36,26,46,-13,11,8,29,0,-55,10,-64,13,-36,38,-9,101,-20,-16,-30,41,-29,26,-30,-58,41,14,-30,13,-8,12,30,-2,46,-96,-11,28,-35, 11,-45,4,-42,26,-27,-19,33,19,-5,-68,-37,-30,27,51,-30,-25,-102,40,24,26,-104,-50,4,-29,7,37,54,14,46,-27,-42,23,48,41,-54,-17,-19,-34,-64,5,-17,87,-60,-52,-48,39,75,33,-60,-104,-58,7,-14,39,0,6,68,60,48,-76,43,-16,19, 
  /* [51][0][][] */ -12,32,38,-26,-23,-53,20,50,8,-3,29,5,-12,5,27,-12,-59,15,47,-44,-7,-18,-62,46,22,-74,16,-21,2,-5,26,-50,-52,-18,-90,-80,-18,-38,-38,-41,2,9,15,-10,-12,43,-5,23,-31,-65,-112,36,-13,-54,-5,4,20,52,-40,-3,31,7,11,12, -10,-4,-28,19,26,-19,-6,-32,22,16,-14,-7,-69,-15,7,47,-85,-23,-16,10,-52,-27,-58,21,-127,-34,4,-14,42,41,-27,-7,-23,47,-45,-40,23,-41,-16,-12,21,15,17,44,36,24,36,16,-34,-45,-28,38,-6,7,24,-32,10,-45,30,-23,-48,38,-6,24, 44,-56,-77,-29,54,-3,-63,-58,-51,-11,-19,16,-85,-34,28,16,9,41,-61,7,-101,83,-29,-35,-97,28,-45,-22,74,33,-32,22,11,15,-3,-30,35,44,-13,-66,-52,-40,27,-2,53,28,28,-14,32,7,-58,5,-8,33,26,75,-54,-47,11,-37,22,-87,-19,3, 
  /* [52][0][][] */ -16,4,26,69,-43,-25,20,-34,-45,-5,36,27,-12,-42,22,-118,19,-55,-9,15,12,-74,-69,-10,-49,18,10,-40,-32,23,-10,7,1,24,25,-77,30,-101,-5,-7,-37,-38,44,44,16,-16,1,-9,-48,-10,-1,6,-6,-13,-76,-26,-33,36,9,12,-45,-7,32,62, -41,16,-2,18,-19,-56,12,34,29,-6,-32,-25,-32,-21,20,-7,-54,-24,55,2,12,-29,-29,39,-27,-83,30,-10,-29,70,-5,-9,-34,15,-15,2,-11,-65,-12,-10,-22,-1,10,33,-4,-8,6,18,-79,16,-16,12,-18,-33,-38,38,-29,-9,-29,24,-14,-32,27,20, -71,-26,19,5,30,-47,6,-1,58,1,-42,-41,-39,-118,28,20,-93,-40,32,-85,-56,34,-22,65,-14,-127,-2,2,35,38,-3,-53,3,30,3,-37,-35,-52,-20,-21,-4,28,30,0,1,40,-76,-2,-26,-64,-53,-21,15,-61,-11,-32,-4,-43,14,-10,-27,24,40,-20, 
  /* [53][0][][] */ 15,4,25,-9,-17,10,-70,92,-5,-109,36,10,17,-50,-115,-9,55,-67,-20,17,65,-10,41,-32,-123,-4,-80,-20,-37,25,-89,-22,64,-13,42,-89,54,37,-69,-20,-30,18,39,-3,-41,-15,-27,-81,-35,29,71,-15,-46,22,-12,52,-26,-11,44,40,-4,3,-106,-12, 57,-19,-90,-35,1,26,-71,66,79,-63,21,-23,-23,11,-26,38,-53,-74,-3,41,-5,60,-35,39,-50,28,-25,36,-19,25,11,-35,27,-53,10,4,13,47,-10,-24,23,31,-34,4,-127,4,-14,24,13,12,-39,27,-32,-16,-49,30,-69,0,0,-10,-55,8,-79,33, 6,-28,-96,-52,18,9,-32,96,67,-79,-9,-24,-13,3,-39,33,-19,15,5,-60,-35,31,-20,48,-93,-60,-7,42,19,17,-47,36,69,46,-29,-5,11,-63,48,-5,44,56,-55,-52,-52,53,53,-16,22,12,-41,-7,-6,-12,5,-98,-62,7,70,99,42,-5,44,-25, 
  /* [54][0][][] */ 15,35,-47,-24,18,2,-33,-26,19,-22,2,-59,5,74,-16,-1,38,40,-40,12,-20,-9,17,8,-38,-43,-6,-27,-42,-8,25,19,10,21,-105,-7,28,-58,33,-4,24,32,-25,-65,-13,-37,-89,-55,17,9,7,-127,-45,70,-26,-4,-42,-62,-3,0,7,-29,5,20, -22,-3,-24,-20,14,32,-14,-41,-2,3,-22,1,56,-1,32,7,41,29,7,6,19,-22,-29,-10,14,-30,-10,-2,-14,-40,28,28,-14,27,-32,1,12,-84,-8,8,24,47,-24,-40,13,-15,-87,-39,-22,-12,-1,-62,5,52,-18,-57,-93,-9,4,-4,13,-79,-16,9, -1,-24,4,-34,14,11,-6,10,23,31,0,-33,64,-21,26,7,55,-18,5,9,-10,15,19,-32,62,-20,14,17,26,-22,-35,33,30,9,-31,-39,6,-41,48,69,56,57,-87,-8,6,-63,-79,-34,-7,-20,-74,-65,61,4,15,-43,-86,2,44,38,-16,-58,-9,42, 
  /* [55][0][][] */ -13,23,21,-68,-49,43,46,-15,3,-24,79,-66,10,52,46,-8,-19,27,-45,-4,-52,-35,12,28,-80,18,7,-30,-19,-5,35,2,-54,40,-33,23,-62,-73,-33,-75,13,40,56,-84,-51,23,16,19,-25,4,-48,-17,19,-20,52,-11,2,55,-4,11,-16,41,66,-61, -1,3,-30,-5,-127,24,49,-59,-54,33,-67,-89,-12,39,66,32,-97,-16,12,-16,-54,-62,8,19,-52,26,14,14,3,19,-35,-31,-65,-43,-1,102,-39,-50,-16,-109,49,-36,-23,-103,19,47,-92,37,27,-2,-48,-14,-26,55,-32,23,68,-34,-57,-45,-93,0,-18,8, 4,46,-20,60,-112,-64,-8,-74,11,-22,-30,-27,-45,30,45,78,-12,76,24,-8,31,-21,-20,22,12,-23,32,-19,18,-17,-19,14,-5,-25,-38,39,-62,-38,-3,-68,47,28,70,-58,-32,32,9,20,43,17,62,-10,-28,-10,26,45,56,-90,-24,-11,-36,-31,10,-93, 
  /* [56][0][][] */ -31,35,89,45,-63,-25,4,44,39,27,39,-64,50,-19,-6,20,-40,-83,-33,-38,-13,44,12,-30,10,-58,6,0,-12,-14,-9,-3,-11,-31,53,-23,-31,67,-22,22,4,22,17,68,-28,-31,-84,-28,21,75,-4,-37,-43,-54,-62,29,-74,16,-19,0,12,12,19,-42, -35,-17,-24,-44,-61,-49,42,55,62,29,-11,-6,33,18,-22,-32,-23,21,0,-89,-7,-95,25,47,-28,-22,21,-29,44,50,23,-49,-15,36,-23,-23,-47,-34,-111,-69,-11,47,-17,20,-40,14,-74,-30,-13,-7,3,-47,-15,-48,18,-26,-40,4,-10,-47,-72,34,23,-9, -20,-29,-31,-27,-127,-36,20,9,-35,12,25,20,70,-7,-53,30,-47,42,-28,-75,-51,-93,-24,21,31,-47,-11,-37,43,11,32,-94,-76,-11,-112,-15,-37,-47,-100,-19,17,57,14,-38,-38,35,-79,8,8,74,-27,7,-1,-89,37,21,-42,27,34,-24,-39,-66,40,11, 
  /* [57][0][][] */ -28,15,-49,-98,90,30,-1,-110,55,18,23,-105,-65,-25,-28,56,-42,-29,-61,7,-76,-16,94,-3,56,-24,-11,-1,37,118,-49,45,-44,21,12,35,-44,85,0,-75,-79,-93,-10,47,1,8,6,-37,-17,33,3,54,-29,14,2,31,-15,-16,38,8,87,-23,-52,27, -107,-21,-61,-19,59,33,-83,65,17,-59,37,-36,-39,-44,-12,30,-9,23,-9,-3,39,59,48,-58,45,6,4,29,47,4,0,-17,-39,-2,28,-55,-100,90,-7,-20,-54,-22,54,-11,-57,-45,-63,-64,68,44,-39,10,1,3,13,-1,62,16,35,-18,59,3,9,43, -124,-18,-5,-7,-50,14,-11,36,70,-98,7,43,48,-63,-46,-41,-36,0,15,14,-6,29,-49,-88,11,-67,25,51,0,25,-70,-21,-42,-40,-127,-88,-59,64,-68,66,95,31,-41,40,-38,37,43,66,30,-31,-35,-1,21,-33,-61,-38,11,18,-7,-77,-14,77,54,38, 
  /* [58][0][][] */ -3,-1,20,-77,-52,-2,44,10,-23,-17,-63,-2,-59,5,31,-24,-36,-40,41,1,-14,-21,35,20,16,31,-8,-4,1,-41,-1,-18,-20,-56,-84,-18,-34,3,-13,-5,25,-19,61,-3,11,25,-46,-24,35,-53,-35,2,15,-56,18,19,36,24,4,35,-3,41,-31,16, 1,-50,16,-80,-13,-32,5,-21,3,7,19,-29,-74,-17,26,13,-36,-37,31,19,-21,16,-1,-7,2,25,41,32,-17,-11,-59,19,-46,-33,-41,-38,-47,7,2,-7,35,-23,9,-19,-4,25,-36,17,9,-74,-16,23,17,-127,6,-38,56,15,-16,4,80,15,27,28, -12,-38,-41,-21,21,-26,-61,10,30,-16,40,-62,-55,6,15,48,-32,-63,2,64,-33,-9,-21,-9,-36,-36,0,26,-6,0,-35,-2,-59,-16,-69,10,-58,-1,-9,8,11,-47,22,45,-18,15,-7,-29,2,-67,-21,74,17,-6,31,8,36,11,19,-9,73,-56,-28,14, 
  /* [59][0][][] */ 10,-36,-51,14,0,14,-24,-34,-41,-73,-50,-29,8,-62,-49,-2,-11,-46,-78,13,-10,7,38,-17,-22,-35,-127,1,-23,-57,-38,-16,-17,-47,-75,-39,-37,-76,-45,-2,-82,-68,-64,-83,-20,-15,-27,-16,-75,-37,-63,-18,-25,-40,-5,-95,-41,5,32,-79,-48,-35,41,-17, -48,20,-19,-6,-10,-36,-72,-22,6,-50,-46,-78,-53,-44,-16,-17,-17,-51,-40,-45,5,-22,16,-45,-16,-67,-78,-72,-87,-65,-16,-49,-15,-34,-1,16,-69,-46,-11,22,-77,-43,-19,-50,-72,-89,-66,-34,-99,-44,-29,20,-36,-25,-42,8,-11,-58,2,2,31,12,-45,-67, -4,-56,-66,14,-8,-83,-30,27,16,-78,-60,-37,-42,-38,-18,-77,-29,-47,-79,-24,-16,-78,-85,-24,-56,-49,-21,-35,-5,31,8,-65,0,39,-31,-56,-3,-59,-16,5,-24,1,-59,-6,-97,38,8,-34,-92,-60,14,1,-30,-51,6,2,-54,-28,-21,12,27,16,-5,-17, 
  /* [60][0][][] */ 6,-76,-88,24,-78,71,22,-27,-113,7,2,11,24,5,26,-46,27,-24,13,11,52,-32,-32,-47,-127,-9,41,-15,105,40,-71,30,39,52,-91,35,1,3,-6,22,3,-27,50,-72,12,79,31,-39,-48,-39,93,-23,-78,11,48,-19,15,-51,13,33,-15,-51,18,60, 36,20,-99,-54,-99,30,-15,45,-27,-56,18,-22,48,34,-21,-53,18,-44,11,-12,31,-14,-36,8,26,-18,-70,17,-38,-31,-62,20,62,2,-30,97,-20,-16,70,99,57,22,49,-3,-19,23,47,-45,46,4,43,54,-2,37,45,76,65,-82,18,66,-72,-68,-56,58, -10,103,-26,-113,69,-65,-69,28,78,-5,26,-37,-27,20,19,-101,-65,-68,-53,-1,18,-8,49,35,-72,-96,28,-26,-65,-6,-117,42,-19,-25,-5,-23,45,42,-56,21,7,-22,-63,-1,17,-45,88,-24,17,-33,51,-2,-40,-19,55,14,0,-90,44,61,44,-37,-89,-27, 
  /* [61][0][][] */ 10,-83,93,5,17,-28,-127,1,0,11,-30,38,-14,-43,-38,14,-95,5,51,7,-52,40,-55,12,-39,26,18,-33,37,39,-71,-2,18,15,-56,-108,19,23,26,-15,-108,26,-61,72,-31,27,7,-38,17,24,-21,46,-7,8,14,-41,13,-94,-17,-15,-6,-23,-16,5, 34,-5,-87,-74,11,-37,-23,1,-12,-21,-14,-48,-18,-55,-10,8,-53,-10,-15,34,-5,37,-5,-35,20,14,-45,-2,36,-17,-20,40,37,0,5,-39,37,12,4,-17,-69,50,1,-34,-31,12,94,9,22,32,9,53,-35,18,0,39,57,-101,-1,11,-25,-100,-5,37, 4,59,17,-54,40,-57,38,23,9,-27,4,-21,-71,-33,-49,52,-25,-10,-40,34,-25,31,53,-17,-14,-41,-5,20,53,8,-33,-3,14,8,-1,2,-2,42,11,-55,-21,14,-13,-38,36,-51,10,-43,36,29,19,54,-65,58,-32,-80,-3,-125,-13,-14,-3,9,9,-3, 
  /* [62][0][][] */ 19,-46,47,6,21,-42,-83,34,3,36,6,-31,55,-30,0,63,31,-35,-18,40,34,-19,30,16,11,-27,10,13,-34,-24,82,36,-97,-42,-36,-65,-6,32,19,-39,-12,20,-37,-19,-26,19,-37,-40,16,23,-95,-18,-2,-82,3,6,-9,1,-26,-26,17,24,0,-42, 4,-40,-13,21,41,26,3,21,58,-30,-45,12,-33,-24,5,16,-77,35,-37,-46,-8,-5,3,33,-4,-35,-2,37,-17,-32,-24,27,20,-8,-54,-59,6,34,17,-21,7,25,7,7,31,49,12,1,23,-3,-54,-14,9,-28,-30,-19,9,-14,-46,-1,43,61,-20,-11, -64,44,-11,19,-15,36,-7,-29,33,-15,-64,28,30,17,-28,-22,-107,-22,-20,-77,62,11,-26,-19,24,-40,22,12,7,-70,47,5,-8,-34,-127,-85,36,-16,10,48,19,27,8,39,46,23,-10,12,5,-22,-110,23,15,-117,32,-58,21,30,60,-20,-10,51,46,35, 
  /* [63][0][][] */ 12,-49,-72,-12,-110,17,-105,-72,-43,65,-47,-7,-10,-2,-55,-67,-42,28,-7,61,21,26,-50,44,-62,-97,-33,-16,-37,-47,23,-110,15,-64,-4,-86,20,-78,48,26,27,-77,-45,-46,1,-9,-70,73,8,60,-81,-9,-83,-81,-127,-52,50,21,-45,0,-114,5,-48,23, 8,-8,-29,47,7,-78,-16,-20,25,-23,49,-78,48,-114,-64,58,-84,79,28,10,24,-52,-71,-55,-16,18,-8,-82,-85,-100,24,-14,10,-115,25,-70,70,32,24,-26,-97,2,22,64,17,-50,31,-28,1,-66,-61,4,36,53,-85,8,-93,-7,34,-115,55,-105,-18,-75, -10,37,-75,-78,-55,-29,-25,-60,2,-89,-106,-46,41,-105,-5,-120,-61,-96,-48,-73,-63,-39,18,-122,-71,-43,25,-67,89,28,17,-59,6,62,35,-50,-71,7,-31,66,-62,-41,-116,64,32,-77,13,-93,-94,-40,-60,-94,-65,-105,-34,-85,11,-78,-47,21,-62,-65,56,90, 
};
const TfArray<4, int> tensor_dimension11 = { 4, { 64,1,3,64 } };
const TfArray<64, float> quant11_scale = { 64, { 0.0035624869633466005, 0.0034422355238348246, 0.0028782305307686329, 0.0027313781902194023, 0.0023540616966784, 0.0031242202967405319, 0.0029961655382066965, 0.003701821668073535, 0.004328643437474966, 0.0061483066529035568, 0.0022448080126196146, 0.0036140340380370617, 0.0031428812071681023, 0.004954187199473381, 0.0034935399889945984, 0.0027426974847912788, 0.0036831956822425127, 0.0041583096608519554, 0.0025908660609275103, 0.0038834852166473866, 0.0038824004586786032, 0.0026412841398268938, 0.0043771401979029179, 0.0031701771076768637, 0.003671176265925169, 0.003237949451431632, 0.0028165120165795088, 0.001914741937071085, 0.0033043262083083391, 0.004950354341417551, 0.0053209830075502396, 0.0034590349532663822, 0.0034143459051847458, 0.0034169640857726336, 0.0035219844430685043, 0.0030808860901743174, 0.002434596186503768, 0.0028776912949979305, 0.0037862882018089294, 0.0039987894706428051, 0.0033334787003695965, 0.0036067173350602388, 0.0025006325449794531, 0.0030109190847724676, 0.0030574260745197535, 0.00127646722830832, 0.0035669966600835323, 0.0053130211308598518, 0.0022440147586166859, 0.0015151425031945109, 0.0032351796980947256, 0.0037433498073369265, 0.005161636509001255, 0.0025646290741860867, 0.0042031547054648399, 0.0032037156634032726, 0.0035470256116241217, 0.003188352333381772, 0.0043447348289191723, 0.0024494619574397802, 0.0020976299419999123, 0.0041445363312959671, 0.0037680927198380232, 0.0013741132570430636, } };
const TfArray<64, int> quant11_zero = { 64, { 0,0,0,0,0,0,0,0,0,0,0,0,0,0,0,0,0,0,0,0,0,0,0,0,0,0,0,0,0,0,0,0,0,0,0,0,0,0,0,0,0,0,0,0,0,0,0,0,0,0,0,0,0,0,0,0,0,0,0,0,0,0,0,0 } };
const TfLiteAffineQuantization quant11 = { (TfLiteFloatArray*)&quant11_scale, (TfLiteIntArray*)&quant11_zero, 0 };
const ALIGN(8) int8_t tensor_data12[64*1*3*64] = { 
  /* [0][0][][] */ 8,11,-33,24,3,-51,-84,-6,-4,-19,-6,21,-24,-74,-43,-88,38,-32,-61,-41,-46,-12,-56,-55,-47,3,-61,-53,-62,-12,-59,-48,-60,9,-67,6,-81,-46,-19,-26,-12,-58,-54,-41,-31,-1,-4,72,-19,13,-93,-6,-32,-81,49,-28,-1,-86,-106,-50,10,73,-86,3, -47,-61,-43,32,35,-102,-36,-66,10,8,-56,7,11,3,-81,-80,-18,-93,-90,-3,28,7,13,3,-26,-73,-85,-44,-91,-8,-50,24,-19,4,-25,29,28,-28,-60,-42,14,-48,-5,25,-44,24,-31,11,-86,-46,-107,-12,-4,-14,-72,-23,26,-69,-19,16,-24,14,-58,21, 33,-36,-39,-4,24,-55,-16,-25,22,23,27,25,7,-52,40,-4,46,-6,-77,19,6,-25,-68,-82,-8,-16,-81,-61,-23,-75,1,11,36,-42,-26,-27,-22,-34,-11,20,8,-55,-45,-62,49,1,-20,-58,-74,-35,20,33,39,36,-127,-37,47,11,-56,24,-29,30,-84,-36, 
  /* [1][0][][] */ -31,-14,-86,-3,24,2,3,-32,51,29,-44,46,-2,-90,42,-39,5,31,-67,-62,-26,-29,14,-4,-99,127,7,0,-4,38,36,36,56,-21,80,12,-4,-52,-6,-15,-28,51,21,-48,-21,30,-100,-29,38,-5,-73,17,79,44,-58,-30,-28,35,5,7,-41,-7,-9,-16, -72,18,-13,-10,57,28,-27,-20,-52,19,-47,21,-1,-75,25,25,-12,-5,-14,-97,13,36,68,19,-47,12,-31,26,20,19,1,55,16,-67,50,36,-14,6,18,-36,-69,-73,55,12,39,26,-16,6,41,34,-41,25,-69,34,-1,-51,-27,64,-35,-1,-43,39,-3,6, -53,-36,-17,7,57,9,66,-14,-120,-71,-7,-47,-31,-111,28,31,-3,90,23,8,-19,28,-27,-104,-80,-36,-127,-37,13,-62,-44,42,-38,-29,57,-15,17,39,-1,54,-24,-19,-7,-1,30,-28,0,-29,-33,0,-13,-75,-111,25,5,-46,-26,-9,-22,18,48,30,34,19, 
  /* [2][0][][] */ -19,27,-29,6,-1,-1,-47,-70,-53,-63,29,75,-12,-24,-33,15,19,28,-8,-18,-10,-12,8,-7,-63,69,-47,-22,-1,-13,-1,-7,49,9,47,-2,-1,25,-59,-41,15,1,41,-52,-53,4,16,15,-11,9,-9,40,44,-33,-35,-40,-127,-2,41,-16,-8,5,-66,24, -54,-44,1,19,42,31,21,-58,-36,2,18,38,-41,-52,47,-17,22,34,-39,-10,104,-2,-14,20,-62,47,-17,-40,4,51,-14,13,-45,1,6,13,-9,-20,37,-59,-66,1,23,1,-47,-14,4,24,-17,-17,-79,49,42,-22,-63,-47,-99,34,44,0,-24,19,-44,26, -30,-45,-6,-25,58,30,-4,-46,-99,-11,3,2,-28,-60,29,37,27,40,-42,-2,-10,38,10,-69,-55,-19,-47,-32,-28,12,-24,5,-45,-34,24,-12,-3,-25,27,-4,-48,-44,11,-25,15,18,-21,10,15,5,-113,14,-33,-14,-2,-47,-60,6,25,12,-6,78,-41,-15, 
  /* [3][0][][] */ -34,-7,5,4,-1,12,3,-16,29,-36,13,18,20,-19,-7,11,-54,-12,16,94,-25,12,15,18,-40,-2,-3,1,-40,-48,-20,11,-40,18,-33,-62,-49,3,-8,20,-3,-16,11,16,-64,18,37,-3,11,-9,-28,-4,46,-15,-31,-2,27,2,-6,2,-1,38,-14,-8, 79,33,-27,12,4,17,9,-31,13,-127,-33,39,-51,-51,-37,-31,-30,-91,-69,83,-72,29,-15,-28,-21,-41,-23,-1,-24,6,-30,14,2,-1,30,15,-6,10,-46,55,29,-17,-21,35,-26,-20,7,-39,23,-27,18,17,61,-7,24,11,80,10,-17,5,-1,-64,-17,-12, -24,68,-15,-14,-19,-31,-23,23,82,11,-1,-16,-54,-29,0,-66,8,19,9,-7,-17,11,-46,11,-7,-16,-4,-39,-45,-29,5,18,29,30,37,-29,35,4,-47,37,-26,-17,-19,53,-47,7,-32,6,24,-26,48,12,47,37,18,-3,105,-36,1,38,-79,4,-13,-10, 
  /* [4][0][][] */ -43,13,8,47,-36,16,9,26,30,-72,-46,70,30,-61,-22,76,-7,-58,-51,70,127,-12,0,-27,-19,-50,-88,-8,8,-6,-126,74,13,-3,57,28,-28,17,-24,11,3,-73,21,-71,-65,-23,5,12,-20,-9,27,-56,-77,28,-7,-48,-16,8,-16,-13,15,-10,29,-8, 55,23,-48,-24,-39,-15,30,13,-10,-58,-2,17,73,2,-12,-56,-56,-46,2,60,41,-7,-84,-4,22,-13,-77,-18,-19,-2,-39,-5,-16,57,19,-7,-9,-2,-66,39,52,-90,-12,-80,-12,-22,-19,-25,7,-7,-34,61,-93,13,1,-77,15,-13,-52,-14,20,-25,-48,-13, 3,37,-38,-30,-28,-46,-19,-6,24,-87,-37,49,19,-59,-64,-55,-99,-65,-97,56,-48,-27,-82,6,25,-43,-41,-21,-36,-54,-93,29,35,29,58,-53,-1,-28,-87,40,44,-87,-33,-65,-22,-3,7,-75,-41,-7,-2,-13,0,-42,-73,15,-17,72,-80,11,12,-47,-19,-20, 
  /* [5][0][][] */ -46,56,-2,20,-31,38,-37,10,23,-127,20,-40,39,57,11,49,-67,-24,39,-83,-47,-2,7,45,-1,-30,-1,-8,1,-33,50,-50,-90,-28,-95,-2,-3,-23,10,-70,-11,15,-73,44,-30,14,22,-46,-27,-23,46,-2,66,14,48,-6,-7,-27,21,-18,32,-20,-19,-5, -52,-28,-21,43,-65,9,11,-28,-3,13,13,16,29,16,48,-3,-7,-4,34,-64,-53,-11,-48,16,-47,-30,-44,29,-11,43,-77,-26,-22,-49,-14,-55,-14,-9,12,-15,54,-4,-73,47,15,3,-37,26,-14,6,4,-60,43,1,14,40,45,-50,3,24,-25,-80,-34,21, -77,-4,-66,12,12,-1,-4,9,46,-88,50,-9,-52,-10,75,25,-68,26,46,-44,51,-26,-55,-53,-72,-33,-48,-19,11,-26,-126,2,-38,-22,-41,-12,-23,52,13,-26,40,48,-28,-28,-1,3,38,63,14,-32,15,-20,-33,-64,8,21,114,-83,-29,24,10,-69,-75,14, 
  /* [6][0][][] */ 24,-81,-40,-4,-21,16,5,-44,12,-56,26,-70,-12,-52,-39,11,53,1,13,28,-67,-43,14,12,22,2,6,-5,-25,-25,-14,-85,6,20,-17,-60,-30,-12,55,67,-70,-1,-28,38,-38,-11,55,31,-15,14,-28,15,84,-57,44,-52,-9,7,-35,23,37,38,-15,-8, 9,-43,-2,0,-2,-33,-12,-8,4,-78,-12,-112,-32,-55,-31,47,14,-2,-27,29,-88,17,22,25,-13,-23,-39,-34,8,14,-72,-88,-43,-23,-1,2,-35,-27,38,-48,-48,-98,19,-74,-74,-17,-3,41,56,-6,-24,5,51,-2,-2,-53,-18,14,-39,24,34,-18,36,-27, 89,37,-42,31,-17,-43,-10,69,73,-127,24,-44,19,-77,-27,38,-45,42,-47,76,-2,-1,54,62,-22,-85,-25,-10,-17,58,-122,-37,27,-8,-22,0,14,-34,37,10,-14,-77,-22,41,-66,-18,-46,24,-12,12,-17,3,35,45,-7,-127,106,36,-35,20,17,36,2,-2, 
  /* [7][0][][] */ -8,-56,-58,-41,19,-24,-39,1,-39,-105,-16,-36,-2,-6,-67,-76,-45,-45,29,-71,37,3,-30,-80,-63,-66,-12,4,-14,-37,-10,-62,-22,-43,-39,45,-95,-63,28,-14,-3,-88,-73,-19,81,-23,-2,-50,-70,20,-18,-5,-63,-48,30,-23,-45,34,8,-10,-22,-33,-35,48, 40,-43,40,47,15,-4,-65,-18,-8,-101,12,-32,10,-1,-38,-24,-16,-44,4,-19,26,-11,-44,-34,-91,-37,-72,4,1,-69,5,-55,15,-34,41,-35,-5,-38,4,17,-50,-26,-17,-61,-103,-11,-50,5,-36,30,4,-81,-23,-22,-78,-32,25,-32,-69,-7,-86,-24,-67,11, -26,-32,-44,62,-18,-32,-7,-23,64,13,6,9,-28,0,-21,-65,3,-29,-66,-66,27,-58,-50,18,-68,8,-45,23,31,-29,31,-4,-42,-39,-31,-14,-37,1,-89,10,-80,-2,18,-25,18,-45,-29,13,-41,16,5,-55,-15,0,-20,-22,27,-78,-19,4,-37,-127,-46,35, 
  /* [8][0][][] */ 56,-4,35,-5,5,3,-11,10,-39,-127,14,7,58,-12,-49,12,-106,-92,-19,-7,-12,55,-79,-27,10,-51,4,15,-24,-8,6,-62,-56,32,76,27,-23,-61,-97,-58,61,-20,-47,5,-4,23,-41,-64,6,-8,-10,-34,57,45,-34,-23,-46,-51,-35,66,26,-18,-65,6, 16,18,1,3,-51,44,3,-29,-1,-91,31,-21,24,9,-16,10,-21,-15,-9,7,-88,24,-36,-26,-55,-51,-2,-9,-28,-21,-83,-19,1,-4,78,11,8,25,-43,26,93,-37,-14,-18,-2,-7,19,-27,14,8,-3,-1,27,24,-56,-9,-5,37,-22,-22,20,53,-14,-27, 72,25,17,10,6,8,-19,-11,61,-35,38,50,64,-40,32,-59,23,74,38,-22,-11,33,-71,20,4,-50,-24,-23,-27,-38,-49,-12,31,-11,-8,-16,8,6,45,44,4,53,19,30,-25,-30,-20,-71,6,37,1,19,60,36,-41,-20,52,28,-9,-25,-16,-124,-75,-8, 
  /* [9][0][][] */ -32,0,-44,8,51,36,11,-16,-14,-38,18,51,-25,-3,-17,-26,7,-36,5,-77,38,-88,33,-3,-69,36,-64,-14,-9,-114,123,31,29,-49,-10,9,6,-29,-86,16,-60,1,45,21,-47,-15,25,-21,-20,-32,50,8,12,42,-6,31,-48,-30,17,22,-18,12,-47,-23, -103,6,-9,-2,108,32,-21,-70,-71,-24,25,0,-32,-51,-18,33,-13,29,18,-27,12,-46,-21,-98,-70,-29,-40,9,9,43,62,15,-32,-18,-36,19,-20,6,-41,26,-4,-5,-28,-14,-9,-22,31,15,-76,-12,-36,45,-29,6,-9,13,-111,-37,-2,6,-15,29,-19,23, -55,19,27,-25,27,25,15,-41,-44,-121,-2,-2,17,-81,-27,42,23,17,-22,-74,32,-21,-13,-69,18,-18,-2,-2,17,25,54,-5,-22,-65,-127,-27,-59,11,6,65,-79,-50,-4,19,23,-28,18,33,-52,-2,-47,41,-83,32,-44,-49,-74,38,-28,3,0,34,51,-40, 
  /* [10][0][][] */ 24,-41,-42,-37,-1,-18,-23,73,31,-18,-53,-31,28,-15,-4,19,2,-22,28,-39,-37,22,-34,56,-61,-8,-8,25,16,11,-8,23,35,9,-32,21,-18,-43,-121,-89,70,-6,-1,-17,16,-1,-29,-110,14,-10,-48,-13,-127,30,-86,13,17,49,50,13,45,-25,7,-11, -26,-49,-16,30,-15,26,-8,46,-13,70,-54,-20,2,7,-33,-11,22,22,48,-54,18,-57,-94,24,-11,-18,0,-17,47,18,39,-34,55,8,-35,76,-37,20,-67,-17,59,8,12,-57,-69,21,7,-66,-4,9,-48,13,-34,6,-62,-8,-19,-51,40,-5,-11,-86,8,-7, -14,-63,-7,-32,21,9,2,-32,38,42,-25,-60,-18,-17,-25,6,51,23,9,-23,-32,-28,-47,-42,-10,-23,3,-29,44,-5,32,-17,76,-16,-59,45,-48,-44,-11,-5,-2,11,-3,0,-28,8,-14,-8,-37,-2,-96,27,78,-10,-24,-2,-40,-8,45,-10,-8,-8,16,15, 
  /* [11][0][][] */ 7,0,-5,21,-9,16,2,11,26,-75,5,49,38,-53,14,-9,8,28,16,-22,52,-4,-36,-2,0,-4,9,9,5,9,20,-11,3,0,38,42,12,-7,-92,3,28,-25,-10,2,27,-7,-45,-20,6,17,7,5,11,5,-10,11,-27,-22,-30,4,9,-10,-36,2, 15,-24,-17,10,4,-5,25,-27,-3,-127,-10,-21,15,-7,11,18,-48,-16,-5,-14,51,-14,5,-15,-4,-15,-23,-10,-37,-7,-53,-51,13,-10,15,6,19,-21,-42,-6,62,-27,2,13,-1,3,-48,-22,7,2,-22,-17,17,-5,-56,29,-10,0,-14,-33,-18,9,-33,21, 40,18,11,-1,-29,-12,-14,-23,50,-13,29,-30,54,18,-13,-35,-56,2,25,25,27,24,-68,-27,-49,-52,-22,11,-35,-27,7,-3,5,22,7,-10,-13,35,-7,22,44,10,-13,10,-24,19,6,19,12,26,3,14,25,-6,-23,11,-57,40,-11,33,17,-25,-20,-6, 
  /* [12][0][][] */ 45,70,-64,94,38,-41,42,11,56,-19,5,-9,68,-81,-5,-42,-12,43,-31,13,-34,42,13,-28,-42,-23,-85,-1,10,-74,56,33,58,13,50,-41,-21,18,-85,26,30,-127,54,-64,-70,-29,-106,43,0,1,-48,-34,-28,10,-35,-25,-13,-19,-71,-20,17,32,11,37, 31,32,5,52,-5,25,19,32,-10,7,44,15,90,-35,15,10,3,-1,10,9,-43,18,3,40,28,18,-25,-28,-48,-75,21,-14,-61,9,2,53,-9,4,-35,43,-18,-37,28,2,-11,-23,-14,28,-5,-1,-32,-1,46,-23,-19,-64,-70,15,-11,-8,39,31,-40,37, 10,-51,-24,-23,38,21,-34,-24,-7,64,-34,65,59,-52,-71,61,-2,29,-35,0,68,-45,-7,20,33,-34,-34,-29,1,-54,10,35,-8,11,56,26,-23,-22,7,5,50,-66,-3,-60,-9,-35,-18,54,3,14,-26,36,-42,-28,-6,-52,-113,-24,-73,-15,32,38,-2,-17, 
  /* [13][0][][] */ -14,-41,36,-43,-18,2,-18,-24,-25,-17,-13,-37,-8,-49,-52,-10,-30,40,-16,31,61,8,29,-15,3,-77,41,20,-41,-56,27,-46,-34,-15,79,-30,-4,-37,-103,13,0,6,7,13,-18,23,-21,-56,-4,5,-48,-3,-7,-44,26,-23,-22,-13,3,-3,-44,-57,-44,19, -37,19,9,30,33,-25,-45,-3,-19,127,0,-33,-86,-51,1,11,-62,36,-32,27,9,-58,-21,-7,-29,-39,53,26,-1,-4,-18,6,-2,-30,-29,35,31,4,12,-9,92,29,-7,22,48,-12,-42,6,-9,15,-2,-18,1,-36,-47,-1,9,-56,-10,41,-56,28,10,9, -43,28,3,9,21,-10,-40,-26,19,16,17,7,8,14,22,-57,-19,25,-2,-73,-8,48,-50,-5,-16,-73,18,-27,-50,-54,88,10,20,17,60,36,10,-4,-66,-39,-13,42,-50,-9,-28,33,-1,-2,-13,-19,46,28,42,39,-88,36,26,-31,51,-23,19,63,-72,-24, 
  /* [14][0][][] */ -57,29,22,-69,2,39,4,-43,-80,-74,-18,-6,28,-43,-22,6,8,-21,-26,-54,4,-56,9,20,-37,-2,-17,-16,42,53,35,-4,64,-62,-59,-13,2,-34,11,-17,-60,-9,47,12,-74,13,-6,-12,-10,21,-51,27,68,-22,2,-51,-30,18,-19,-20,-6,33,3,-4, -33,-26,-22,-28,15,35,34,-44,-53,-95,7,21,50,-53,-16,31,19,-11,-32,-11,34,-55,-28,-56,-65,-2,-13,-14,13,4,-45,-2,23,-2,-44,16,18,-10,0,12,14,4,33,23,-48,-18,-13,39,37,-7,-41,5,-30,-27,-3,-62,-66,51,-13,16,-38,54,-24,24, -19,-23,11,-19,23,6,44,-28,-44,-127,-31,-52,55,-52,-18,-38,-12,40,-75,49,21,8,14,-60,-35,15,-17,20,13,-8,-41,2,22,-57,-16,-29,-28,-26,-35,57,-57,-9,-12,-31,15,-9,-45,54,31,-10,-47,-41,-33,49,25,-55,-60,-11,-54,30,8,0,36,-25, 
  /* [15][0][][] */ 75,-84,3,56,22,-6,3,24,32,-27,6,2,33,4,59,-12,32,51,13,30,-38,-32,-48,-60,-112,-22,-26,37,-35,-56,-12,37,38,2,-84,-6,22,18,90,36,50,-123,-16,-17,86,-20,34,24,28,13,-15,25,-111,23,92,5,34,-4,-16,13,-26,-1,20,1, 99,-64,29,47,71,-62,13,1,8,1,25,-34,-96,33,39,-23,41,29,-23,45,16,-47,-12,6,-43,44,-52,12,-18,20,-57,43,-48,15,22,24,-30,6,-27,-42,-117,-44,48,-58,-38,18,20,17,3,23,0,12,12,51,-12,21,24,-46,14,-27,-66,7,-18,-2, 39,7,16,105,33,-68,15,0,-54,74,-2,-52,-65,68,42,-39,1,73,-16,-32,13,45,25,-77,-36,16,20,-22,29,-106,107,14,-2,-71,72,22,-16,53,-33,-36,-127,30,-3,-63,-4,-29,21,45,17,30,45,-39,19,-53,-115,27,-43,-60,-2,4,-22,-57,5,10, 
  /* [16][0][][] */ 103,-83,-19,40,14,-38,18,5,-1,-28,-6,47,61,-32,-20,-1,-36,33,-62,21,5,-70,-73,-13,12,-37,-46,17,-13,6,-40,3,-18,26,-45,17,-55,15,-25,16,22,-90,-5,-87,-70,-18,-50,-60,-31,5,-47,-28,-62,-38,-59,14,1,-69,-31,-14,-7,-53,-56,2, -15,60,-32,45,20,-64,-21,-59,-27,-85,-13,-50,-20,-73,-40,45,15,21,-101,16,-26,-95,9,-88,61,-27,-76,-48,-53,45,-35,-23,-12,-19,-69,-6,-31,19,20,-42,-20,46,-40,-12,44,-28,-15,14,-17,9,13,9,-2,-127,-69,-9,9,5,5,-7,-75,-27,-4,13, -9,-108,35,-39,5,-51,-42,18,24,-70,17,-96,3,-30,-28,21,57,-20,-35,44,25,78,-39,19,-93,70,-47,-15,-43,-33,100,8,-46,-48,-36,0,9,27,-43,-34,27,-13,-12,-12,-56,-12,5,-25,-16,-19,-94,56,87,25,48,-36,-48,-45,-42,-10,44,-12,22,-4, 
  /* [17][0][][] */ -37,-19,-37,64,7,-66,8,23,11,-38,-2,45,46,-17,19,-65,58,72,-7,42,50,24,-25,-58,-23,8,-76,-21,-61,-16,61,-5,15,91,-12,-11,23,54,20,-47,-48,-80,-73,-13,45,-14,-27,-8,3,7,43,35,52,11,-49,26,-34,-10,-39,-19,-36,-37,21,-7, -5,-18,-48,5,-19,-8,-80,2,-2,-52,17,16,24,-20,-55,-6,-39,11,-14,24,42,21,-39,-19,-30,26,-4,3,33,25,-6,12,-20,-31,-40,-30,-6,-48,-57,22,29,-8,-43,-40,-36,-14,-29,-127,-19,-1,-17,23,29,-31,-45,-13,-54,-64,24,-12,-5,8,8,5, -2,-22,-20,-10,10,2,-39,-73,-18,-10,28,-12,32,31,-45,17,-40,-24,-17,-25,10,-61,-48,6,-42,-94,-58,9,-75,-13,22,-44,-19,-70,-49,49,-44,-58,-38,-40,68,28,-22,-31,-8,-8,-12,-72,-36,10,-21,-34,23,-64,-93,5,-49,-9,-26,-7,28,-7,-87,-8, 
  /* [18][0][][] */ -48,12,-32,41,-50,-36,-16,42,47,71,-8,33,17,-75,-10,-13,-59,42,7,-73,-44,16,-4,-50,-60,5,-61,-15,-27,-15,28,24,-46,11,49,28,-8,-29,-33,-77,-127,-80,9,-36,-11,27,-114,-8,-1,-20,-24,-29,-11,44,-32,-21,41,21,31,30,-16,9,45,-14, -63,47,2,19,31,8,-5,4,-14,-6,34,-43,-1,-80,11,20,-12,28,-36,8,-12,-29,54,15,35,22,-87,-24,-28,-29,14,24,-43,-24,32,5,38,11,-52,1,-8,-97,36,-11,16,-21,-10,-35,10,-5,11,-23,-2,29,19,5,9,-24,-44,-29,24,-4,-6,9, -65,30,18,-2,-50,50,42,-17,-3,-61,7,18,18,-35,3,18,-68,6,8,38,90,17,-4,-16,-33,-31,-47,-31,37,-38,72,-7,-9,21,89,-15,-37,19,-29,10,8,-45,22,-54,-72,-21,0,-48,-19,20,31,-32,-94,52,17,-23,-16,-1,-28,-1,11,-16,23,-5, 
  /* [19][0][][] */ 127,-72,-74,34,14,-31,-7,-22,-33,-2,13,-68,-96,-44,9,9,33,73,13,-47,-42,-19,-27,19,-40,-4,35,-29,3,33,50,5,-40,-31,-87,7,-1,-33,-2,22,3,-4,3,31,12,-22,-50,47,-35,-26,9,-10,99,-51,-17,-21,-42,-49,22,3,-4,6,-17,-19, 49,-85,-42,57,-15,-24,15,-16,19,-22,-20,-74,-72,-54,-35,34,26,9,11,-35,-37,30,15,27,-18,-61,-55,-13,-27,40,30,-73,-42,-15,-15,65,27,-20,35,-66,-6,-24,-22,37,-24,22,-69,33,25,-13,22,-32,107,16,-26,-63,-44,6,-43,14,16,18,-14,-6, -12,-15,-9,8,72,-27,13,7,74,-14,7,-10,-35,-35,-20,-4,22,22,20,-33,-85,-40,15,48,-23,-32,24,0,-40,54,37,1,-14,10,-11,43,-1,-18,-28,-78,-22,-9,6,60,-26,34,-72,37,31,13,-71,75,33,27,30,-75,36,48,104,-35,55,-7,29,16, 
  /* [20][0][][] */ -59,-83,-87,9,34,-44,-47,-41,-16,8,1,48,26,-9,-40,-22,-37,-31,-67,-63,-65,-31,-15,-65,-19,-25,-113,-1,-11,-25,-27,-52,0,-106,-33,-12,-90,21,-45,-118,78,-28,-108,-35,-38,2,29,23,-80,-18,-109,6,9,-74,-39,-16,-27,24,26,29,-119,-59,17,29, -27,-16,-67,-26,-4,-45,26,25,-1,-46,-49,23,-46,7,-5,-20,-33,-32,-25,9,16,-42,-13,-53,6,-45,-22,-25,-95,-56,-8,48,-8,-32,-5,-56,-100,-85,-75,-29,29,-8,27,-5,4,17,3,-65,-55,34,-61,8,-21,-114,-5,-54,-19,-3,-44,32,-46,-63,4,3, -87,-127,-48,-91,28,-10,-47,27,-35,-34,-39,-21,-68,-13,-25,-18,-30,-15,-43,4,-32,-77,-48,-107,-3,-58,3,25,23,-19,-42,-3,-109,-36,-45,-20,-108,-58,-69,-62,-20,33,-4,-38,-27,-21,12,-45,-90,35,-84,-40,-24,-113,-5,9,-7,3,7,48,57,39,-25,28, 
  /* [21][0][][] */ 54,-28,-5,-5,44,26,28,-5,-23,8,-45,-36,19,-6,-30,-10,49,66,-43,-127,-33,-49,1,20,-34,36,-10,32,29,55,-9,36,-17,-35,7,-14,-5,28,-25,2,-39,10,-4,-30,-16,5,8,15,11,-1,-26,-12,15,-67,48,-13,20,48,26,7,36,-44,56,17, -13,-46,51,-4,15,-23,9,23,-33,-3,-31,-22,53,10,-28,-15,-6,-33,-34,21,99,-50,-4,-24,5,30,-25,-11,22,33,-24,-7,43,2,4,39,-30,-24,32,-5,4,3,-7,-32,-50,0,-36,-10,43,-30,-9,9,-38,-88,-40,-79,-4,7,-24,-21,-14,-58,37,-4, -93,3,-9,-71,-21,-53,-72,-26,9,16,-5,-56,-1,-28,-109,-60,-86,-33,-63,5,-22,-73,-65,-4,-6,-19,-13,10,-59,-34,-37,-15,31,30,-38,-10,-51,-82,-35,4,67,59,10,-52,-39,-8,-68,-88,-37,-16,-51,-92,-14,-54,-47,-88,-39,-57,4,22,-13,-51,-61,3, 
  /* [22][0][][] */ 45,-23,46,47,-32,1,37,-3,-1,-29,10,85,6,10,33,-21,65,21,-38,-14,13,-59,-12,-127,-15,-42,-41,-23,7,8,-64,3,-26,-58,-63,-3,-23,4,-38,32,44,-32,1,-89,-32,-6,34,-1,-12,-1,6,40,21,-6,-29,26,-32,-29,22,5,-18,-18,-47,-8, 40,-57,58,14,-48,5,38,-6,9,-35,34,-11,-64,48,12,22,19,-13,-21,16,-41,-45,-20,-63,39,-34,-69,11,-2,44,-40,-24,-33,-63,-102,2,-12,6,-8,-21,54,-68,-32,-81,-44,11,20,66,-33,18,29,18,34,-27,-49,-4,-14,5,-1,4,40,23,-10,-26, 31,-5,23,13,-1,-16,29,-23,40,-36,28,-7,-60,41,16,23,24,83,7,14,-52,-58,2,-36,1,20,-87,0,7,2,-78,-8,-14,-18,-100,-19,-26,-9,-30,1,-89,-63,-17,-72,-26,-4,-21,0,-8,-8,-22,-36,-3,-15,-15,2,23,29,-51,17,-2,3,16,-13, 
  /* [23][0][][] */ 61,53,-25,14,6,-24,26,8,26,-21,-9,23,38,-72,-31,-7,-18,39,-48,32,-20,-18,-5,-11,-92,-88,-35,-20,10,59,17,33,49,-14,-18,-18,-15,25,58,1,-20,-38,15,-50,-56,-3,-83,62,20,31,15,91,-90,-64,-33,15,33,-18,2,-4,-12,46,18,-21, 127,44,-33,-12,21,-43,28,-6,-71,-71,20,22,23,3,0,1,12,50,20,56,-11,-16,-4,25,-61,-55,-32,1,-22,25,-8,30,13,-22,-13,67,-55,49,1,13,40,17,-55,21,-25,-17,-85,5,45,8,39,-1,-65,-5,-51,-15,-1,22,-11,21,-18,8,24,-12, 65,10,11,38,54,-74,-13,-8,-25,-25,8,-4,-39,-17,13,-16,9,25,41,51,52,3,55,33,-52,-59,-55,28,-87,11,-98,18,17,-47,-16,24,-16,26,-11,36,61,19,23,-11,-47,22,-41,-7,27,1,-11,-39,-41,-9,14,-23,6,7,-55,19,-14,-29,-27,44, 
  /* [24][0][][] */ -8,-46,15,39,24,-67,-12,-21,-31,-13,27,71,91,40,16,30,98,-17,29,22,23,-30,13,20,30,-68,-18,-10,-15,-29,-39,7,-28,38,7,13,-8,-107,69,50,68,-10,-1,-37,21,-23,42,45,41,-33,-57,-54,77,27,-19,-9,12,6,41,0,6,2,-10,11, 40,-6,32,-9,4,-75,-42,29,-35,-52,38,-62,-35,-74,10,-56,64,-25,-4,-8,-67,-45,-31,22,-2,-42,-20,-3,-55,-50,-24,16,-38,23,11,-55,-15,-29,38,10,-7,26,21,-7,-27,14,-33,11,41,-9,-34,-29,-15,23,-33,12,-56,3,-15,-5,-15,0,-83,-10, 31,5,16,-27,11,-31,-75,-11,-47,30,60,-51,-16,-37,1,27,-26,-62,37,9,1,18,-9,-34,21,-81,13,39,-32,-69,38,-113,-54,23,61,39,38,-127,-84,8,3,-16,6,-11,-11,-40,26,-96,-43,24,-20,-3,-9,0,-122,59,-73,-2,-6,12,17,-9,-123,-7, 
  /* [25][0][][] */ -10,51,-45,-29,-50,-41,32,38,64,-38,-30,-33,-42,-96,22,36,-113,-7,21,8,-34,28,49,8,-32,33,51,-54,-70,19,-113,63,34,12,-39,38,-19,-46,4,-20,37,56,-3,5,0,16,-60,34,59,11,-31,19,-32,16,1,13,23,53,29,-22,-15,12,39,-23, 2,14,-18,-16,7,-35,-12,55,50,-13,-68,-48,-82,-127,-51,-22,-4,-73,-63,-32,-83,-56,-14,14,-118,-3,-20,-25,3,-37,-23,56,41,-26,56,-64,18,11,-34,30,-10,13,27,-64,101,18,-53,29,-22,60,43,7,-43,-2,14,-23,80,11,19,7,-56,6,-40,28, 26,-22,-3,50,9,38,-55,36,36,88,-58,-56,-88,-49,8,-25,33,-7,22,8,-94,-6,19,-6,-115,-10,-26,-10,41,-46,24,27,41,-23,-34,-32,-44,-39,-2,50,-94,7,-18,-30,37,-21,-30,-12,-41,43,-30,55,-90,0,-70,-5,18,-76,37,-10,-26,-7,7,-15, 
  /* [26][0][][] */ -14,16,-40,-27,25,15,-6,-42,-1,-21,0,34,-7,-13,-51,-9,-20,24,-21,-14,15,-7,-27,10,7,23,-22,5,0,20,-54,-36,-34,-1,-28,10,-37,20,-20,2,1,10,-1,-6,-8,-2,1,-44,-55,-25,9,15,32,-48,4,14,-19,-77,28,-3,17,-15,-33,-22, 43,20,-29,-42,14,2,-1,-127,-22,-8,-26,-8,-5,-36,-60,9,-6,31,-14,7,-29,18,3,5,8,2,-5,5,4,28,-34,0,-16,-43,-52,8,-41,10,14,-14,-17,-7,-15,18,-17,14,-19,-14,-33,-17,15,37,26,-38,3,-25,-63,9,45,-8,-6,23,25,6, -8,-6,-34,-50,9,9,10,-73,-41,-39,-19,25,-9,-71,-16,8,4,17,19,15,77,-5,-2,9,-38,3,-12,1,-3,52,-15,-9,41,-49,-75,37,-21,-30,-5,-9,17,13,33,26,-81,8,-7,13,35,1,-24,29,26,-26,-24,-44,-39,51,14,7,-21,23,22,-5, 
