/* Generated by Edge Impulse
*
* Permission is hereby granted, free of charge, to any person obtaining a copy
* of this software and associated documentation files (the "Software"), to deal
* in the Software without restriction, including without limitation the rights
* to use, copy, modify, merge, publish, distribute, sublicense, and/or sell
* copies of the Software, and to permit persons to whom the Software is
* furnished to do so, subject to the following conditions:
*
* The above copyright notice and this permission notice shall be included in
* all copies or substantial portions of the Software.
*
* THE SOFTWARE IS PROVIDED "AS IS", WITHOUT WARRANTY OF ANY KIND, EXPRESS OR
* IMPLIED, INCLUDING BUT NOT LIMITED TO THE WARRANTIES OF MERCHANTABILITY,
* FITNESS FOR A PARTICULAR PURPOSE AND NONINFRINGEMENT. IN NO EVENT SHALL THE
* AUTHORS OR COPYRIGHT HOLDERS BE LIABLE FOR ANY CLAIM, DAMAGES OR OTHER
* LIABILITY, WHETHER IN AN ACTION OF CONTRACT, TORT OR OTHERWISE, ARISING FROM,
* OUT OF OR IN CONNECTION WITH THE SOFTWARE OR THE USE OR OTHER DEALINGS IN THE
* SOFTWARE.
*/
// Generated on: 06.06.2021 11:23:35

#include <stdio.h>
#include <stdlib.h>
#include <vector>
#include "edge-impulse-sdk/tensorflow/lite/c/builtin_op_data.h"
#include "edge-impulse-sdk/tensorflow/lite/c/common.h"
#include "edge-impulse-sdk/tensorflow/lite/micro/kernels/micro_ops.h"

#if EI_CLASSIFIER_PRINT_STATE
#if defined(__cplusplus) && EI_C_LINKAGE == 1
extern "C" {
    extern void ei_printf(const char *format, ...);
}
#else
extern void ei_printf(const char *format, ...);
#endif
#endif

#if defined __GNUC__
#define ALIGN(X) __attribute__((aligned(X)))
#elif defined _MSC_VER
#define ALIGN(X) __declspec(align(X))
#elif defined __TASKING__
#define ALIGN(X) __align(X)
#endif

namespace {

constexpr int kTensorArenaSize = 9200;

#if defined(EI_CLASSIFIER_ALLOCATION_STATIC)
uint8_t tensor_arena[kTensorArenaSize] ALIGN(16);
#elif defined(EI_CLASSIFIER_ALLOCATION_STATIC_HIMAX)
#pragma Bss(".tensor_arena")
uint8_t tensor_arena[kTensorArenaSize] ALIGN(16);
#pragma Bss()
#elif defined(EI_CLASSIFIER_ALLOCATION_STATIC_HIMAX_GNU)
uint8_t tensor_arena[kTensorArenaSize] ALIGN(16) __attribute__((section(".tensor_arena")));
#else
#define EI_CLASSIFIER_ALLOCATION_HEAP 1
uint8_t* tensor_arena = NULL;
#endif

static uint8_t* tensor_boundary;
static uint8_t* current_location;

template <int SZ, class T> struct TfArray {
  int sz; T elem[SZ];
};
enum used_operators_e {
  OP_RESHAPE, OP_CONV_2D, OP_MAX_POOL_2D, OP_FULLY_CONNECTED, OP_SOFTMAX,  OP_LAST
};
struct TensorInfo_t { // subset of TfLiteTensor used for initialization from constant memory
  TfLiteAllocationType allocation_type;
  TfLiteType type;
  void* data;
  TfLiteIntArray* dims;
  size_t bytes;
  TfLiteQuantization quantization;
};
struct NodeInfo_t { // subset of TfLiteNode used for initialization from constant memory
  struct TfLiteIntArray* inputs;
  struct TfLiteIntArray* outputs;
  void* builtin_data;
  used_operators_e used_op_index;
};

TfLiteContext ctx{};
TfLiteTensor tflTensors[43];
TfLiteRegistration registrations[OP_LAST];
TfLiteNode tflNodes[19];

const TfArray<2, int> tensor_dimension0 = { 2, { 1,650 } };
const TfArray<1, float> quant0_scale = { 1, { 0.047561004757881165, } };
const TfArray<1, int> quant0_zero = { 1, { -5 } };
const TfLiteAffineQuantization quant0 = { (TfLiteFloatArray*)&quant0_scale, (TfLiteIntArray*)&quant0_zero, 0 };
const ALIGN(8) int32_t tensor_data1[2] = { -1, 112, };
const TfArray<1, int> tensor_dimension1 = { 1, { 2 } };
const ALIGN(8) int32_t tensor_data2[64] = { -3183, -4338, -4143, -2455, -4640, -7698, 1814, -930, -8239, -2655, -312, -33, -2711, 929, -3522, -4544, 258, -4336, -3025, -2420, -818, -5514, -2522, -3804, -5704, 3039, -6300, -3818, -4622, -2257, -2001, -2959, -6039, -10842, 1417, -6644, -224, 2127, -6354, -884, -3861, -5529, -1931, -3450, -2064, -3476, -276, -3990, -3412, -7050, -2878, -1637, -2719, 1832, -6120, -629, -3408, -1006, 1690, -4971, -5657, -4166, -4137, -1846, };
const TfArray<1, int> tensor_dimension2 = { 1, { 64 } };
const TfArray<64, float> quant2_scale = { 64, { 0.00030508235795423388, 0.00017356203170493245, 0.00020052929176017642, 0.00020429136930033565, 0.00023594101367052644, 0.00016672551282681525, 0.00034892436815425754, 0.00028750018100254238, 0.00013779240543954074, 0.00028861776809208095, 0.00026405660901218653, 0.00036076133255846798, 0.00030938157578930259, 0.00033308684942312539, 0.00017283692432101816, 0.00022635421191807836, 0.00038830007542856038, 0.00019741758296731859, 0.00016930642595980316, 0.00017686744104139507, 0.00021652899158652872, 0.00021865182498004287, 0.00019071284623350948, 0.0001743875618558377, 0.00016604621487203985, 0.00029800468473695219, 0.00017120382108259946, 0.00018143345369026065, 0.00021247896074783057, 0.00030930375214666128, 0.00029862750670872629, 0.00023250213416758925, 0.00019031888223253191, 0.00010512369044590741, 0.0003834235540125519, 0.0001922457740874961, 0.00026480326778255403, 0.00037861225428059697, 0.00013215203944128007, 0.00038421654608100653, 0.00018122854817193002, 0.00018252446898259223, 0.00017270453099627048, 0.00016307363694068044, 0.00020413921447470784, 0.00026649568462744355, 0.00023913344193715602, 0.00018606144294608384, 0.00018367548182141036, 0.00014677194121759385, 0.00017755551380105317, 0.00022241006081458181, 0.00027670714189298451, 0.00037544808583334088, 0.00014929604367353022, 0.00017362480866722763, 0.0002138626150554046, 0.00030825691646896303, 0.0002802799572236836, 0.00019944614905398339, 0.0001532594469608739, 0.00018298273789696395, 0.00017688001389615238, 0.00027101783780381083, } };
const TfArray<64, int> quant2_zero = { 64, { 0,0,0,0,0,0,0,0,0,0,0,0,0,0,0,0,0,0,0,0,0,0,0,0,0,0,0,0,0,0,0,0,0,0,0,0,0,0,0,0,0,0,0,0,0,0,0,0,0,0,0,0,0,0,0,0,0,0,0,0,0,0,0,0 } };
const TfLiteAffineQuantization quant2 = { (TfLiteFloatArray*)&quant2_scale, (TfLiteIntArray*)&quant2_zero, 0 };
const ALIGN(8) int32_t tensor_data3[32] = { -93, -209, 7, -33, -11, 137, -240, -347, -94, -1, 69, -149, -180, 195, -116, 134, -79, -4, -185, -53, -100, 14, -22, -73, -63, 130, -161, 75, 46, -66, -86, -101, };
const TfArray<1, int> tensor_dimension3 = { 1, { 32 } };
const TfArray<32, float> quant3_scale = { 32, { 0.0063072848133742809, 0.002047467278316617, 0.0019096352625638247, 0.0020991249475628138, 0.0025160149671137333, 0.0017421927768737078, 0.0016311196377500892, 0.0020229362417012453, 0.003703422611579299, 0.0050885272212326527, 0.0025095692835748196, 0.0026294630952179432, 0.0012073880061507225, 0.0024075880646705627, 0.0029037443455308676, 0.0013999316142871976, 0.0018607893725857139, 0.0022624030243605375, 0.0027148800436407328, 0.0019586272537708282, 0.0016577948117628694, 0.0013103546807542443, 0.0023533552885055542, 0.0026271780952811241, 0.0016658052336424589, 0.0021614755969494581, 0.0033257636241614819, 0.0024903749581426382, 0.0020270906388759613, 0.0017481065588071942, 0.0012895142426714301, 0.0029505763668566942, } };
const TfArray<32, int> quant3_zero = { 32, { 0,0,0,0,0,0,0,0,0,0,0,0,0,0,0,0,0,0,0,0,0,0,0,0,0,0,0,0,0,0,0,0 } };
const TfLiteAffineQuantization quant3 = { (TfLiteFloatArray*)&quant3_scale, (TfLiteIntArray*)&quant3_zero, 0 };
const ALIGN(8) int32_t tensor_data4[16] = { 46, 86, 159, 14, -33, 82, -166, -3, 185, -15, 172, 11, -2, 37, 31, 189, };
const TfArray<1, int> tensor_dimension4 = { 1, { 16 } };
const TfArray<16, float> quant4_scale = { 16, { 0.0015743743861094117, 0.0018621222116053104, 0.0013088113628327847, 0.0017233246471732855, 0.0017013897886499763, 0.0010309260105714202, 0.0015929157380014658, 0.0030993153341114521, 0.0018664482049643993, 0.0018824829021468759, 0.0012875719694420695, 0.0013242323184385896, 0.0029094328638166189, 0.0012876340188086033, 0.0016078369226306677, 0.001030200975947082, } };
const TfArray<16, int> quant4_zero = { 16, { 0,0,0,0,0,0,0,0,0,0,0,0,0,0,0,0 } };
const TfLiteAffineQuantization quant4 = { (TfLiteFloatArray*)&quant4_scale, (TfLiteIntArray*)&quant4_zero, 0 };
const ALIGN(8) int32_t tensor_data5[15] = { 2721, -275, -820, -116, 80, 232, -68, -103, 222, -179, -544, -428, 106, -586, -720, };
const TfArray<1, int> tensor_dimension5 = { 1, { 15 } };
const TfArray<1, float> quant5_scale = { 1, { 0.0012373334029689431, } };
const TfArray<1, int> quant5_zero = { 1, { 0 } };
const TfLiteAffineQuantization quant5 = { (TfLiteFloatArray*)&quant5_scale, (TfLiteIntArray*)&quant5_zero, 0 };
const ALIGN(8) int32_t tensor_data6[64] = { -583, 321, -436, -1140, -1584, 1924, 357, -188, 203, -1339, -97, 514, 2260, 2341, -1056, 85, -1243, 718, -746, -1526, -1253, 443, -1597, -1675, 2355, 163, 276, -1254, 172, -889, -517, 1856, -185, -348, 483, -1273, -81, 903, 383, 193, -1602, -816, -792, 789, -869, 2286, -330, -568, -124, -141, 3323, -545, -919, -68, -498, 4918, -1056, 955, 901, 1377, 1720, -984, 137, 643, };
const TfArray<1, int> tensor_dimension6 = { 1, { 64 } };
const TfArray<64, float> quant6_scale = { 64, { 0.00046707584988325834, 0.00045310831046663225, 0.00050949002616107464, 0.0005137674743309617, 0.00021575199207291007, 0.00042255586595274508, 0.00045518254046328366, 0.00059425336075946689, 0.0004163215053267777, 0.0004232421051710844, 0.00050953478785231709, 0.00050554837798699737, 0.00038724031765013933, 0.00034417927963659167, 0.00043149752309545875, 0.00056309328647330403, 0.00040533798164688051, 0.00040105899097397923, 0.00040310766780748963, 0.00016100330685731024, 0.00042742921505123377, 0.00038334753480739892, 0.00039264204679057002, 0.00014903597184456885, 0.00043729579192586243, 0.00044558924855664372, 0.00043973920401185751, 0.00044321056338958442, 0.00042091627256013453, 0.00031409182702191174, 0.00039898225804790854, 0.00051899877144023776, 0.00059897819301113486, 0.0003892860549967736, 0.00037533970316872001, 9.2189678980503231e-05, 0.00051448383601382375, 0.00039661090704612434, 0.0004230875929351896, 0.00046467391075566411, 0.00031376627157442272, 0.00048727478133514524, 0.00041426953976042569, 0.0003959055757150054, 0.00032820957130752504, 0.00049957830924540758, 0.00052960915490984917, 0.00042139110155403614, 0.00036561678280122578, 0.00036884014843963087, 0.00042210594983771443, 0.00047468987759202719, 0.00062945194076746702, 0.00043734104838222265, 0.00053064612438902259, 0.00034456935827620327, 0.00041246769251301885, 0.00033811715547926724, 0.00045123626478016376, 0.00041824646177701652, 0.00055326451547443867, 0.0003339617105666548, 0.00043168195406906307, 0.00049839372513815761, } };
const TfArray<64, int> quant6_zero = { 64, { 0,0,0,0,0,0,0,0,0,0,0,0,0,0,0,0,0,0,0,0,0,0,0,0,0,0,0,0,0,0,0,0,0,0,0,0,0,0,0,0,0,0,0,0,0,0,0,0,0,0,0,0,0,0,0,0,0,0,0,0,0,0,0,0 } };
const TfLiteAffineQuantization quant6 = { (TfLiteFloatArray*)&quant6_scale, (TfLiteIntArray*)&quant6_zero, 0 };
const ALIGN(8) int32_t tensor_data7[64] = { 159, -19, -143, -139, 291, -72, 233, 184, 66, -456, -440, -794, -24, -172, -502, 189, 53, 592, -222, 282, 264, 347, 714, 288, 1081, -167, 1352, -852, 86, 670, 62, -260, 117, -82, -1020, 182, 70, 10, 159, 678, -545, -287, -31, -845, 139, -218, 563, 496, 293, 321, 253, 33, 157, 763, 40, 15, 1081, 262, -147, 622, -409, -93, 211, -74, };
const TfArray<1, int> tensor_dimension7 = { 1, { 64 } };
const TfArray<64, float> quant7_scale = { 64, { 0.00059713091468438506, 0.00097565859323367476, 0.00064968026708811522, 0.00063935026992112398, 0.00094995147082954645, 0.00053976953495293856, 0.0011089278850704432, 0.00098909554071724415, 0.00093220366397872567, 0.00062440946931019425, 0.00057384098181501031, 0.00064603344071656466, 0.00069602468283846974, 0.00075965514406561852, 0.00082247972022742033, 0.00070141593459993601, 0.00082051410572603345, 0.0006381851271726191, 0.00068119633942842484, 0.00082574324915185571, 0.00060558633413165808, 0.00075524952262639999, 0.00073634489672258496, 0.00074052729178220034, 0.00072680215816944838, 0.00080804526805877686, 0.00075379101326689124, 0.00045222736662253737, 0.00080898549640551209, 0.00074219016823917627, 0.00061535456916317344, 0.000658139877486974, 0.00098512298427522182, 0.00087420770432800055, 0.00041601373231969774, 0.00055586901726201177, 0.00071709469193592668, 0.00078658433631062508, 0.00069635256659239531, 0.00066049094311892986, 0.0006093994015827775, 0.00053179188398644328, 0.00095072854310274124, 0.00087977363727986813, 0.00080947601236402988, 0.00063987704925239086, 0.00095936644356697798, 0.00070043845335021615, 0.00052201264770701528, 0.00077653065090999007, 0.00051808194257318974, 0.00053188897436484694, 0.00074471172410994768, 0.00064049812499433756, 0.00054489396279677749, 0.00076593679841607809, 0.00067361746914684772, 0.00071126985130831599, 0.00073882134165614843, 0.00063486496219411492, 0.00070166750811040401, 0.00074669229798018932, 0.00090351578546687961, 0.00072550587356090546, } };
const TfArray<64, int> quant7_zero = { 64, { 0,0,0,0,0,0,0,0,0,0,0,0,0,0,0,0,0,0,0,0,0,0,0,0,0,0,0,0,0,0,0,0,0,0,0,0,0,0,0,0,0,0,0,0,0,0,0,0,0,0,0,0,0,0,0,0,0,0,0,0,0,0,0,0 } };
const TfLiteAffineQuantization quant7 = { (TfLiteFloatArray*)&quant7_scale, (TfLiteIntArray*)&quant7_zero, 0 };
const ALIGN(8) int32_t tensor_data8[32] = { -220, 77, 615, -160, 480, -21, 476, -22, 443, -268, 346, 206, 47, -21, -311, -395, 277, -363, 314, 159, 516, 131, 473, -360, 225, -61, -183, 161, -466, -436, -122, 394, };
const TfArray<1, int> tensor_dimension8 = { 1, { 32 } };
const TfArray<32, float> quant8_scale = { 32, { 0.00094933726359158754, 0.0015068532666191459, 0.0010940571082755923, 0.0010128937428817153, 0.0014173416420817375, 0.001104652532376349, 0.0016164695844054222, 0.0013946698745712638, 0.0014396451879292727, 0.0012401798740029335, 0.0010255591478198767, 0.00097917893435806036, 0.0011367747792974114, 0.00090889411512762308, 0.000767864054068923, 0.0012398350518196821, 0.0014029782032594085, 0.0010719569399952888, 0.001018824870698154, 0.0013318598503246903, 0.0012846481986343861, 0.0010773052927106619, 0.0009536246070638299, 0.0012837710091844201, 0.0014175006654113531, 0.00096685794414952397, 0.0018979944288730621, 0.0010070711141452193, 0.0010263307485729456, 0.0011055275099352002, 0.00091757287736982107, 0.0011828806018456817, } };
const TfArray<32, int> quant8_zero = { 32, { 0,0,0,0,0,0,0,0,0,0,0,0,0,0,0,0,0,0,0,0,0,0,0,0,0,0,0,0,0,0,0,0 } };
const TfLiteAffineQuantization quant8 = { (TfLiteFloatArray*)&quant8_scale, (TfLiteIntArray*)&quant8_zero, 0 };
const ALIGN(8) int32_t tensor_data9[32] = { 162, 117, 159, 155, -6, 134, 93, -99, 153, -80, 160, -2, -68, 16, 104, 217, 112, -97, -17, 187, 217, -111, -11, 52, 44, 15, -82, -203, 233, -34, 67, 0, };
const TfArray<1, int> tensor_dimension9 = { 1, { 32 } };
const TfArray<32, float> quant9_scale = { 32, { 0.0030617597512900829, 0.0025102002546191216, 0.00150971335824579, 0.0025699727702885866, 0.0026878127828240395, 0.0019658931996673346, 0.0021183639764785767, 0.0029882125090807676, 0.0020141033455729485, 0.0018075961852446198, 0.0028375850524753332, 0.0031378567218780518, 0.0026372387073934078, 0.0018039699643850327, 0.0021640900522470474, 0.0026521885301917791, 0.0022404505871236324, 0.0020547588355839252, 0.001866641454398632, 0.0018349759047850966, 0.0019517592154443264, 0.0016794499242678285, 0.0024851965717971325, 0.002354681259021163, 0.0025200748350471258, 0.001783168176189065, 0.0023062273394316435, 0.0014130889903753996, 0.0025836029089987278, 0.0022375767584890127, 0.0020753771532326937, 0.0025248583406209946, } };
const TfArray<32, int> quant9_zero = { 32, { 0,0,0,0,0,0,0,0,0,0,0,0,0,0,0,0,0,0,0,0,0,0,0,0,0,0,0,0,0,0,0,0 } };
const TfLiteAffineQuantization quant9 = { (TfLiteFloatArray*)&quant9_scale, (TfLiteIntArray*)&quant9_zero, 0 };
const ALIGN(8) int8_t tensor_data10[15*112] = { 
  -9, -3, -13, 3, -53, -48, 4, 28, -34, 18, -10, -57, -18, -23, -61, -15, -4, -9, -58, -9, -40, -36, -26, 26, -60, 12, -29, -75, 6, -40, -64, -64, -10, -39, -82, -13, -52, -45, -3, 24, -56, 16, -80, -59, 2, -38, -78, -97, -22, -51, -77, -15, -63, -46, -5, 25, -61, 6, -48, -50, -1, -23, -65, -96, -33, -26, -63, -10, -41, -65, -11, 20, -42, 2, -40, -39, -3, -31, -63, -53, -20, -38, -59, -3, -28, -11, 39, 30, -61, 22, -46, -32, 1, -19, -52, -63, -59, -64, -9, -17, -31, -31, -11, 30, -21, 43, -72, -52, 3, -54, -40, -81, 
  14, 14, 17, 17, -20, -3, -17, -1, -1, 11, -12, -7, 12, -7, 0, -9, 10, 14, 11, 16, 10, 12, -4, 6, 1, -6, 2, -3, 6, 8, 10, -3, 12, 15, 14, 19, 11, 17, 7, 7, 3, 3, -4, -3, -3, 13, 13, 0, 5, 3, 16, 16, 6, 10, -29, 17, 3, 3, 0, -2, 3, 19, 8, -1, -2, 15, 13, 12, 18, 8, -25, 3, -4, 9, -12, 4, 2, 19, -3, 1, 9, 6, 23, 13, 18, 10, -20, 9, -14, 5, 0, 4, -6, 15, 2, 0, 0, -2, 7, 14, 20, 3, 7, 12, -11, 6, -12, -6, -9, 20, -2, 1, 
  3, -2, -12, -24, -30, -29, 2, -1, 12, -20, -22, -24, 17, 11, 14, -7, 19, -1, -26, -11, -19, -20, -36, 21, 26, -10, -19, -24, 24, 23, 18, 2, 22, -9, -24, -9, -9, -10, -6, 16, 28, -10, -23, -27, 22, 28, 18, -8, 20, -22, -11, -12, -16, -24, -66, 27, 28, -10, -14, 0, 26, 28, 15, -35, 16, 9, -4, -20, 6, -15, 6, 17, 20, -11, -25, -26, 19, 22, 1, -31, 20, 4, 12, 3, 7, -5, -98, 18, 15, -2, -21, -27, 13, 18, 8, -27, 17, -5, 5, -19, 14, 1, -90, 4, 7, 10, -16, -36, 14, 22, 17, -35, 
  -28, -25, -18, 17, -3, 10, -35, -7, 12, -26, -9, 9, 15, 14, 15, 13, -22, -27, 3, 20, -9, 21, -72, 3, 11, -46, -10, 13, 6, 14, 18, 13, -37, -39, -1, 19, -12, 16, -16, -7, 19, -36, -16, 7, -3, 11, 25, 12, -45, -37, -8, 19, -22, 12, -35, 0, 22, -36, 3, 4, 2, 20, 20, 15, -47, -30, -2, 18, -11, 14, -72, -1, 14, -36, -1, 7, 3, 12, 11, 9, -32, -22, -14, 29, -6, 14, -21, -6, 19, -9, 9, -2, 0, 9, 11, 9, -30, -28, -11, 22, -2, 12, -18, -17, 11, -15, 0, -3, -3, 6, 12, 5, 
  22, 10, 23, -3, -106, -69, -7, -8, 1, -6, 19, -36, -55, 3, -125, -35, 18, 19, 22, -3, -42, -42, -69, -8, 13, -26, 22, -42, -53, 21, -50, -44, 21, 17, 25, 2, -18, -18, -23, -4, 24, -43, 9, -18, -33, 22, -80, -43, 18, 4, 19, 5, -13, -12, -127, 2, 22, -26, 11, -44, -15, 24, -41, -33, 18, 13, 20, -1, 4, -7, -43, -10, 14, -16, 0, -28, -23, 19, -24, -24, 18, 15, 22, 5, 6, -4, -110, 3, 3, -13, 13, -17, -19, 15, 4, -12, 10, -14, 25, -21, 13, -5, -63, -22, -9, -19, 12, 3, -16, 19, 19, 9, 
  10, -19, 16, 15, -42, 8, -20, -22, 10, 1, -31, 14, -7, -1, -17, 3, 13, -15, 28, 10, -11, 15, -13, -14, 10, -47, -33, 17, 3, -10, -5, 1, 15, -24, 24, 11, -9, 17, -51, -36, 14, -16, -30, 18, -4, -8, 4, 12, 12, -34, 22, 9, -13, 11, -21, -26, 15, -28, -18, 15, 4, -2, 6, 11, 13, -21, 22, 6, -5, 6, -33, -28, 10, -23, -33, 19, -4, -11, -2, 9, 14, -4, 29, 5, -8, 6, -18, -24, 9, -21, -24, 15, -27, -5, -2, 9, 9, -30, 27, -28, -21, 2, 14, -12, 13, -49, -25, 23, -25, -8, -1, 10, 
  28, 4, -5, -9, 2, -36, -46, -35, -13, -40, -14, 18, 21, 1, 20, -25, 23, 15, -6, -7, 18, -35, -65, -18, -10, 0, 3, 8, 27, -5, 23, -18, 24, 2, -21, 3, 13, -27, -50, -22, -4, 21, -4, 4, 21, -13, 22, -20, 22, -12, -25, -3, 6, -34, -30, -12, -12, 18, 1, -4, 24, -35, 20, -17, 19, 2, -47, -12, 18, -32, -39, -11, -16, 18, -18, -4, 22, -34, 6, -18, 14, -7, -32, 10, 16, -35, -20, -6, -9, 8, 4, -17, 15, -39, 6, -10, 11, -44, -23, -22, 27, -53, -20, 10, -37, 23, 9, 7, 19, -26, 14, -50, 
  -28, -27, 13, -15, -37, -12, -55, -35, -29, -5, 8, 12, 18, 17, 11, 17, -20, -28, 26, -10, -24, 6, -12, -31, -19, -30, 6, 18, 20, 16, 17, 17, -3, -20, 18, -7, -22, 6, -5, -32, -10, -23, -6, 20, 12, 13, 22, 17, -13, -32, 20, -3, -18, 2, 5, -15, -7, -14, 3, 17, 18, 15, 19, 17, -3, -20, 17, -1, -11, -4, -31, -16, -5, -7, -14, 21, 11, 11, 5, 14, 5, -10, 26, 1, -29, 2, -4, -26, -5, -9, -6, 21, -1, 9, 5, 18, -3, -19, 15, -21, -46, 4, -25, -21, -6, -29, -13, 19, -10, 3, 3, 7, 
  -10, 21, 24, -15, -69, -49, -24, -2, 14, 12, 24, -49, -26, -18, -28, 17, 0, 23, 28, -10, -32, -42, 5, 10, 12, 8, 20, -20, -16, -11, -7, 19, -17, 20, 27, -16, -30, -37, 6, -10, 8, 16, 11, -5, -21, -34, -15, 19, -33, 4, 18, -25, -36, -41, -12, 3, 2, 10, 18, 0, -46, -26, -7, 14, -40, 16, 19, -34, -16, -29, 1, -14, -9, 13, 6, 2, -30, -12, -25, 10, -20, 13, 24, -33, -21, -50, 10, -27, -3, 14, 5, 4, -13, -31, -22, 17, -21, 9, -2, -63, -34, -37, -37, -4, 1, 23, 6, -9, -21, -45, -17, -7, 
  -12, 18, 20, -30, -48, -40, 7, 10, 6, -1, 26, -87, -23, -22, -56, 12, -8, 20, 3, -30, -16, 7, -18, 21, 22, -12, 19, -77, -6, 8, -39, 19, -14, 22, 10, -30, -19, 12, -76, 13, 19, -14, 9, -99, -19, 15, -36, 16, -11, 4, 1, -45, -14, 7, -50, 14, 18, -17, 18, -69, -43, 19, -58, 12, -25, 16, 0, -28, -3, 5, -31, 10, 20, -15, 3, -49, -54, 16, -46, 10, -15, 12, 4, -30, 6, 12, -53, 11, 16, -12, 4, -35, -34, 16, -25, 12, -14, -4, 17, -46, 5, 12, -31, -5, 0, -7, 7, -35, -37, 22, -26, 0, 
  22, 15, -13, -12, 1, -23, -56, 22, -15, -31, -30, -1, 15, -20, -13, -19, 22, 21, -4, -31, 10, 8, -63, 13, -16, -3, -47, 3, 12, -4, -6, -46, 21, 18, -10, -24, 8, 17, -45, 13, -15, 7, -51, 3, 6, -15, -4, -42, 22, 7, -22, -23, 6, 14, -26, 23, -22, 8, -28, -3, 14, -9, -4, -57, 15, 19, -13, -16, 19, 6, -9, 10, -54, 7, -33, -10, 7, -11, -13, -47, 20, 14, -10, 5, 14, 10, -39, 15, -35, 6, -25, -30, 10, -3, -3, -25, 5, -2, -6, 6, 17, 8, -29, 13, -8, 24, -10, -37, 8, 12, 5, -26, 
  -29, 17, 9, 30, -43, 0, -17, 30, -20, 24, -14, -29, -44, -21, 10, -21, -31, 12, 4, 22, -35, -6, -14, 31, -14, 7, -17, 24, -29, -21, 22, -23, -23, 10, 4, 27, -54, -3, -15, 27, 0, 3, -34, 22, -50, -23, 28, 8, -15, 3, 12, 19, -71, -20, -56, 23, 5, 8, -2, 18, -57, -34, 25, 15, -18, 8, 0, 15, -58, -36, -24, 15, 1, 6, -24, 19, -31, -41, 9, 4, -9, 5, 3, 27, -54, -25, 18, 16, -4, 12, -20, 19, -37, -42, 10, 9, -13, 8, -7, 24, -25, -44, -26, -27, 11, 11, 5, 6, -29, -11, 6, 1, 
  -18, 18, 0, -14, -34, -2, 0, 0, 18, 26, -14, -50, 9, -27, 14, 20, -11, 23, 8, -22, -11, 2, -38, -8, 22, 8, -11, -27, -5, -38, 12, 20, -3, 21, 1, -17, -12, -8, -29, -13, 20, 16, -21, -6, 0, -37, 14, 19, -10, 8, 0, -31, -28, -9, -20, -7, 20, 9, -13, -11, -5, -36, 10, 14, -11, 15, -2, -50, -63, -22, -11, -8, 16, 10, -34, -15, -10, -42, 1, 13, 10, 14, 11, -40, -55, -22, 18, -14, 14, 16, -14, -4, -16, -19, 6, 17, -1, 9, -4, -30, -11, -29, -1, -5, 21, 16, -34, -17, 6, -23, 12, -1, 
  2, -36, -5, 13, -19, -51, -1, 9, -22, -40, 13, -9, 19, 21, -28, 9, 11, -26, -14, 18, -1, -21, 7, 16, -14, -42, 15, 7, 19, 24, -36, -3, 12, -30, 1, 17, 6, -23, 38, 17, -18, -35, 3, 8, 16, 20, -39, -7, 5, -41, 6, 15, -2, -25, 13, 24, -22, -55, 8, 12, 23, 23, -44, 1, 12, -26, 13, 14, 7, -30, 3, 14, -41, -45, -9, 15, 11, 18, -30, 2, 16, -26, 25, 20, 14, -1, 35, 24, -45, -21, 5, 14, 12, 18, -15, 1, 5, -13, 16, 14, 10, -7, -7, 13, -37, -36, 3, 14, 3, 19, -24, 2, 
  2, -45, -2, 14, 10, -9, -3, -12, -15, -23, 23, 23, 25, -6, 11, -7, -6, -46, 4, 13, 14, -7, -25, -25, -20, 1, 22, 24, 28, -18, 15, -22, -5, -48, -8, 23, 11, 6, 22, -19, -22, 14, 7, 20, 20, -8, 15, -18, -9, -56, -15, 19, 10, -15, -77, -25, -9, 10, 19, 14, 23, -25, 12, -40, -11, -83, -16, 22, 17, -4, -95, -43, -38, 11, 2, 18, 15, -22, 4, -71, 1, -43, -28, 29, 19, 8, 5, -36, -38, 11, 15, 8, 16, -7, 3, -51, -31, -55, -29, 26, 9, -36, 11, -21, -42, 22, 27, 22, 11, -51, 7, -47, 
};
const TfArray<2, int> tensor_dimension10 = { 2, { 15,112 } };
const TfArray<1, float> quant10_scale = { 1, { 0.0098712528124451637, } };
const TfArray<1, int> quant10_zero = { 1, { 0 } };
const TfLiteAffineQuantization quant10 = { (TfLiteFloatArray*)&quant10_scale, (TfLiteIntArray*)&quant10_zero, 0 };
const ALIGN(8) int8_t tensor_data11[64*1*3*13] = { 
  /* [0][0][][] */ 5,38,-60,11,6,22,40,-37,-57,127,-20,-40,17, -12,-15,-42,35,-34,23,-16,-33,79,12,-80,4,59, -16,-49,16,-8,-9,38,-45,12,51,-63,-25,77,-21, 
  /* [1][0][][] */ 69,-52,-93,51,-1,7,63,-88,21,-57,-65,80,16, 97,-19,-8,8,-18,42,-2,-12,55,-35,-6,-39,-6, 76,-97,127,0,2,-69,-51,-67,2,58,-13,-12,-26, 
  /* [2][0][][] */ -22,97,19,16,-19,48,23,-21,23,-6,18,-1,22, -76,127,55,19,40,69,29,-13,20,-25,40,-44,6, -125,68,17,70,30,64,33,51,-35,33,-4,-25,-9, 
  /* [3][0][][] */ -57,-64,50,-10,20,49,-4,53,-48,-41,64,-10,-33, -64,-95,88,27,20,2,-76,69,-12,87,-31,-15,0, -30,40,127,58,-39,18,-48,52,-41,97,-40,-14,54, 
  /* [4][0][][] */ -31,59,-57,-39,113,-16,-20,50,44,-36,-103,127,-10, 15,-9,-110,7,23,-88,49,18,-11,-40,33,31,-55, -31,-66,104,64,-85,-20,12,-5,-38,-9,92,-28,-16, 
  /* [5][0][][] */ 43,42,-7,76,70,-78,10,56,-127,33,48,-67,58, 13,20,-82,63,11,-94,84,63,-116,29,59,-41,2, 3,12,-67,9,9,3,22,-4,-78,26,-37,-8,19, 
  /* [6][0][][] */ -72,5,40,-6,25,-58,27,1,6,-1,30,4,-44, -127,-82,-35,-6,-7,-2,26,-2,-5,-14,-15,-3,36, -96,-75,-56,-44,2,-5,-51,-35,14,11,21,19,-37, 
  /* [7][0][][] */ -49,-29,-127,43,103,-37,6,47,-27,-13,19,-45,9, -74,-22,18,48,-39,-8,-5,-42,15,36,-15,2,11, 11,48,53,7,-76,25,-36,-58,4,-10,8,25,-22, 
  /* [8][0][][] */ 127,-88,-22,-66,-75,108,1,25,-7,71,-76,-21,64, 93,-35,77,14,-102,-69,-76,64,-1,21,-66,30,-7, 6,58,69,0,-59,-57,-70,106,-8,-60,-16,-10,-2, 
  /* [9][0][][] */ -42,38,-25,23,-8,-23,-41,18,-24,43,1,-20,-21, -25,28,41,28,5,-40,1,-7,-5,5,34,30,-65, -19,20,45,-13,18,-10,29,-127,-25,28,53,28,-3, 
  /* [10][0][][] */ -104,-37,-127,6,-59,2,-2,11,-25,-23,-7,6,-17, -42,-28,-107,-1,65,25,-16,-9,8,-22,28,33,5, 14,-33,-7,10,98,51,-17,-35,9,-9,-17,7,11, 
  /* [11][0][][] */ 119,-21,-8,2,-7,14,16,15,-49,-32,1,6,17, -54,31,10,46,21,-19,-36,20,51,2,14,-12,-20, -127,-51,-19,3,13,27,1,-24,17,-36,-23,6,20, 
  /* [12][0][][] */ -37,-60,-63,127,-16,-36,59,-41,-49,-14,-17,46,33, -38,-5,43,37,-43,36,-13,-23,-4,-42,8,25,-2, -34,9,-5,-72,-38,27,-33,-34,8,46,41,-27,-51, 
  /* [13][0][][] */ 23,-62,17,-4,7,-22,28,-2,36,1,-38,3,8, 14,-127,-7,64,38,6,-21,14,-15,25,14,-2,3, -32,91,7,-11,29,-15,33,-17,25,-18,9,6,-4, 
  /* [14][0][][] */ -114,42,45,-82,5,43,-40,-63,4,-44,36,-49,47, -71,47,64,-108,22,43,-28,-32,0,-20,26,-28,60, -69,48,56,-127,-15,33,-54,-27,-23,-54,-46,75,49, 
  /* [15][0][][] */ -39,55,-2,76,17,-5,7,-62,-3,127,-107,-87,92, -26,-15,-17,11,-39,-26,-30,48,64,-63,-56,52,-22, 51,-112,-54,4,20,-8,42,66,-40,-99,61,68,-69, 
  /* [16][0][][] */ -127,32,-49,-39,27,6,-6,43,-3,-20,22,-22,2, -79,-81,11,-61,12,8,-31,-8,-11,-9,-20,-17,-7, -13,-76,6,-16,-18,-16,38,4,16,-56,14,-16,54, 
  /* [17][0][][] */ -68,-3,-67,-116,-6,28,79,30,39,-27,-31,25,60, 35,25,-5,-70,53,60,8,-9,19,27,-103,-12,52, -127,46,78,-32,18,79,20,-29,-10,107,32,-41,-48, 
  /* [18][0][][] */ -24,28,104,63,32,24,-24,-127,-67,-43,-29,72,7, 25,-79,73,-14,-69,-79,-45,-48,90,107,41,-59,-23, -23,-40,-64,-63,-48,-82,-5,79,65,-20,2,-60,-43, 
  /* [19][0][][] */ -106,54,104,-45,-6,-6,80,-12,-55,7,76,7,-35, -42,26,-49,19,70,3,-25,-32,-26,54,36,-54,-7, -10,-100,-127,49,53,17,-115,-54,119,74,-126,-85,97, 
  /* [20][0][][] */ -127,56,-33,-15,-51,-10,-18,-102,2,52,-37,-36,-15, -44,-13,0,85,19,-5,-69,-17,28,47,38,-56,57, 2,31,83,52,-11,-68,-84,83,11,-51,-16,0,-24, 
  /* [21][0][][] */ 35,-8,1,31,34,-48,-14,72,-16,-33,18,12,-13, 14,16,-28,-20,77,-46,-30,65,44,-127,11,51,-25, 1,24,-68,-2,43,-31,-27,72,-13,-58,-5,30,6, 
  /* [22][0][][] */ 29,-43,-64,26,38,43,50,-57,-39,-9,-35,15,-16, 127,-93,-15,92,-9,11,28,-16,15,-2,10,-20,6, 107,-91,69,-6,-13,-32,10,30,-11,3,-12,-16,23, 
  /* [23][0][][] */ 61,-62,-26,7,16,-71,-37,-7,91,12,-5,-30,16, 51,-61,106,55,-93,-52,-127,-83,24,10,95,23,-37, -20,58,67,-8,18,24,-13,-9,2,71,-33,-59,-48, 
  /* [24][0][][] */ 8,43,-37,61,81,-88,-58,127,2,-73,62,2,-7, -35,45,-1,73,85,-7,-84,-4,60,-3,-72,2,28, 8,106,-103,-47,35,13,-68,-29,23,53,-27,-17,4, 
  /* [25][0][][] */ -61,7,50,25,53,-18,23,31,3,18,-26,-14,-30, -126,-102,-48,15,0,5,-34,-27,0,-18,29,-26,32, -127,-67,-63,-97,25,15,-22,-24,6,-12,23,24,-24, 
  /* [26][0][][] */ 48,39,127,-120,30,-26,-53,-53,35,-5,88,-41,7, 32,88,80,-58,-12,-11,-57,-2,47,26,42,-33,-39, -81,30,-81,5,-29,-1,34,44,5,-3,0,-17,-43, 
  /* [27][0][][] */ 127,-52,1,-10,122,3,-80,4,6,-34,24,-10,6, 118,15,-2,-5,75,-39,-53,27,1,-26,14,55,-22, -25,-78,75,40,-18,-37,-11,-1,-5,-1,18,9,-21, 
  /* [28][0][][] */ 65,16,72,-51,-127,-73,12,115,8,42,38,-76,-29, 18,-26,-8,-35,-57,2,18,-29,-10,-55,17,-34,-5, -91,-91,-59,77,7,50,-23,-76,5,-53,57,77,-42, 
  /* [29][0][][] */ 1,-15,58,39,-18,-21,-41,-30,15,-28,29,-16,-26, -2,-45,44,-8,-44,-29,-14,90,4,13,-4,-28,-29, 8,-127,-26,6,-8,-14,-9,61,25,-29,-9,27,-26, 
  /* [30][0][][] */ -33,-23,-127,39,18,37,23,-2,-38,11,7,-11,-2, -61,3,-89,14,29,47,1,-30,-19,1,13,17,-10, 17,-41,-22,0,30,31,63,12,-29,1,-9,-22,7, 
  /* [31][0][][] */ 9,19,-34,28,98,-103,16,21,-5,-63,127,1,-17, 26,-16,28,2,80,-68,25,-17,3,0,2,10,6, 36,-39,-41,-4,19,-18,35,-105,31,13,-38,-13,3, 
  /* [32][0][][] */ 107,-79,-15,16,18,-16,-24,77,-28,-86,17,28,-35, 70,9,25,22,-37,-53,-60,29,127,-109,-78,60,-14, -43,-38,41,-39,16,66,-89,-11,72,44,-40,13,38, 
  /* [33][0][][] */ 43,-80,107,-121,86,-31,-93,66,-1,-22,-38,-47,22, 118,102,-82,-75,-79,-9,91,119,-49,-12,-54,30,89, 127,-26,-4,-14,-86,126,53,-110,-40,-55,-5,-37,14, 
  /* [34][0][][] */ -106,16,-22,-6,-9,-28,-8,-12,-18,-9,17,0,-14, -127,-54,-40,-5,-26,44,-35,24,-15,-18,0,17,-10, -55,-57,-70,18,-37,22,-24,-39,15,12,8,12,-20, 
  /* [35][0][][] */ 87,-86,28,-68,-21,11,0,69,-26,-30,-11,19,9, -4,-29,5,-9,-98,33,78,5,29,-32,3,19,3, -12,127,21,6,-110,-10,-9,-17,100,15,-10,12,-35, 
  /* [36][0][][] */ -104,28,37,112,-43,67,-48,-3,17,-34,28,-7,17, -46,-26,67,61,23,59,-4,11,38,-1,12,-50,-4, -79,-127,-38,95,41,1,-9,13,-28,-62,0,-31,-30, 
  /* [37][0][][] */ -16,67,-1,12,23,3,-6,-6,3,-11,1,4,2, -127,-56,5,-33,16,-3,17,4,-7,13,-49,-14,6, -77,-122,8,-22,3,-36,10,-38,28,-19,27,-8,22, 
  /* [38][0][][] */ 79,14,76,-36,-9,-51,10,107,79,24,12,-107,-1, 127,-37,-14,-12,90,53,53,-24,-66,-53,-53,39,47, 119,-95,-70,20,117,94,-20,-14,-23,18,17,83,28, 
  /* [39][0][][] */ -43,-5,25,37,37,7,-16,28,-4,6,0,41,-22, -127,13,0,68,-8,29,8,29,24,-16,12,-11,26, 28,-53,46,16,58,78,28,35,13,16,-10,13,-4, 
  /* [40][0][][] */ -86,72,108,-27,-50,-65,-58,25,-72,-16,64,127,21, -94,71,37,-29,-29,-12,-108,-1,53,1,4,67,1, -117,2,-6,-21,-20,-10,-60,-14,68,-22,-6,46,-18, 
  /* [41][0][][] */ -20,72,111,58,14,-6,-127,103,45,-63,-30,8,-45, -25,24,64,-25,-21,0,-82,37,97,-52,-20,-7,13, -34,-6,76,0,103,51,-71,-24,25,-7,0,-29,31, 
  /* [42][0][][] */ -38,12,65,37,-110,-56,16,-18,-74,-88,-6,80,-30, -126,-52,89,33,26,-11,-73,-20,-83,-53,-46,58,-8, -82,1,127,-32,67,-43,-41,-64,-83,-1,12,-54,25, 
  /* [43][0][][] */ -127,126,96,64,-37,-36,-82,4,-14,-72,42,13,2, -53,65,71,71,-37,-15,-37,-89,-86,-72,-16,15,28, 0,-83,33,47,36,51,58,-76,-62,63,-68,-23,-11, 
  /* [44][0][][] */ -63,28,-79,-85,46,26,-86,-45,30,-27,-47,-40,49, -33,96,-1,-53,27,-28,-10,-40,-9,56,-27,12,8, -118,33,127,-4,90,-11,-32,-39,-25,-12,-13,34,-29, 
  /* [45][0][][] */ -21,-3,78,-19,-48,93,-58,-61,-8,8,-7,60,-30, 27,-8,-25,56,-28,14,-32,-73,22,30,-26,4,1, -59,-62,-127,78,6,-75,56,-16,-9,29,-5,-54,66, 
  /* [46][0][][] */ -47,34,-43,23,-53,42,15,0,35,-1,-6,22,35, -41,-64,47,7,19,-4,-5,-9,45,14,28,-54,-56, 71,-65,127,71,50,-20,-34,8,-84,11,-40,30,27, 
  /* [47][0][][] */ -75,-11,71,41,1,12,-63,-57,33,31,-57,40,7, -9,-51,-36,80,-43,-93,-7,12,61,52,-37,-20,-9, -50,127,-85,29,-73,-65,108,92,-54,-18,19,7,-17, 
  /* [48][0][][] */ -10,-19,-56,-69,18,5,-44,4,87,7,-41,-11,20, -100,31,-103,-23,70,69,-70,-84,127,31,-55,-17,29, -38,3,-18,-30,91,-47,-54,-31,102,-1,15,-6,21, 
  /* [49][0][][] */ 8,21,12,-28,38,-37,92,29,-78,-1,-70,53,-73, -62,43,19,-53,17,45,-40,-53,-2,-32,-127,33,-86, 33,67,25,-98,-29,94,-62,-116,50,43,-99,6,-99, 
  /* [50][0][][] */ -120,90,17,-127,-17,7,-47,1,56,38,21,-48,-55, -93,75,62,-107,-45,12,52,10,27,21,-35,-67,-2, -28,-56,-86,-73,6,115,27,21,0,8,-39,19,16, 
  /* [51][0][][] */ 7,54,0,-29,74,46,-26,-80,42,64,-19,-44,-26, -66,40,-40,-10,43,-41,-72,9,71,9,-42,18,17, -65,-126,-110,83,49,-127,53,70,4,4,-16,77,-21, 
  /* [52][0][][] */ -45,-17,1,23,-29,-127,-7,39,5,44,8,2,5, -33,43,31,47,-57,-57,-2,-2,49,38,3,-11,-14, -37,10,24,66,-21,69,0,-19,-20,-46,-21,37,35, 
  /* [53][0][][] */ -67,-36,22,4,-42,-7,3,-3,0,3,-4,7,-7, -79,-127,-10,-9,7,-36,-38,-7,16,-1,16,-11,-9, -66,-52,-53,-17,29,45,18,-15,2,4,-17,15,12, 
  /* [54][0][][] */ 9,-8,38,-88,127,-36,-56,28,-76,48,57,-35,14, -12,125,6,-66,17,-89,-15,21,-11,83,22,-11,21, -44,87,5,-49,-80,-29,0,-3,0,56,-4,49,19, 
  /* [55][0][][] */ -40,25,-11,-87,16,46,-9,0,27,38,-4,-14,-13, -28,-44,-92,-35,15,41,38,-42,-53,15,36,46,-51, 127,-40,-87,-18,44,30,-12,-38,-36,62,70,4,-60, 
  /* [56][0][][] */ 99,-77,68,-12,-85,-33,12,19,30,94,-28,-53,32, -1,-72,88,19,-127,37,-1,-62,-5,-13,-24,13,24, -87,-29,-90,83,-51,68,70,-37,-45,0,7,-34,44, 
  /* [57][0][][] */ -127,-3,-116,62,97,-48,0,-4,6,20,-54,4,30, -22,28,-8,53,12,-34,-4,-30,-2,-26,20,-9,-3, -42,16,59,-1,4,-32,-10,-31,23,3,13,-6,-38, 
  /* [58][0][][] */ 25,-99,40,-48,2,-12,29,-27,9,36,3,-18,16, -68,-127,50,-54,9,-28,15,-6,8,-25,5,0,41, -114,48,44,69,-3,-12,-33,-7,-31,33,-43,26,-18, 
  /* [59][0][][] */ -21,-77,-7,80,-44,3,85,-58,-127,37,42,-16,-20, -6,-19,57,22,61,-23,-50,30,-23,9,59,50,-36, 57,92,-92,-9,89,-83,-38,76,27,-73,-40,62,-26, 
  /* [60][0][][] */ 32,-31,-14,7,89,-73,-56,70,62,-96,36,-85,5, -1,83,-34,64,-35,-73,72,61,-71,-3,66,-90,15, -38,-38,-47,98,-95,-9,127,29,-88,66,26,-98,20, 
  /* [61][0][][] */ -29,-67,60,69,-99,-53,-17,-95,-6,-31,36,78,-5, -14,88,86,-10,-127,-52,-2,-38,-1,72,82,40,-40, -15,-35,-25,-50,7,16,27,-18,35,36,23,7,8, 
  /* [62][0][][] */ -64,108,-1,59,39,-69,-39,64,-39,16,44,15,-4, -124,97,24,56,127,-63,-45,88,-30,-26,-2,10,-37, -109,120,12,91,42,34,27,27,-5,0,-63,24,8, 
  /* [63][0][][] */ 14,20,65,-18,4,18,-12,8,43,-55,43,74,-39, -22,-27,21,58,9,70,-29,-5,12,30,-19,6,-19, -17,-127,-81,87,-48,22,94,-30,-9,44,-22,63,4, 
};
const TfArray<4, int> tensor_dimension11 = { 4, { 64,1,3,13 } };
const TfArray<64, float> quant11_scale = { 64, { 0.0064145480282604694, 0.0036492508370429277, 0.0042162542231380939, 0.0042953542433679104, 0.0049608079716563225, 0.0035055086482316256, 0.0073363538831472397, 0.0060448721051216125, 0.0028971720021218061, 0.0060683698393404484, 0.0055519561283290386, 0.0075852335430681705, 0.0065049417316913605, 0.00700336042791605, 0.0036340048536658287, 0.0047592394985258579, 0.0081642530858516693, 0.0041508288122713566, 0.0035597740206867456, 0.0037187489215284586, 0.0045526581816375256, 0.0045972918160259724, 0.0040098573081195354, 0.0036666078958660364, 0.0034912261180579662, 0.0062657357193529606, 0.0035996679216623306, 0.003814752446487546, 0.0044675036333501339, 0.0065033058635890484, 0.0062788310460746288, 0.0048885033465921879, 0.0040015741251409054, 0.0022102915681898594, 0.0080617209896445274, 0.0040420880541205406, 0.0055676549673080444, 0.0079605607315897942, 0.0027785797137767076, 0.0080783944576978683, 0.0038104439154267311, 0.0038376916199922562, 0.003631221130490303, 0.0034287257585674524, 0.0042921551503241062, 0.0056032394059002399, 0.0050279307179152966, 0.0039120586588978767, 0.0038618925027549267, 0.0030859722755849361, 0.0037332163192331791, 0.0046763112768530846, 0.005817941389977932, 0.0078940317034721375, 0.0031390429940074682, 0.0036505705211311579, 0.0044965958222746849, 0.0064812954515218735, 0.0058930623345077038, 0.0041934805922210217, 0.0032223761081695557, 0.0038473268505185843, 0.0037190134171396494, 0.0056983204558491707, } };
const TfArray<64, int> quant11_zero = { 64, { 0,0,0,0,0,0,0,0,0,0,0,0,0,0,0,0,0,0,0,0,0,0,0,0,0,0,0,0,0,0,0,0,0,0,0,0,0,0,0,0,0,0,0,0,0,0,0,0,0,0,0,0,0,0,0,0,0,0,0,0,0,0,0,0 } };
const TfLiteAffineQuantization quant11 = { (TfLiteFloatArray*)&quant11_scale, (TfLiteIntArray*)&quant11_zero, 0 };
const ALIGN(8) int8_t tensor_data12[64*1*3*64] = { 
  /* [0][0][][] */ -9,-27,14,-73,-10,-39,-54,-50,-40,-55,-2,14,-21,-15,34,0,-25,-34,-30,-42,-39,-11,21,-84,-2,-36,-35,-15,-51,23,-3,-68,-56,-56,-11,-16,22,-51,-27,1,1,-21,-37,-31,-16,-84,-35,-17,-35,-1,-52,-50,-47,19,-34,-17,-5,-46,-34,-9,1,-44,-19,1, -52,-40,12,14,38,-11,9,-24,-2,-63,-13,5,-60,16,4,-71,-33,4,-8,68,-19,-85,-22,-27,-22,3,-20,-71,-29,-9,-10,-28,57,-42,-30,-8,-1,-3,-27,12,16,36,26,-24,-44,5,-20,-38,-53,-27,-1,-61,-33,-3,-68,-27,-37,-9,16,1,18,12,-30,34, -11,3,-26,-17,-26,-44,-1,-2,14,-56,-15,3,-47,-49,-38,34,15,-14,-21,65,36,-8,-48,-41,-1,-35,-31,-20,11,-23,-24,-11,25,-47,2,-24,-3,0,-58,-127,-13,-80,-41,17,-41,-17,-31,-1,44,26,-62,8,-42,-13,-2,-21,-45,-22,-7,-7,-4,-28,1,-12, 
  /* [1][0][][] */ -24,-6,8,9,-53,-11,-14,15,-41,-3,42,0,3,20,23,-76,-12,19,9,18,16,-40,-6,-4,-16,5,-16,-26,-22,-39,8,-29,-39,-95,-11,-54,32,-25,2,3,-21,14,19,11,20,-58,19,-2,-90,24,-51,-65,-5,-21,-39,-53,-6,36,13,6,15,-19,28,-37, -13,18,-3,6,-32,-52,-77,4,-25,-10,-11,17,0,18,9,-70,-57,9,0,-22,12,-34,-5,-13,-20,-87,-3,-8,-32,2,-43,-76,-35,-68,-65,-60,24,-26,-62,13,-27,0,9,-15,14,9,20,-2,-84,33,1,-48,-29,-115,-15,-103,-18,21,14,-7,20,-36,7,11, 5,5,-14,12,-110,-21,-127,30,13,-16,22,-5,12,-16,-4,0,-91,-4,9,-30,-4,9,5,-8,4,-90,-38,-9,-26,28,-5,-51,-28,-39,-79,-39,-53,-75,0,29,-4,3,-11,4,-8,-15,17,11,-47,36,23,16,-21,-90,-35,-81,-2,15,-8,27,15,-30,-8,42, 
  /* [2][0][][] */ 10,-27,-21,-29,-44,35,-80,7,-26,-12,21,-79,-48,8,-64,-58,22,-7,-6,29,-18,-20,21,-40,-11,-32,3,47,1,-43,28,43,-94,11,-52,-37,-15,-1,38,-24,-26,-28,-1,3,-94,-36,-127,-25,-42,-18,-47,-39,-29,11,-16,25,-7,-20,-25,-12,25,-33,-32,8, 47,2,4,-36,-32,9,-69,1,-27,-37,-22,-24,6,-4,-27,-60,5,-10,-42,26,-64,-61,11,-25,-38,-50,-14,-6,-24,-1,5,4,-56,2,-50,-32,-45,1,20,-58,-29,10,-19,-6,-44,-28,-53,6,-24,3,-62,-31,-8,-2,16,2,-1,-88,40,-13,-10,-49,-52,-9, 24,8,-1,-61,-16,4,-29,23,26,-24,-37,-22,0,8,-4,-65,22,11,-13,-5,-7,-62,14,-10,-51,-15,-2,-33,-27,-69,1,-9,-42,8,-19,7,-26,10,23,-29,-15,-44,-36,-33,16,26,-28,38,-14,13,-43,-84,-33,-12,39,-14,58,-62,-25,-44,-31,-21,-6,19, 
  /* [3][0][][] */ -5,-31,24,-28,33,5,-56,-40,-11,-29,-21,-30,-40,-65,14,40,-63,8,30,-3,-38,9,-15,-12,-5,-54,27,-23,34,16,-47,-2,17,33,-56,7,-22,-22,23,12,-1,29,-38,63,-9,-41,-41,33,-2,2,43,6,42,-42,11,-17,20,-52,-26,-12,29,40,-12,12, 16,-26,7,-14,25,14,-85,-88,-13,-41,27,8,-69,-23,10,-3,-42,5,-84,16,-81,10,-12,-113,-1,-67,-32,-4,48,-7,-12,13,10,-3,-10,-10,8,-82,11,-44,-28,6,-38,-16,7,-51,-7,-31,9,2,0,-19,-2,-61,-52,19,-2,-22,8,-18,-8,-23,34,11, -10,5,3,21,-10,14,-11,-67,-34,-58,34,9,-9,-19,-2,-30,-20,-2,-62,16,-56,5,6,-127,12,-51,-64,6,-1,-24,22,12,11,-2,35,-28,0,-44,12,-62,-80,-29,-10,-35,14,12,-14,-82,18,8,-35,1,-35,-28,-54,13,-14,-44,-25,22,23,-13,9,37, 
  /* [4][0][][] */ -53,-38,-14,-31,74,-31,-29,16,-62,6,-64,-95,-5,-48,-4,-73,-6,-34,-42,4,-54,5,-108,-15,-80,-4,-37,-29,-48,-35,-11,-31,-66,3,-1,-63,-21,-28,-35,-54,-14,-31,18,6,-45,-31,-72,-37,-17,-13,-12,-69,-46,-64,-39,-55,-57,-4,-17,-18,4,-27,-3,-42, -12,-5,-48,-45,-50,-127,11,-48,-22,-46,19,33,-40,27,-33,-41,-52,-11,-7,-45,-3,-20,-30,-53,-96,-22,-27,-3,-65,-16,-53,-42,-12,-43,-32,-7,-46,-82,-46,-4,25,-20,-45,-8,-26,-25,1,-27,-62,-4,5,-38,-17,-43,-22,-35,2,-7,-71,-52,-26,1,10,-48, -27,-62,-4,-94,-18,-63,14,-31,-8,-17,-32,8,-40,-85,-21,4,-60,6,-47,-28,40,-66,-32,-3,-44,-97,16,-85,-10,-14,-40,-28,-19,-28,-91,-29,-36,-35,-70,-21,-18,-14,-117,-15,-1,-6,-66,16,-38,-6,-34,-42,27,-61,-9,-26,-31,19,-64,-30,-38,-36,-4,8, 
  /* [5][0][][] */ -2,-25,-46,-39,0,-16,-81,-71,28,-4,-58,-70,-69,-61,11,-7,-9,-13,-3,-5,-45,-31,-1,14,-16,-69,37,-20,17,-25,-29,16,-2,11,-44,-6,-73,-110,-3,-49,9,2,-27,-29,-30,19,-119,-23,-8,5,3,-18,-9,-32,22,-1,11,-48,-71,-19,10,20,-42,16, -24,5,-28,-50,4,10,-77,-47,-2,-10,-33,-67,-61,-36,-4,-38,-34,9,-24,-13,-38,-41,-17,4,-8,-79,-10,-28,5,-13,-11,5,-33,-36,-103,7,-43,-127,31,14,-2,33,-49,-6,21,-8,-83,9,34,-17,-5,-1,4,-5,-34,17,27,-18,-94,-25,4,-17,-33,12, 25,-3,-10,-77,49,-2,-20,-21,-22,35,12,-9,-12,-13,8,-15,-64,11,-26,27,-13,23,-22,52,-22,-48,0,3,29,-76,1,40,-27,-4,-43,-23,-28,-50,-8,-15,-14,-15,-46,-14,21,24,-75,39,11,-8,-3,4,20,-89,17,-1,22,25,-115,9,-6,11,20,-10, 
  /* [6][0][][] */ -80,13,-38,-82,-14,28,-26,-30,9,-15,-30,-116,-61,-31,10,-72,36,-12,-58,-123,-50,9,40,6,7,-63,-45,15,-38,-48,-25,-2,5,30,-33,-2,-127,-64,19,-85,20,29,-77,-73,-22,-24,-10,-23,5,-16,-74,-62,18,-17,-4,-11,-72,-66,-94,-7,-2,-58,13,-28, -17,45,-13,-88,28,-46,-46,-42,4,-15,-28,31,-19,-22,-12,-40,-50,26,-34,8,-28,13,29,-3,22,-78,-4,16,-8,-51,-43,13,11,11,-34,14,-106,-11,-12,-114,13,9,-63,-12,3,3,-32,-29,5,-12,-40,-24,11,-55,-9,-54,-35,-47,-49,-8,12,-16,-1,31, 52,20,20,-113,19,-67,-28,7,18,47,-42,1,-35,-2,1,-5,26,13,4,-33,32,-1,-57,34,1,-28,13,23,50,-50,-102,-14,28,-24,-67,0,-12,14,-4,-40,34,15,-23,-2,35,18,4,26,4,-41,4,32,0,35,24,-55,-6,-29,11,-43,-22,-21,28,-21, 
  /* [7][0][][] */ -27,-2,-4,-12,-46,-2,-24,-25,-58,-24,16,13,-38,0,1,-64,14,-8,-56,10,-76,14,11,-11,19,-3,-7,14,-59,-10,8,35,3,-10,-17,-38,-27,-9,1,-26,-62,-38,-3,-58,12,-101,-39,-43,9,26,1,-7,-94,-8,-5,13,-102,2,-13,28,-10,-56,-18,-122, 13,-16,34,20,0,11,-9,4,-13,-27,-2,-11,-33,-7,0,-2,-15,4,-19,-15,-46,2,2,-11,16,11,-2,20,-50,-2,0,3,-21,2,-2,-54,-22,-14,-3,8,-49,-58,-68,-38,19,-107,-80,-45,10,-13,-5,13,-105,12,-2,2,-59,14,-6,17,5,-32,4,-63, -14,-42,3,47,16,9,0,19,-28,-9,14,10,-13,16,-11,-13,-1,-8,-43,19,-28,-2,-16,-37,-5,9,-21,17,-59,-27,3,11,-17,-12,37,-55,-17,17,6,-17,10,-40,-64,-13,9,-59,-80,-31,3,11,3,15,-102,6,-5,9,-127,29,-36,15,-17,-75,-12,8, 
  /* [8][0][][] */ -2,-40,26,12,-30,-66,-77,8,-36,5,-67,-48,12,-27,-14,18,-39,-77,21,-3,23,-3,-15,26,25,-53,22,48,-46,39,-66,20,22,-45,-86,-33,23,-8,-39,36,37,53,5,19,-49,16,-10,5,-26,3,6,-15,9,-78,3,-115,-52,-7,-39,2,-9,-7,-4,25, 54,-52,2,24,-80,-34,-68,-11,-43,-22,-71,-72,-41,-78,-6,66,-102,-67,0,-51,-17,-2,-18,-1,-5,-101,-4,9,-29,5,-80,-6,-1,26,-14,2,-2,-68,16,5,7,-18,-30,1,-39,-21,-8,9,-45,-9,32,3,1,-81,6,-54,-30,-57,-31,-20,-25,14,22,38, -45,-28,3,11,-63,7,-76,-35,-45,3,-9,-32,-122,-14,-21,-14,-127,-23,2,-63,-19,6,-19,-25,-21,-115,4,-12,2,13,1,42,-32,25,-39,19,17,-54,14,19,-24,-27,-52,-6,-31,7,-1,37,-54,3,30,-57,24,-66,-7,0,63,-76,-30,21,25,1,-19,44, 
  /* [9][0][][] */ -10,30,-53,-11,-37,-39,-47,-1,0,12,-31,-44,35,-62,-22,12,-16,11,-25,-42,0,-111,26,-16,-15,-31,-37,-68,-23,24,10,-105,58,-3,16,-4,4,-20,-6,-18,-3,66,30,35,-23,17,-33,1,13,-1,38,10,3,7,-20,6,28,8,-66,-2,-7,29,-28,72, 2,10,-35,-67,-47,8,36,-111,-6,-66,-16,-43,27,-9,-36,-28,-24,23,16,10,-30,-23,1,-10,-56,46,-74,-16,-31,18,8,-79,-55,4,15,-27,-27,-21,13,-40,19,19,3,-14,-39,3,-27,36,-39,-52,-16,-53,-27,5,-65,13,24,-63,-13,-25,-15,66,-41,36, 4,-33,-44,-26,-72,35,-9,-48,5,-15,-23,-48,-64,18,-37,-50,-26,-4,22,2,-55,41,5,-25,-50,-26,-37,-31,-38,-73,19,-41,-27,-17,-29,-39,-127,-80,22,-94,41,-1,-51,-65,-54,-26,-68,37,-33,-118,-91,-116,-54,-34,13,34,7,6,-46,-15,28,-4,-5,-74, 
  /* [10][0][][] */ -14,11,-3,15,7,31,-78,13,32,21,-57,-4,32,18,1,-21,-75,-27,-5,21,29,0,18,27,16,-66,10,8,-64,-6,-52,10,0,-59,-73,13,-62,-63,-127,-44,0,1,-11,-19,28,11,23,25,8,-14,0,8,12,-68,11,-44,19,14,8,33,5,10,13,-36, 12,-44,29,3,-23,10,35,-12,2,-4,-83,7,-3,-103,2,4,-16,-38,-6,-32,-7,1,-22,-17,-1,-6,30,-13,3,20,-49,11,-16,0,-18,-7,-90,-19,-4,-74,-7,1,-15,-12,-9,22,-81,-5,-1,-15,-1,0,8,-76,16,-26,12,-2,-32,-8,-4,13,0,18, 41,-90,-13,13,14,0,-13,-41,-10,-25,8,-25,-34,-66,14,46,78,6,-12,-3,-42,21,-53,-49,-3,-2,9,-24,29,20,20,-8,-18,21,-43,-3,-91,-18,40,-36,-11,-20,-22,-35,-13,-46,-84,-12,-9,24,26,4,-18,-64,5,15,12,-36,-47,-7,-10,-44,-7,-22, 
  /* [11][0][][] */ 7,1,-6,-6,-3,22,-127,9,2,7,10,20,-2,22,-47,14,-110,-73,4,49,20,8,-6,21,22,-99,-36,-1,-7,17,-50,12,19,-15,-31,-31,-5,-77,0,25,12,19,6,3,-67,-13,-1,2,-6,-7,-29,8,18,-70,-50,-36,8,6,-35,19,12,12,-1,-20, 13,-5,-6,-13,-50,7,-89,0,-12,17,-28,-3,-4,-14,-11,-15,-103,-31,-34,-41,4,-15,-8,-2,17,-59,-25,18,8,-8,-46,29,-4,10,3,-50,31,-53,22,-9,-6,2,5,-6,-13,0,5,-38,-7,6,-18,-62,19,-73,-35,-34,3,-7,2,-16,-31,7,-22,-21, -60,41,-3,-5,-43,1,-79,-7,-24,-1,-31,-7,7,26,-12,13,-70,22,-8,-62,8,-23,34,8,2,-48,1,9,-27,12,-44,-9,-16,21,-37,-26,1,-28,29,7,-52,-3,7,36,1,20,25,-24,14,23,-17,-83,-13,-29,-18,44,1,-14,-2,8,-3,-13,-61,22, 
  /* [12][0][][] */ -1,-29,-33,-87,-47,-127,-49,2,0,51,-29,-62,-41,-84,12,-57,-99,-65,-40,-57,-2,-41,-32,47,17,-47,35,-6,30,-23,-58,-72,-23,6,-1,-18,-77,-88,2,-103,-8,10,-6,-1,28,-45,-33,-31,77,15,26,7,14,-48,22,51,-41,7,-115,-56,-71,12,-45,-66, -21,-34,8,-84,-47,-111,23,-13,20,-2,-32,-16,-58,-79,3,-32,2,-50,-6,-25,-8,-55,-33,-4,-49,8,5,-3,4,-61,-18,-33,-61,11,18,-13,-51,-10,-21,-24,34,-23,23,27,-17,1,-42,-7,-35,-41,-15,14,14,8,8,6,-23,-17,7,-26,-102,5,10,-23, -59,-28,43,-97,-48,-49,32,4,38,26,-22,-28,-20,-107,20,-64,10,-17,12,-16,-24,-59,-38,-55,-51,4,2,-17,-11,-97,-7,-37,5,-21,17,27,-17,18,-38,32,20,-55,57,6,-18,-19,-6,4,-57,-30,-4,-10,41,-30,-9,6,-14,0,-5,-11,-55,33,5,-26, 
  /* [13][0][][] */ -26,-27,-21,-31,-24,-47,-11,28,-107,9,51,-24,22,40,-11,42,16,1,-18,-52,-62,-28,-14,38,6,-5,-21,-66,71,31,-15,44,-55,-58,-17,-68,-23,18,-14,-70,-43,-2,-2,-26,-13,-93,6,-28,0,-32,-45,-60,44,28,-18,4,37,12,25,-13,-32,13,-18,-25, -69,51,0,-4,28,-127,-49,-8,-64,-46,42,-10,-2,3,2,-41,-22,2,20,-8,13,-25,11,-4,-25,-52,7,-25,-82,-50,-22,24,-63,-15,-72,-49,-57,-8,-15,-24,5,-25,-8,-45,4,-20,19,-30,-8,-27,-8,-63,-21,-22,9,-19,-20,6,-10,-2,-2,10,-4,3, 18,-10,18,-15,-11,-54,-22,34,22,-11,-32,-25,-36,-3,1,-33,-25,8,42,-23,37,-12,21,-8,-20,-97,62,3,-10,31,-59,4,-78,29,-93,-8,-36,-32,-25,-47,-5,-10,-10,-42,4,-7,-27,25,-31,-31,-25,18,-9,-34,6,-3,-44,13,13,50,29,-12,4,-56, 
  /* [14][0][][] */ 41,-37,16,-34,-77,-123,-25,0,6,-92,-4,-50,6,24,58,35,8,-2,28,-29,10,-1,-53,-32,15,12,21,-30,-52,-13,-48,-63,10,-12,-5,-70,15,-11,26,26,41,4,-30,-23,14,-30,22,26,19,20,13,-6,-7,20,11,-11,-40,5,34,15,-102,-41,-20,-34, 10,-35,0,-75,41,-84,-17,-1,8,-84,4,-77,13,-40,4,56,-23,-28,41,-46,16,13,-21,-69,-12,-8,14,1,-45,7,-26,-103,-15,-4,2,-6,14,-11,16,-13,-17,-5,-38,-60,16,-48,-8,58,-9,1,-5,9,-40,-83,-12,34,-85,-37,-74,24,0,-53,-42,8, -23,-15,-11,-13,37,23,-54,-66,29,-58,19,-64,14,-58,-23,7,-26,-24,-45,-25,-11,21,12,-59,-11,-47,1,20,24,36,29,-16,26,14,6,18,-30,-35,6,-4,-26,21,5,-28,-4,-43,-20,-8,-15,8,-29,-12,-34,-75,-23,29,-127,-40,-41,-26,58,-53,2,20, 
  /* [15][0][][] */ 32,-6,-16,0,-18,2,-34,-99,36,-23,23,-25,-42,-2,9,-8,-12,-1,-90,9,-58,9,13,-35,13,-18,-27,17,-8,-20,-3,16,20,-5,17,-8,-40,-37,24,3,-42,-28,-32,-53,-3,-45,-25,-26,9,29,-26,11,-37,-14,9,17,-11,-46,8,6,-15,-35,-13,-19, -5,0,-9,10,-11,15,-10,-72,20,-28,-3,-13,-74,4,8,2,-36,3,-69,-15,-48,6,31,-9,14,-37,-16,14,-28,14,-1,7,-5,8,-60,-6,-12,-35,10,6,-31,0,-37,-41,13,-43,-32,-22,8,21,-3,6,-67,14,6,8,-8,-1,8,-3,-4,-35,-9,-10, 25,19,16,34,15,8,-45,-14,36,-27,5,-10,-127,18,1,20,-41,13,-53,-14,-12,18,22,-6,6,-49,-3,22,-21,16,-5,25,18,21,-50,-6,-4,-6,14,26,-7,14,-41,-32,15,-49,-28,-66,12,4,-6,8,-46,8,-1,11,-3,-7,-8,14,-4,-52,-8,7, 
  /* [16][0][][] */ 24,-39,-33,-72,-37,-37,-37,-30,54,-44,-40,21,-64,-25,-5,-2,19,23,-47,3,-69,39,33,-35,-88,-55,40,-48,-26,38,-61,-14,8,-39,-21,-30,-7,-27,-36,-52,-30,32,-17,-83,-37,-28,23,-99,4,-15,-62,-64,-15,5,-9,-120,-70,-23,-2,29,-54,-35,-59,1, -81,-62,-1,21,27,38,-29,-31,58,13,-55,37,-70,-63,18,33,19,-15,-8,-44,-68,37,-49,-2,-4,-5,19,37,11,-12,-127,3,-16,-47,-79,-15,-20,-55,-12,27,-31,-8,-32,-36,13,-16,-54,-42,-87,21,-51,25,-50,-5,-24,-38,-5,-15,-34,-5,-25,-6,-32,45, -16,-77,-51,-23,-5,12,-15,-40,-7,-9,-55,-46,-66,-41,-28,-4,-3,-83,-14,-66,-45,41,-94,28,-27,-36,2,-6,-5,13,-31,-45,-1,-11,-61,82,-65,-82,-14,-21,-4,-12,-73,-61,-23,16,-17,-57,-3,-53,-66,-17,-21,-41,62,-52,26,-58,-82,-32,-44,23,-46,61, 
  /* [17][0][][] */ 37,-31,3,-15,6,-78,-30,-50,-16,-61,-51,-24,-33,29,-30,-86,-32,9,16,21,9,-34,0,-30,2,-41,-25,-7,-34,-47,-67,-44,-36,-45,27,25,-85,-14,-25,-41,21,-105,-6,-117,19,-3,-15,20,0,-16,-49,-1,-69,-85,41,-5,-59,-9,20,8,-56,-69,-35,-16, -35,-22,18,-28,-25,-17,-10,-20,-25,-15,-96,-30,-42,-33,-12,-72,-31,-24,15,38,-17,-21,-20,24,21,-14,29,27,-78,-32,-127,48,-29,-33,-53,-105,0,26,-33,-16,-27,-5,-48,-61,-6,26,-79,30,-18,-100,-15,-5,-3,-56,8,-16,-77,12,4,18,-18,-29,57,11, -39,-7,22,-72,-39,23,17,28,-53,-29,-88,17,-81,-45,-29,42,-53,-59,-53,8,23,-34,12,-63,28,-5,-2,8,-9,-8,-112,23,-92,27,14,-82,7,21,-3,-1,57,-47,-5,-39,-27,32,-51,19,-67,-72,-10,38,28,0,-22,12,-100,28,0,-35,3,-44,24,32, 
  /* [18][0][][] */ 26,29,-74,10,74,53,-72,44,4,-11,11,-31,16,17,2,-5,-58,32,11,-20,7,56,31,22,47,-79,-13,27,-67,9,-16,45,49,-8,-33,46,-73,-46,-38,-73,13,23,-18,8,19,58,-11,-1,15,13,-21,-1,-1,-101,14,-37,5,33,-29,33,5,-22,-18,13, 12,38,-54,0,-33,-72,-103,38,6,25,-15,-91,36,-76,8,-27,-58,35,18,7,3,-21,21,13,3,-122,3,-3,-12,14,-37,1,3,-27,-95,-29,-91,-127,-43,-120,1,4,-9,-21,18,16,-15,10,15,9,-9,-13,13,-76,-5,-13,12,33,-95,-1,-19,3,-24,-51, 10,11,-34,-49,-22,-61,-63,-90,-22,12,-90,-104,28,-113,-25,30,-27,13,22,-10,11,-50,-1,35,-11,-77,10,12,36,35,-47,-23,-3,-44,-78,-25,-46,-48,-44,-22,10,21,-53,2,-2,13,-52,44,-3,-7,0,-6,-9,-61,6,37,-6,-54,-80,-1,11,39,-30,-46, 
  /* [19][0][][] */ -50,-2,-57,9,-17,-43,-87,-18,24,-6,-57,23,-117,-7,-34,-41,4,28,-70,-35,-111,2,-43,-88,-52,29,-8,-93,-34,-17,4,0,4,-35,-7,-64,-36,-54,-86,9,-1,-69,-81,-16,-69,-14,-56,-61,-36,-82,-23,20,0,-60,-88,-55,-41,-50,29,-48,-81,8,4,-17, 12,-15,-3,-27,-102,-26,-31,-90,-124,-1,0,-25,-59,-121,-113,-21,-23,-101,-127,-54,6,-33,-75,-26,-41,-6,-13,25,-64,-6,-61,-41,-29,-11,-3,-61,36,33,-86,-55,9,-38,14,-69,-20,-57,16,-106,-52,-14,-57,-37,-76,-65,-12,4,-27,-36,29,-29,-52,-82,-73,-90, -24,23,-2,43,21,-56,-5,47,-70,-16,-16,-47,33,-37,-35,-14,-5,-111,35,-114,-8,-73,-14,-116,-69,-50,-32,-67,-38,-71,-75,-70,-70,-63,-43,-17,-18,-12,-56,-41,-15,-76,-13,-3,-49,-19,-15,-118,-85,30,-87,-11,-22,-100,-59,-11,-35,-22,25,-15,-54,-30,-22,-105, 
  /* [20][0][][] */ -43,40,-38,32,-23,-4,20,15,-25,16,-127,51,-22,10,-60,-12,-60,-58,-84,19,-11,-5,-7,-13,0,20,-33,8,3,45,-98,-8,24,-22,-47,-66,0,-42,-37,-29,-22,-5,-13,-94,-104,-34,-25,10,-52,-21,-49,3,-4,17,29,-24,-48,-52,-5,-4,-3,-29,20,-15, -41,-30,-43,9,-3,-25,33,-29,-25,-78,-92,-127,-39,-43,-17,46,14,-36,-38,-8,-41,0,-75,-73,-15,27,-6,-55,-33,-28,-47,-42,-59,-34,-27,-94,-113,34,-47,-11,-7,8,-58,-16,-115,38,-24,47,-11,-23,60,64,-26,11,-38,-34,27,-50,0,-1,-21,-29,-16,30, 28,-49,-42,25,-40,0,-5,-26,-10,-21,-40,-9,28,-53,-31,-32,27,4,-18,-25,-55,-24,-42,-16,-42,4,-32,-74,-70,-31,-77,10,-37,-29,-12,-3,-65,-16,-26,38,-60,-42,-22,-26,17,-18,-17,21,-51,-1,-42,-17,-42,-70,-32,-80,18,-72,-3,7,-29,-15,11,15, 
  /* [21][0][][] */ 41,8,-37,9,-14,3,21,-48,41,-84,8,-14,-79,-6,-17,14,29,3,31,10,-34,-55,10,3,-5,30,-70,-23,32,29,-15,-17,12,-14,-9,-11,-4,-12,26,-34,-124,23,-89,-66,-83,-13,-40,0,4,-31,-8,-17,-18,32,-9,-18,-6,19,8,-11,26,-66,-83,-3, -37,29,-26,21,-19,-21,1,-3,44,-44,26,9,-61,0,-71,0,27,-23,-25,-21,-71,-6,-11,29,-27,2,-74,9,26,2,-6,3,30,10,4,2,-41,-1,27,6,-91,24,-127,-73,-51,-33,2,-41,16,-44,-3,-10,-1,8,-39,16,17,-29,-5,-1,21,-39,-47,16, -12,30,-59,5,33,-13,2,-49,24,-68,15,13,-33,5,-98,-11,4,-14,37,13,-46,10,30,33,-47,9,-40,28,20,46,-6,17,-14,11,10,10,36,-2,-16,-16,-101,-19,-76,-61,-59,44,-10,-38,-52,-62,-53,24,-17,24,-24,-6,15,-29,-18,-68,13,-21,-51,9, 
  /* [22][0][][] */ -20,11,-28,2,52,14,-49,17,-10,18,50,40,23,50,-34,42,-30,-79,30,-63,5,46,18,37,-16,7,-29,26,-20,47,35,52,10,-47,-78,14,-61,-92,-4,-49,-3,-5,-13,-7,-18,41,-28,-28,-56,1,-57,14,-1,-8,-36,-110,-6,47,-5,17,-26,83,15,13, 10,-37,-18,-8,11,-53,-72,-4,5,-53,7,20,-12,-30,-21,-26,-39,-71,10,-18,-51,7,-38,-6,11,-51,-20,12,5,40,-28,36,14,-7,-45,14,-19,-29,-21,2,36,-16,-46,-17,-5,-10,-16,44,-9,-10,-17,-28,35,-76,2,-127,19,22,-74,3,-29,13,35,26, 11,2,10,-18,29,-38,-108,-124,22,-80,-21,-50,-80,-45,-9,19,-12,26,-19,-64,-88,24,-37,-49,3,-60,-52,-17,-4,5,-9,-5,22,7,-68,4,-33,-40,-12,28,13,36,-82,-53,-44,-5,-81,30,21,13,-13,-48,-31,-55,-42,-107,9,-59,-60,17,-15,-30,-19,-26, 
  /* [23][0][][] */ -81,20,-99,-37,-95,-7,-57,4,-64,-93,-76,-22,6,-90,-60,-48,-26,-66,-7,-48,-72,-70,-47,-61,-2,-61,-51,-37,-75,-41,-102,1,-62,-11,-55,-34,-1,-13,-105,-51,-26,-85,4,-57,-31,19,10,-48,-35,14,-22,-23,-75,-67,-37,-102,-32,-119,-20,63,-26,-45,-69,-6, -25,3,42,-94,-19,-15,-31,-50,-69,-11,-72,-57,-127,24,-50,-28,-94,17,-19,9,10,-39,-19,-34,-24,1,-40,-64,-76,24,-33,-73,-52,-79,-45,-10,-57,-1,-114,-63,-113,-32,-48,-56,-22,-59,-56,-41,-51,0,-56,-36,-30,-63,-41,-124,-22,1,4,-47,-18,-53,20,-69, -37,-8,-15,-98,-43,-60,5,54,-22,59,-74,-6,13,-88,-30,-6,-52,-82,-56,-89,-2,-12,23,-44,-41,-1,-89,-10,-70,-15,-103,-41,-86,101,-33,-101,5,-102,-69,-7,-37,-92,-106,-12,35,-2,-42,-4,-16,-49,-34,7,-44,-31,-17,-12,26,-12,-66,-117,18,-52,-105,-47, 
  /* [24][0][][] */ -110,-16,8,-40,-41,7,-50,33,-16,23,-4,-21,23,-12,23,-62,-16,-58,-11,12,-76,-38,-30,-43,-25,-76,-11,-62,6,-65,-25,-12,-58,29,-37,18,-50,-111,-25,-23,16,-27,27,25,-12,-57,-20,-30,-61,-2,-43,-92,-23,-111,-2,-10,17,-14,5,7,-24,15,-30,-28, -51,-2,11,-41,-11,-22,-23,-9,-14,10,-43,-6,15,-37,13,-29,29,-12,5,4,-51,-115,-27,-10,-25,-57,16,-32,1,-54,-41,-36,-15,9,-4,26,-53,-66,-7,1,8,-46,41,26,-28,-25,-43,-26,-46,12,-14,-54,-62,-81,0,31,-10,41,-16,-47,-17,7,-25,-13, 17,35,-9,13,-113,-35,-6,-116,-11,-10,-12,-63,21,-49,-1,-10,-60,-5,7,57,-15,-52,-33,9,-8,-50,26,13,23,-55,-39,10,-13,-2,-1,12,-38,-44,-1,20,16,-53,-14,1,-43,32,-32,-64,39,30,28,43,-33,-45,21,25,-12,-89,-127,-14,-62,23,-40,11, 
  /* [25][0][][] */ -83,15,20,10,-20,-19,-75,-5,9,36,-63,-30,-7,-30,-27,-40,-4,-48,7,-11,-5,-127,19,10,-20,-61,0,8,-24,-41,-62,37,-16,-63,-12,-61,10,-52,-26,-3,15,-8,2,29,-37,35,0,25,-59,-6,-10,-39,25,0,5,-26,3,3,-24,-4,9,25,10,4, 32,3,31,-11,-34,7,-39,-2,-2,-44,-66,-27,-1,-16,-45,36,-42,-13,22,-25,11,-8,20,-4,-54,-62,30,11,-4,-5,-11,-11,-48,3,-12,-30,-21,-18,-9,-21,-9,-22,-18,1,-55,35,-10,13,-104,-19,-13,-19,-26,17,1,-55,-13,-24,-1,12,12,4,-16,-12, -9,5,44,0,-56,25,-29,-44,19,-20,-66,-13,-12,-22,-56,27,-49,41,17,-34,-8,36,12,-8,-62,-35,-5,-4,16,34,-7,-9,-29,-20,-4,7,-17,-21,-7,3,19,-25,14,-16,-31,44,15,24,-84,-102,-6,-12,-10,1,20,-62,28,-90,1,35,42,-7,25,8, 
  /* [26][0][][] */ 1,-73,-25,2,-5,4,-7,11,-93,-81,18,14,6,21,-40,-27,14,-40,-22,-10,-14,-20,-18,-51,-3,11,-85,3,-11,-16,14,-22,-41,-36,24,-127,-3,0,8,2,13,-63,0,-14,-6,-16,12,-31,33,-34,-45,4,-44,1,-44,22,-46,3,-14,-77,3,-52,-39,-5, -6,-21,-29,4,-16,18,15,-11,-67,-12,28,5,0,-22,-1,21,13,-35,-4,22,11,-15,-10,-37,-38,8,-49,35,-47,14,7,-23,-41,-16,-12,-60,39,10,-1,18,5,-62,-15,12,33,17,-5,-45,10,-25,-17,17,-75,3,-16,11,-42,-8,-10,16,9,-58,-43,11, 17,2,-51,-5,7,28,2,-2,-65,-35,22,32,24,8,-19,7,11,-43,2,-12,-30,-6,39,-49,6,15,-44,15,8,3,33,17,-17,-9,8,-17,10,14,30,23,-32,-19,12,-3,-10,21,14,-19,-19,-65,-11,30,16,24,-40,-6,10,2,13,-24,-6,-45,2,22, 
  /* [27][0][][] */ 33,-25,9,13,57,18,-44,4,-26,4,12,-27,28,3,-34,37,-59,-17,-1,9,-23,28,7,-24,45,-74,-19,18,-13,-21,1,38,-120,-1,-81,-24,-23,-55,2,8,-28,-66,-25,7,-70,-37,-127,15,-15,-10,4,49,27,-36,7,-5,25,37,0,11,26,15,63,-37, 44,-12,0,25,-17,-8,-63,1,-8,-13,12,6,54,1,-62,17,-91,-6,-39,33,-15,-16,16,-10,4,-38,-29,-20,-19,-48,-9,13,-68,21,-33,0,-34,-78,-28,-34,-13,-49,-26,5,-94,-27,-66,8,-23,30,10,2,16,8,29,-13,8,10,57,-58,-5,25,12,1, 26,18,28,24,52,7,-29,26,20,-16,12,-15,34,-16,-94,64,-66,-20,-54,-9,38,-22,6,-41,-45,-28,-76,-35,1,-67,30,2,-46,1,-71,4,17,-16,6,18,0,-9,7,-18,-101,-7,-1,-19,-43,13,-20,-22,42,-16,-17,12,59,-30,-9,-41,-4,16,-51,27, 
  /* [28][0][][] */ -20,1,13,-38,11,16,-52,-24,-2,-15,2,-58,-27,-8,-43,-78,-49,-34,-11,-14,0,5,1,-2,2,13,15,1,8,16,11,-5,-16,41,-51,19,-47,-118,-12,-88,-25,0,-25,-4,-35,43,-42,49,13,-52,4,11,6,-61,11,0,11,16,-81,27,26,5,14,16, -24,-27,28,-51,-19,7,-36,2,6,11,-16,-62,-13,-33,0,-1,50,25,-1,-18,43,10,2,6,25,-58,28,-3,18,24,11,-1,7,-3,-31,-4,-8,-91,5,-76,22,-10,6,2,-18,-3,-32,21,-15,-60,14,28,16,-102,18,1,-45,1,-54,32,7,7,18,-19, 33,-28,-9,-34,26,10,-30,-16,-1,3,-11,11,-6,-56,-11,64,-33,4,2,46,4,5,-23,4,19,-91,30,3,42,43,2,-14,-8,-3,-97,14,-8,-62,25,-32,14,24,-10,7,-19,-5,-41,42,6,-61,11,30,15,-127,12,19,-70,14,-91,15,16,-9,39,-60, 
  /* [29][0][][] */ 40,-24,-35,-43,-44,3,1,-22,15,-65,-59,-15,-66,-7,-44,-36,7,-23,-30,28,-23,-81,35,19,-48,19,-47,-5,44,-92,-21,-60,15,-65,-48,-61,7,11,-13,-30,-32,14,-67,-18,-61,-20,-78,22,32,-66,-20,-17,-20,-34,-30,8,-4,-33,-19,-55,37,-41,-66,-83, -49,8,-59,-42,-87,4,-46,-19,-53,-57,18,81,-3,17,29,-56,-9,-24,-101,22,-14,-36,-6,-34,-38,-36,-124,26,-127,-109,31,-37,-13,-38,-24,-83,-54,-40,19,-35,41,-82,-28,-29,10,-21,-5,15,-9,-56,-16,-88,0,-2,-57,-84,-78,-36,-13,-55,-17,-30,9,-59, -93,-94,16,-73,27,32,-2,62,54,-79,-40,76,-36,-103,-69,56,-16,49,10,-2,-2,8,-96,-22,2,37,24,-23,-45,-43,-77,-11,-32,47,-21,63,-13,57,-19,-16,-24,-103,-30,-19,-69,-12,-106,-44,0,-27,-22,27,-55,-52,15,-27,24,-23,-24,-58,-32,-22,-63,37, 
  /* [30][0][][] */ 18,27,2,-67,15,16,-30,-31,22,-53,4,-119,-20,2,-4,-25,6,-27,2,-21,-60,21,46,10,-17,-52,-16,1,21,17,22,23,1,25,-49,19,-97,-20,7,-119,-106,-14,-108,-51,-8,2,-29,12,1,-18,-15,-96,-30,-20,-4,30,6,-126,-15,36,22,11,-67,-6, 8,40,22,-87,-17,24,-26,-68,-19,6,43,-30,3,21,-11,-51,-53,-2,-13,-41,-67,-2,-5,-11,18,12,20,-3,3,-14,7,-14,3,8,-66,37,-114,-58,-1,-75,-53,-17,-70,-127,38,-13,-29,4,-8,22,0,-30,16,36,23,-1,20,-96,8,14,16,4,29,-15, -10,6,53,-64,65,40,-3,-59,26,43,-34,-14,-2,12,10,-28,-9,8,-37,-56,-38,12,9,28,-45,-30,14,8,23,-25,22,11,15,-4,-3,38,-29,-42,-6,-2,-5,4,-45,-68,34,-11,-3,19,-19,10,8,-34,21,-11,34,-7,17,-73,-21,5,10,0,-7,-8, 
  /* [31][0][][] */ -85,-6,-21,-67,8,-20,-39,-58,16,-39,5,-39,-45,-43,-12,-19,-25,-25,17,-64,-63,14,-8,-30,-5,-49,-15,1,30,28,-50,17,49,13,-19,-2,-26,-90,8,-9,-3,15,43,-14,42,-69,-33,-9,-39,14,-11,-127,5,-95,-1,-20,35,-88,-54,3,18,-9,-39,-27, -44,9,18,-73,-11,-20,-62,3,13,-10,-3,-52,-37,-32,-7,-22,-15,-35,-39,-85,-8,21,15,-18,-20,-47,-5,1,-3,-51,-9,-23,-3,-4,-72,15,-30,18,6,-17,16,-3,-74,-90,-19,-11,-61,-54,-26,-30,-72,-79,0,-42,-30,-11,18,-31,-46,0,3,-42,-16,-3, -7,14,6,-53,1,-31,-38,20,13,22,12,5,3,-5,-7,-45,-6,-56,7,-64,-40,2,26,-13,1,-24,27,20,27,-56,10,27,-3,1,14,13,-25,-38,18,-66,20,-14,-10,-39,-57,-30,-5,-2,-45,-60,-92,-48,16,-31,-37,1,41,-75,-72,9,3,14,4,6, 
  /* [32][0][][] */ 48,18,13,-5,36,8,-56,-2,9,-21,-53,-16,3,-21,-10,-23,-79,7,-14,-11,-12,-30,21,-6,-45,-56,-34,-19,-9,-1,33,44,16,16,-64,32,-18,-76,-8,-13,-71,-44,-36,-27,-58,-48,-2,-36,-45,2,-34,-68,-6,-82,-7,-14,-18,-9,-36,-44,11,-25,-26,-8, 6,7,-5,6,-5,-17,-43,-8,-4,12,-79,-14,-1,-33,1,-10,-71,30,-23,-44,2,-127,11,-4,-100,-65,3,-37,8,-7,-44,3,10,-3,-24,10,-27,-57,-7,-37,-4,-1,3,11,-1,-46,15,-5,-40,-6,-26,-76,10,-66,3,-51,-5,-6,-14,-8,-24,2,-26,-15, 10,24,10,29,-31,-6,-25,9,31,-7,-46,10,-22,-3,21,0,-21,4,18,-8,8,-64,-5,24,-117,-20,15,-5,-1,4,-88,-39,1,-30,0,-10,1,8,-29,-33,9,23,14,16,17,-3,12,-8,-41,-15,-7,-28,20,-10,21,-64,37,-42,11,-2,-46,-4,9,-11, 
  /* [33][0][][] */ -40,70,-56,-56,0,-50,-33,-55,18,-35,11,-10,-30,-63,-9,-30,-69,4,-70,-9,-51,-5,26,-18,-4,40,-2,32,-76,0,-34,-42,32,22,-9,58,-42,-79,2,-64,-73,-30,-84,-59,18,-48,-53,-12,-5,9,-81,-64,-101,-57,-25,-21,19,-62,-8,-42,-37,11,-68,2, 23,-52,21,-108,0,-42,-78,-57,44,-62,-12,72,-47,-43,-10,-43,-28,-10,-16,46,-43,-30,-22,20,-5,-87,28,8,10,-70,-13,-81,-38,-16,-56,-51,-18,-64,-31,-61,-31,25,-71,-27,9,-33,-6,-16,16,-26,-33,16,-60,-122,-21,-88,32,-110,-34,-1,10,-19,15,20, 40,-31,28,-85,-19,-4,-45,-102,-32,-73,-14,-29,-61,-47,47,18,-26,-27,31,13,44,69,-21,-72,42,-35,40,-63,-58,-40,-11,-31,-24,10,-7,-28,-14,48,18,20,-7,23,-67,20,-21,-5,-15,20,8,-7,64,33,-77,-77,-38,-127,-38,-49,-62,1,15,-67,14,-5, 
  /* [34][0][][] */ -107,5,18,-19,-127,0,-35,19,17,-10,-73,-19,-40,-70,-12,-29,-5,-49,41,-19,-81,11,-21,-5,-42,-54,-34,-78,49,-74,-2,-9,-100,14,3,-17,-22,-10,-24,55,22,3,-50,-21,-71,-83,-7,-5,-105,-70,44,-61,54,-24,-27,-32,-58,-39,-17,-8,20,60,42,-111, -46,1,-20,-12,-38,8,-96,-54,-68,-2,-41,-65,-51,-97,16,-44,-31,-14,38,-44,-19,8,-82,-52,5,-44,24,-19,52,11,-47,6,-25,-81,-55,-63,5,31,-60,-18,13,-30,46,-32,-72,-35,11,10,-98,9,32,-38,-6,-51,-63,29,-76,-21,-81,44,-39,-15,20,-35, 19,-32,12,-58,84,49,-49,-61,-36,19,-22,31,-92,16,-15,-18,-37,36,-51,-57,-54,9,-38,-58,9,-59,-28,3,-83,8,15,13,-35,-52,-29,-41,-42,-16,-13,-19,-24,-45,-23,-14,1,52,21,11,-27,-54,-28,-6,-4,-60,-37,3,84,-52,32,14,67,-17,39,64, 
  /* [35][0][][] */ -70,-54,-27,11,-2,5,-67,-18,-8,-27,-60,-31,-49,-80,-5,-25,16,-2,-94,0,-6,-48,-22,-26,7,-1,-53,-90,2,-23,-91,-87,-68,-96,-65,-86,-77,-64,-108,2,-25,-34,-59,-10,-2,26,12,-97,-86,7,-39,13,-18,-47,11,-78,-65,-2,-35,-32,12,-13,-63,-47, -35,37,-74,-63,-92,-31,-46,-81,-12,-127,58,12,-64,-3,-32,-74,-25,-100,-84,-47,-111,-82,-36,-52,-75,-1,-39,-97,-13,43,-21,21,-70,-38,-34,-34,-25,-11,-47,-32,-98,12,-74,-73,30,1,-87,-80,-8,-8,-77,-39,-28,-22,-19,-22,-106,-19,-23,-20,-20,-83,-9,-25, -113,-34,-40,-44,-22,-36,-96,17,-20,2,-6,-1,-2,-50,-93,-50,-4,-84,29,56,-97,-83,-51,3,-107,-51,-39,-98,-44,-40,4,-71,-55,-57,-88,-64,-15,-26,-10,-85,-55,-59,-23,-72,0,-25,13,-39,-15,-54,-81,-33,-42,47,-36,-22,-69,-29,11,-62,-13,-50,19,-15, 
  /* [36][0][][] */ -41,-16,7,-4,-4,-12,-32,-8,-70,22,-8,-20,-32,-16,20,-30,1,-9,-9,26,27,15,-41,-8,3,-19,22,-40,-39,-41,-49,-24,-25,-49,-24,1,-56,3,-124,-48,34,11,37,18,16,5,7,-4,-10,0,-13,-28,12,-36,2,21,-27,10,10,23,-5,8,4,4, -22,-12,2,6,-18,9,28,-19,-45,28,-31,-42,30,-46,1,-14,-16,-91,-2,19,16,24,-37,8,20,-9,12,-10,-55,-33,-25,6,-7,-37,-19,-10,-77,-7,-81,-45,16,4,21,6,-8,-4,11,6,5,1,-6,15,-14,-59,8,12,-64,19,0,-3,-8,-8,17,-52, 51,-4,-20,28,53,10,-33,25,1,-23,-58,-93,24,-45,2,38,-13,-68,33,5,7,-15,-22,22,10,-51,18,-5,-48,9,-6,10,-36,22,-59,-5,-127,-58,-44,-77,8,-1,-42,-26,-17,-6,0,17,5,-10,12,21,14,-34,9,-20,-27,-38,-27,6,26,17,-13,-59, 
  /* [37][0][][] */ 3,-80,14,6,22,-6,5,3,-68,8,4,-14,-52,28,13,16,13,43,-127,-11,24,-41,-75,13,19,-2,-2,-10,-54,-110,-20,-18,6,-62,-7,-62,7,20,-42,23,4,14,-1,-9,5,-61,19,10,21,-20,15,-11,29,-7,5,-27,-56,22,7,-46,4,-44,31,-12, -32,-23,22,0,-11,-59,-36,12,-35,-6,-7,-9,-38,5,1,-29,-23,-4,-26,0,23,-25,-25,-11,-16,-12,-28,-14,-83,-68,20,-14,-28,-55,-40,-60,10,5,-30,14,-17,24,10,32,23,-15,14,-44,20,14,2,-13,7,-41,-39,-15,-49,17,-5,22,5,-46,5,-3, 5,5,34,-8,15,-12,-18,0,-72,30,-21,24,-15,22,-6,25,-12,14,30,55,13,-4,-2,-1,-8,5,-24,4,-53,-11,-9,-5,-66,-65,-17,-57,30,28,-37,35,-24,5,-2,14,27,22,6,25,-2,59,-4,4,-27,-12,-45,6,-38,-11,-8,-5,25,-32,14,39, 
  /* [38][0][][] */ -31,22,-87,-14,7,-14,-7,-10,-12,-29,-28,-4,27,3,-33,52,-13,1,26,13,2,-8,47,20,-13,-6,14,12,45,37,-44,19,-17,-6,14,-14,3,-9,28,-12,-27,-29,-7,-13,-62,20,11,13,-62,-15,-8,10,5,-3,-46,18,34,-11,-5,10,13,-12,-35,23, 5,11,-127,-8,37,-5,8,6,0,12,-8,-4,13,8,-50,36,-18,-35,12,12,-5,14,25,2,-23,8,-16,20,8,28,-7,-14,5,-8,5,-18,0,18,8,-22,-30,-26,1,-18,-43,14,16,11,-35,-30,-9,40,-2,10,-50,9,23,-21,17,-6,20,12,-18,40, 8,19,-69,22,3,-19,8,7,-11,21,11,16,45,35,-66,12,-10,13,11,18,19,-1,18,15,-13,5,-30,4,-30,-31,0,15,7,-25,6,-13,-5,0,-7,-10,-12,-28,4,-35,-46,21,-6,26,-19,-11,-50,-26,27,14,-69,-3,21,13,1,24,-4,2,-12,3, 
  /* [39][0][][] */ 22,32,-13,-25,-17,-8,-70,-64,30,-55,0,-40,-56,-7,-45,-11,-74,36,-100,4,-83,-127,20,-58,-82,-47,-65,-12,22,-76,16,-28,-57,31,-46,59,-37,-31,18,-69,-86,-86,-38,-49,18,31,10,-38,24,34,-4,14,-21,1,-14,31,28,-91,3,-80,-6,-39,-47,5, 20,24,22,-31,-35,10,-68,-38,-5,21,3,-15,-33,-9,-113,1,-59,13,-36,22,8,-101,28,-19,-76,-47,-86,-9,-23,-52,14,-15,-70,-30,-41,-23,-30,-30,-1,-17,-90,-61,-49,-42,-8,28,17,8,-3,-16,-28,18,-52,28,-60,-4,-20,-51,-12,5,-10,-41,-65,20, 6,15,28,-16,5,38,-72,-40,-69,24,43,0,-1,25,-71,34,-28,-11,-36,51,-33,17,30,-26,-29,-32,-63,9,-54,-23,21,4,-107,-111,-32,-71,19,-32,-6,-6,-85,-79,-19,2,-25,36,44,15,-2,-97,-51,49,-27,-28,-86,16,19,-24,-9,48,10,-11,-8,-10, 
  /* [40][0][][] */ -50,-1,-43,-38,10,52,-93,-5,-23,-38,-21,-20,-35,7,37,-80,-74,-67,-42,-78,-70,-42,-29,-51,8,-34,-36,-47,-55,21,-18,-35,-32,-13,-87,3,22,-43,-16,-23,-14,-33,14,-34,-28,-63,-46,-107,-41,32,-9,-15,56,-13,3,-53,-56,-98,-40,-31,-1,-15,-3,-28, -44,-22,-74,-31,-75,-24,-31,-28,-12,-43,-4,17,-30,-90,-38,-35,-72,-57,-10,-49,-6,-43,-52,-46,-59,-24,-55,13,-123,31,-46,41,-39,-7,-46,-41,11,-106,-114,45,-30,33,78,-35,-23,-105,-58,-64,-31,-63,-25,-7,25,-14,-57,-51,-38,31,-21,-14,-83,-52,11,-85, 8,-92,-23,12,-6,-47,-95,28,-11,30,-56,37,-2,9,-3,48,-18,10,-10,-53,-49,-79,-87,28,-48,-9,0,-6,-37,12,19,-66,-14,-20,-27,17,50,-71,-31,-12,-45,-34,-26,-99,9,-127,-40,-99,-56,3,18,2,-22,-77,-46,-47,-62,5,33,-32,-72,25,-34,-42, 
  /* [41][0][][] */ 34,-52,-6,2,25,10,-57,-26,-21,11,-26,-32,-3,-7,-23,13,37,-9,11,-38,6,34,-1,-3,31,-80,25,38,-38,43,-21,29,-36,14,-37,-30,-1,-34,-12,-20,-18,10,45,32,9,-25,-11,9,-4,-22,14,19,-18,-48,11,-48,-80,33,-54,-1,11,-10,40,-52, 27,-55,4,-6,-3,20,-42,-24,-26,9,-29,-53,-51,-63,-54,-29,-36,17,20,24,-9,-1,-11,-4,18,-87,-7,20,7,43,-11,41,-79,8,-103,-26,-53,-34,10,-56,-38,6,15,34,-37,-31,-30,-5,4,-35,-7,2,-12,-85,16,7,-16,-29,-8,-36,-9,6,-5,-12, 29,-17,8,10,-25,37,-66,25,0,-45,-22,-63,2,-63,-103,-40,-81,-6,13,17,-36,-44,27,-22,-31,-127,-13,-22,7,-3,29,19,-107,31,-91,5,-100,-47,10,-51,-55,-35,-8,1,-93,-44,-11,-31,-31,-26,-21,-36,8,-74,2,8,23,-15,-11,-55,15,-14,-34,-52, 
  /* [42][0][][] */ -8,18,-79,22,82,-123,24,24,-22,-29,21,-26,11,-4,-58,-2,35,5,8,-27,-5,-83,7,-14,-60,19,-60,-35,-64,7,-17,16,-56,-81,25,-14,-54,9,-48,33,33,-29,8,-9,-20,-30,32,-1,-68,-48,-56,-110,-14,9,-41,9,-73,-6,10,-21,-46,-26,-90,-9, -10,-37,-80,29,1,-59,-127,14,55,-97,-40,13,-14,31,13,47,-38,31,10,-1,17,10,30,40,-3,-78,23,2,-37,3,-90,-59,6,17,-124,45,-109,-77,-31,-87,7,-53,-26,-47,-31,23,-28,56,-84,29,-39,-76,-35,-74,7,-29,-2,-25,19,48,26,-12,-37,-31, 34,-12,-20,21,-23,26,3,-98,2,-37,-25,-49,-74,-48,-5,44,-63,-26,-48,-3,-33,18,-21,1,36,-1,3,31,19,27,-48,33,54,52,-41,-16,-84,-13,33,-85,19,17,-57,-29,-2,-15,-41,-22,-7,61,20,-64,24,-46,17,30,17,-70,-67,6,16,15,15,-15, 
  /* [43][0][][] */ 11,-26,53,-3,3,-16,-55,0,-28,-34,-23,-75,16,-77,10,-60,50,38,-26,46,31,-50,9,-38,-50,-78,-6,-80,-25,-22,31,-15,-59,-42,-6,-12,-84,-42,-2,11,0,-34,-23,-60,-5,26,-17,38,-14,-6,43,0,-30,-61,-24,8,-25,-44,-70,-61,-18,-7,-56,0, -23,-43,22,-37,-1,-36,-102,-24,31,-43,14,-26,1,-3,-12,-28,-4,-6,-14,7,-19,-9,-21,-47,-44,-22,-6,-19,-33,20,-2,-32,-48,-24,-46,-30,2,-5,-24,-43,-22,8,-10,6,4,21,-15,-9,-15,3,4,-11,-50,-119,-1,-18,-49,-25,-82,-6,-12,-33,-31,-22, 11,-58,47,-6,58,10,-127,-39,44,-4,-1,-9,-33,-11,22,26,-13,5,-23,14,18,19,-57,-34,-27,-55,-33,42,9,29,2,-43,-4,-23,-23,-30,-67,-4,17,-44,21,43,38,10,34,33,19,-24,6,5,-24,32,63,-85,-30,-5,-99,-10,-13,16,-44,-9,27,-94, 
  /* [44][0][][] */ -4,-63,19,-43,5,6,-35,-56,-11,8,-94,-27,-6,-2,7,-5,-53,-70,-66,-9,-39,-24,-35,-1,-36,-60,12,-2,-72,-56,-80,-68,-27,-33,-89,-56,-43,1,-7,-79,0,-16,-58,-55,-5,-46,7,-53,0,-28,-36,-90,-49,-49,-41,7,-56,-14,-49,-12,-32,-5,-4,-16, 8,-31,-35,-54,-36,-25,-16,28,-40,-34,-61,-28,-49,-28,-12,-39,19,2,-17,-23,7,-23,-29,-53,-37,6,-45,-24,-55,-39,-24,4,-26,-14,34,0,-38,-23,3,22,-7,-13,-12,-24,-35,-17,35,-37,-27,-20,-50,-23,-34,-56,-43,-25,-71,0,-75,-81,-78,-48,51,4, -33,-17,8,-12,-18,-30,-33,-20,-4,11,-34,-4,23,37,-54,-48,-52,-32,-42,-93,-56,-18,-40,-56,-11,3,12,-14,-61,-18,-67,-68,-23,-46,4,-9,-61,-26,-47,-15,-51,-83,-59,-34,-20,-62,44,-28,-60,-20,-35,-34,-47,-39,-7,-54,-63,38,-127,-2,-29,-35,-38,17, 
  /* [45][0][][] */ -21,16,7,-13,-22,48,-108,-5,-10,16,-52,-69,-21,-41,19,8,-50,-25,-3,-30,-7,8,29,20,15,-127,28,42,-35,-14,18,25,7,-25,-71,-59,31,-42,-15,-28,32,20,8,12,30,4,6,-44,10,18,5,32,-40,-105,16,18,-15,26,-38,26,-6,-11,23,-81, -31,0,-4,9,-4,-6,-65,-26,-1,-19,-44,-50,-17,-28,-1,-8,-49,-80,1,-22,-19,-4,14,4,0,-83,4,-13,-38,14,-7,-7,35,11,-63,-29,15,-81,-5,-32,-35,-14,36,21,-23,-28,-18,-11,-16,-8,-25,-1,-67,-40,-8,10,-38,-30,-57,-8,-13,-9,2,-23, -75,10,-37,1,-2,24,-74,-41,10,-3,-58,-82,-19,12,-12,-37,-37,-117,33,-60,-59,2,12,2,-16,-75,-2,8,-17,-22,-5,-14,-15,22,-55,11,-12,-94,-4,-34,-37,-41,-15,14,-45,-37,-100,-4,-18,7,-39,-59,-68,-90,2,27,-3,-101,-103,-8,9,6,-53,14, 
  /* [46][0][][] */ -36,-9,-8,18,-32,-2,-48,-4,36,-3,-66,24,-7,-50,21,-8,1,-22,28,-46,8,-47,-14,11,-75,-61,38,12,50,32,-86,-49,10,16,-29,3,-7,-15,3,-14,37,29,-13,20,-15,12,-11,17,-58,17,20,-34,30,-11,27,-56,18,-25,20,-103,0,11,-15,-7, -29,18,-2,1,-77,9,-44,-43,3,-34,-56,4,-29,-79,12,-2,-8,-10,11,-20,-35,-62,-1,17,-70,-60,-10,-32,2,7,-40,-68,-13,12,1,19,-38,34,14,0,-12,11,-11,13,-63,2,-31,6,-60,-23,-4,-30,13,-20,-13,-20,8,-67,-17,-81,17,-3,12,-4, -3,-7,18,-57,-71,2,-8,-66,-4,-26,10,-26,2,-47,-5,11,1,25,-21,7,8,-43,0,-26,-127,-41,-21,-75,25,-16,33,-38,4,9,36,10,-30,-1,-5,-40,2,-53,-33,-35,-77,-16,-48,41,-49,2,1,-29,18,-6,-24,38,29,-22,-25,-17,7,-13,-27,23, 
  /* [47][0][][] */ -41,-6,29,-41,-6,50,-24,-64,9,-12,-4,-3,-11,-42,22,-27,-15,4,-34,1,-56,23,8,-6,12,-8,28,21,35,20,-22,25,26,14,19,27,13,-11,20,-14,19,58,20,1,-13,-126,-124,-61,-6,21,12,-20,14,-9,12,-26,-84,-25,-127,42,-36,-26,27,-40, -43,12,18,-96,14,-12,-34,-61,5,-15,9,14,-51,-38,18,-46,29,21,-22,-3,-24,31,-56,7,12,3,21,-4,3,-59,-3,17,37,20,-6,20,-6,-1,-1,-31,4,13,-17,20,-1,-52,-16,-25,12,9,13,0,-20,-27,13,-14,-17,-24,-104,3,-51,0,2,20, 14,15,25,-62,-4,-87,-8,-56,-20,12,26,-1,-52,-39,23,-44,6,36,-22,4,10,-12,-53,9,-3,-4,15,-4,-12,-60,25,9,20,17,20,0,-35,-3,-13,0,12,3,-17,-2,16,-21,2,-29,19,17,48,-12,-23,-46,3,13,10,4,-48,-1,-62,-18,8,26, 
  /* [48][0][][] */ 54,46,-21,9,24,7,-82,19,38,9,13,21,19,2,-13,-26,-43,46,-9,-15,-8,-8,-6,4,-23,-57,-15,15,40,-11,-85,-8,41,-75,-46,31,-27,-30,-49,-33,-11,11,12,12,15,-25,8,-1,11,20,-62,2,5,-38,3,-30,26,17,18,11,34,-3,-1,-15, 18,-1,7,-1,34,29,-53,7,3,10,-14,28,-5,-12,17,-33,-54,-68,-20,-24,8,19,8,25,4,-40,-1,13,-5,-18,-79,10,18,-110,16,-43,14,-3,-122,13,-4,8,-3,20,2,4,-2,8,11,2,-35,-14,15,-55,5,-80,-9,-1,-7,10,-1,4,9,-4, -9,-7,11,5,-5,17,6,17,5,25,-23,-2,36,-45,18,5,-65,-63,-2,2,14,23,-2,17,-15,1,-1,19,-29,-27,-59,17,3,-75,10,-42,15,-7,-85,7,27,11,31,15,7,-1,22,9,4,2,-45,-15,39,14,21,-127,-3,9,-16,25,-21,20,16,13, 
  /* [49][0][][] */ -108,32,-1,17,60,-50,-7,-5,-48,57,-68,13,4,16,-73,3,14,-29,-21,-46,-47,-53,-8,-59,-68,-3,-68,1,-50,-6,-5,-21,-3,37,-1,20,48,57,-2,39,-84,29,4,42,-60,-51,-27,27,-34,-27,-67,0,-34,-1,-38,-45,-55,26,-20,-40,46,-11,-26,36, -18,-1,-43,33,1,-71,-17,-1,4,21,-1,-14,12,-7,-91,-86,14,13,48,-17,37,-21,-3,-16,-15,-26,-10,-20,6,-66,19,3,-65,-32,1,35,-79,5,1,-84,-23,-48,-15,-7,-37,-43,30,-5,-37,-117,-127,-17,-39,-28,-16,-14,-34,5,-10,-16,-28,26,-66,-52, 34,55,-6,9,-24,-31,-23,-26,12,1,-9,-40,20,-41,-103,-32,-66,-80,40,-6,-5,25,5,21,-9,-79,9,-9,35,31,-15,53,41,36,-39,-21,-96,-84,-3,-60,21,-47,-13,-17,-112,-40,37,5,-36,-35,-87,-72,-6,-37,-31,-3,19,-58,-19,40,-7,33,-92,-60, 
  /* [50][0][][] */ 30,-4,-17,0,-50,-8,24,-21,-6,32,9,-13,-53,-2,-8,-3,3,9,3,-2,24,-80,3,10,-11,2,-34,-38,-25,-17,0,3,-30,-70,-22,-62,-6,14,-7,3,22,36,41,29,-30,-22,34,-44,-23,-44,-12,-37,33,16,-24,-28,-3,-17,11,20,-66,26,-32,-15, -17,12,-79,-29,-32,-52,-23,-44,-19,-9,-23,-30,-50,-18,-71,-11,-25,-42,-8,-30,-55,-51,11,-26,-17,-12,-33,47,-24,25,-59,15,-25,9,-29,-61,1,-5,35,6,-14,-8,-13,3,-115,-9,-11,-45,-36,-44,40,-10,-25,-3,-56,6,22,-73,-23,11,-29,13,-117,2, -21,18,-126,25,-10,-72,-4,17,12,-22,-42,41,-60,33,-66,-36,-5,-45,2,14,-32,-54,16,-16,-89,-25,-50,31,-13,-2,-47,-8,12,0,-60,-32,23,-4,8,-11,-24,-34,6,-5,-99,20,38,-41,-58,-51,-15,-22,-52,-1,-66,-14,14,-53,31,1,-26,-72,-127,16, 
  /* [51][0][][] */ -5,-48,10,9,-31,1,13,5,-46,-5,-10,27,24,-11,-16,-26,2,-8,12,2,8,7,-127,-5,7,21,12,-7,16,-1,-19,-6,20,-28,10,-42,-3,0,-62,-2,24,23,1,18,5,-13,1,-29,-34,-19,-8,1,21,10,-38,-36,14,26,1,-21,-10,21,15,8, -14,-85,-3,-5,-4,-19,22,-22,-92,17,25,15,-5,-3,-21,24,32,-19,-14,26,-11,-2,-87,1,-23,19,-25,-82,6,3,-5,-17,-56,-53,16,-72,18,21,-25,14,-8,18,1,16,-4,39,-3,19,-37,-23,4,20,1,29,-82,4,12,-18,13,22,-9,5,2,34, 11,1,-18,-18,17,-4,12,15,-125,0,10,-9,-4,5,7,5,9,-19,-11,24,3,11,10,-13,-7,20,-79,-50,-28,-23,-26,3,-75,-15,25,-13,-3,12,11,4,-33,-19,0,-12,1,8,-6,-1,23,-21,-10,-6,-6,18,-35,-2,-18,2,-8,36,-6,-13,-30,-8, 
  /* [52][0][][] */ -10,8,14,2,-11,-26,-60,1,-6,11,-44,-11,21,-31,14,-12,-45,-52,11,-26,2,-66,-13,17,-8,-41,5,-11,26,16,6,-41,-13,-18,-21,-9,5,-35,4,-9,5,13,20,4,-5,0,2,-30,-127,16,3,-35,2,-28,-1,-20,5,19,-4,-8,-95,11,8,-8, -71,7,-17,0,-51,-72,-76,5,8,2,-39,-22,4,5,4,-27,-22,-41,13,-39,3,-90,-8,5,-14,-58,18,20,7,7,-6,-29,14,15,-9,1,7,-49,9,2,9,11,10,-1,-5,15,-1,-1,-78,20,7,-45,-16,-11,23,-3,-5,12,15,-38,-106,-6,-10,6, -80,0,0,31,-56,-60,-119,-36,16,-6,-8,-6,-18,12,5,-24,13,-2,-3,-13,-12,-114,10,7,-42,-85,8,22,12,18,-13,-33,6,7,-27,17,5,-53,26,28,6,1,7,8,2,26,-5,-3,-51,5,15,-54,-14,-21,14,14,10,-42,-8,-40,-68,-3,-12,41, 
  /* [53][0][][] */ -21,3,0,16,-97,41,-13,-34,16,-35,-39,-29,9,25,-68,14,-55,-76,27,-38,17,-19,51,-42,-26,-57,14,-31,25,26,8,-18,-34,-10,-47,-14,-3,-70,-13,-13,-50,9,10,63,-73,8,-24,26,-82,-75,-23,4,-45,-11,-37,25,33,-1,-38,19,11,0,-36,-7, -14,-62,-19,-51,-126,14,-21,-127,35,-14,28,-3,-38,13,-52,44,-105,-123,15,-2,10,15,0,-46,-17,-16,4,-2,-8,29,13,18,4,-19,-50,-1,0,-69,27,-43,-21,-3,3,-18,-37,-31,5,8,-47,-32,-23,24,-42,-19,-27,-1,-11,-82,-11,15,-14,-13,-4,-49, -85,-6,13,-64,-59,-5,5,-104,4,5,21,-22,-65,-10,-34,-3,-45,-52,-34,28,-54,20,-5,12,50,-2,-19,16,-15,-6,-4,40,42,15,-30,1,-45,-84,23,-56,-6,31,15,-6,-31,-65,-58,-107,19,56,1,-36,-44,35,16,-17,-107,-83,-45,29,-66,-68,28,-96, 
  /* [54][0][][] */ 54,23,-45,-18,21,16,-72,28,20,-16,26,38,19,-15,-127,10,-32,-12,24,-48,41,30,23,52,-28,-52,-58,-25,-4,-45,31,-23,-60,8,-19,10,-29,-54,2,-55,-69,-59,-28,-60,-9,-5,4,-15,-47,26,-51,-20,-23,-39,-100,-1,28,25,-12,-23,15,-11,-11,-20, 3,-6,9,-11,-5,16,-1,5,-20,-33,12,-9,44,-27,-72,23,8,34,16,-58,-41,-5,-10,4,-97,-24,-4,-60,1,29,16,2,-44,-1,3,-24,-21,9,-22,-36,-36,-36,-7,-58,14,-5,-9,-21,-73,-11,-11,0,-14,-6,-61,3,-17,17,-17,0,20,49,6,-15, -19,-51,3,-18,-5,37,25,-35,-65,-25,12,-1,-35,-30,-27,40,10,29,-3,1,-71,6,15,-101,-39,-1,-31,-16,4,-47,18,5,-68,-29,2,-45,1,32,1,-5,-100,-45,-38,-71,-36,-6,1,-15,-82,-18,16,-51,-67,-29,-45,-12,3,-47,-2,4,12,-49,-30,22, 
  /* [55][0][][] */ -54,14,-1,-74,21,-38,13,-30,-46,9,-37,-71,-3,8,-36,-22,-33,-57,18,-3,10,-21,-2,47,-44,0,-40,-3,-55,-29,-24,54,-51,-1,-113,-84,-1,22,7,-73,-13,-43,-14,-95,-12,-1,-13,-54,-66,-46,-74,-76,-15,15,-88,17,-103,25,7,35,-25,-2,-40,-91, -45,-10,-17,-55,-30,-56,-7,-42,-11,-2,-42,0,-67,0,-6,-53,-8,-29,6,36,-52,6,14,8,-41,-14,-9,27,-42,-26,-53,3,36,-8,-122,-48,-18,-7,37,-98,18,-6,-30,-60,-26,-48,38,-31,-52,-52,-38,-36,-117,-29,-75,1,-3,37,-18,6,-77,1,18,-9, 36,11,-31,-41,6,-83,15,-18,-47,-7,-82,27,-31,19,-9,26,-26,-41,3,2,-39,-42,10,15,-44,24,41,16,37,-4,-73,42,-29,-18,-17,-21,-13,28,24,-75,-23,9,-6,-34,-127,-25,-32,-39,-67,-78,-39,56,-16,18,-81,-4,4,-46,27,-43,-2,-30,-34,37, 
  /* [56][0][][] */ -67,-48,-5,-17,48,14,-23,29,-48,4,-10,-47,32,-100,-34,10,26,-29,-13,19,-72,21,-42,-90,26,-38,3,-78,-86,-59,-11,-62,-27,57,24,-3,-53,-39,-47,-25,-127,-69,-19,-33,-11,-38,-60,37,21,34,38,9,33,16,11,-96,-82,-46,-82,-84,18,-19,38,6, -13,-57,-46,-32,38,-13,-13,44,-21,8,-105,0,-51,-109,-1,-118,72,-8,29,-75,-2,-48,-74,-33,-25,-98,21,-38,40,-44,-31,-55,25,39,-23,35,-49,9,-59,-77,-97,-27,-53,-31,27,-68,-33,-9,-35,36,8,-91,-6,-64,27,-51,-3,-62,-67,-68,23,-52,24,-52, 55,56,-31,-46,-11,-68,-31,25,15,16,42,57,-88,-51,-104,52,-23,-4,-57,17,13,-72,-44,-4,-76,-95,-34,-87,60,-102,-86,-60,42,-3,-11,22,-90,-11,-79,-23,-44,-14,-8,-6,2,-120,3,-96,6,4,29,-63,26,-13,-17,-80,-12,-26,-47,-54,25,-31,55,-35, 
  /* [57][0][][] */ 2,36,-33,-48,-35,-86,-13,-30,32,7,-65,18,-12,2,-127,-19,-66,-73,13,-91,-59,-33,22,39,-77,-89,8,20,83,8,-61,34,20,1,-87,-13,-28,-20,22,-104,-39,-13,-15,-73,-28,-34,19,-71,-16,-85,-92,-13,37,-6,-4,-20,64,-55,29,4,-78,25,-13,-67, -56,-34,-59,-11,23,-69,8,-52,-28,-6,-109,8,-28,9,-55,45,-89,-95,-45,-8,-54,-58,-13,24,-9,-10,18,38,3,-26,-38,5,-31,-56,-49,-63,-52,-11,-4,-15,-89,-10,1,-43,-29,-9,-34,-33,-59,6,2,31,25,-15,-9,-40,17,-38,-15,-35,-26,-1,-16,32, -22,-49,-5,-24,15,-74,28,0,-99,-53,43,27,26,43,40,-55,-3,25,-7,72,-49,-36,-54,18,-77,32,-3,-5,-41,32,-35,-7,-30,-58,-11,-53,6,-8,-77,45,-29,-37,-4,14,15,-3,-35,23,-61,30,10,-12,-16,17,-37,-41,-40,-100,29,-5,-12,34,-11,80, 
  /* [58][0][][] */ -37,-35,-2,-9,-79,-78,-19,3,-68,6,12,-25,18,-34,24,-65,-32,0,8,12,9,-20,-99,5,-5,-8,-23,-84,-17,-84,-41,-31,-34,-37,-4,10,-41,-65,-28,-15,-6,14,-26,13,28,-8,-84,-21,8,37,-30,-61,3,-5,16,0,-31,3,-57,-7,-70,20,-20,-31, 33,-16,15,-43,-68,-72,22,-21,-18,-41,10,-67,-13,-26,26,39,-31,-30,14,34,9,18,-70,-12,0,14,26,-39,-29,-42,-32,2,-28,-19,-4,-44,-17,-7,0,24,19,26,-19,-8,8,17,-93,-1,-2,7,17,11,-26,15,2,-1,-55,5,-90,3,-66,-1,-4,8, 21,-35,-7,-22,33,-27,-72,-117,47,-58,-7,-89,2,-8,-6,43,-14,-28,14,19,55,15,-127,-6,-7,-62,28,62,-21,15,-10,-26,1,-2,-16,-48,-14,-9,-10,17,-5,-9,-14,-45,-9,38,-32,34,-2,-9,13,43,-56,-49,1,7,-92,20,-27,-14,16,-47,0,5, 
  /* [59][0][][] */ -10,19,-127,22,13,-13,4,29,6,-6,10,-38,-15,17,-56,7,13,-3,-7,5,0,-113,10,29,-113,-4,-30,21,1,5,6,10,18,-6,-10,10,-18,-15,12,-70,-46,-51,2,-2,-38,27,9,29,-18,-8,-4,-20,2,8,-14,7,-2,3,32,-31,-22,-8,-109,48, -19,8,-52,10,-28,-4,-78,1,32,-23,-56,-5,-16,41,-56,-7,-34,-6,11,-86,11,-40,14,8,-118,-82,-1,-1,-50,-3,-4,-11,-8,8,-67,31,-96,-31,16,-55,-7,-39,3,-4,-57,-16,-14,-6,-81,-24,21,-14,-3,-26,-16,-2,14,16,17,10,28,12,-72,-5, -5,5,-10,-18,-53,23,-66,4,-22,1,33,11,17,14,-112,20,-54,-42,13,-26,-20,27,5,-4,-60,-55,24,-19,14,-4,13,8,-16,-1,-100,-12,-11,-52,-7,-48,-20,-24,5,21,-74,21,21,9,-73,34,9,-24,24,-30,-40,9,1,-29,-18,33,37,4,6,22, 
  /* [60][0][][] */ -30,-15,-2,-1,-44,-70,-2,-3,-17,0,4,-2,26,6,13,-58,3,22,17,-4,-52,-73,-29,8,5,8,18,-6,4,-31,5,-36,-47,11,0,10,-30,-28,1,10,-19,-56,-18,-35,7,-15,-34,26,8,12,34,-13,-28,17,16,-4,-28,-5,-13,-5,-11,25,-24,-31, -9,-12,-2,-12,-49,-46,-14,3,12,9,16,-89,-1,-35,-14,-30,-17,7,-4,12,-31,-47,-20,-5,-8,-48,0,-5,8,-30,18,-10,-60,9,12,5,-10,-26,10,-29,-24,-42,2,-10,2,-45,-19,-3,4,10,14,-10,-20,-30,6,14,-31,-29,-46,-44,-23,5,-103,-58, 9,1,-8,-58,-71,-30,-44,-32,21,9,-24,-66,-74,15,4,-83,-9,-4,-17,-35,-22,-76,-20,-12,-21,-51,33,-8,12,-52,0,5,-23,20,-22,13,8,-16,14,-69,-3,-54,2,-20,7,-60,-9,-15,-6,16,16,-34,-42,-20,21,-2,-36,-28,-15,-77,-25,0,-127,-66, 
  /* [61][0][][] */ 28,-39,60,-20,-90,-58,-54,-51,-70,12,-40,61,-118,-62,-18,-28,-23,10,15,21,30,-63,-96,-107,20,-32,76,-64,30,-48,-42,18,-25,-12,-19,-98,24,-7,-25,24,-25,-5,-6,29,17,44,31,-33,27,-44,89,80,-56,-53,21,-16,-45,-37,-77,-31,-4,-3,55,59, 49,-24,-43,15,14,-3,4,22,-69,-48,-4,-59,-66,14,-80,29,16,-61,-12,6,9,-21,-4,-50,1,-9,-16,-26,24,-11,-21,7,-53,-25,-27,-90,8,53,12,-13,-51,-69,-11,11,-127,16,7,33,17,-88,-26,32,-17,-41,-8,-12,-43,-38,-22,5,-9,-115,-9,40, 38,52,-81,-5,37,-5,-26,16,20,-27,29,-1,65,10,-32,63,-57,-91,38,-87,13,7,36,19,21,-22,-25,12,-5,39,2,-11,73,-58,-35,9,-54,-28,-31,-39,-57,-33,-11,-60,-10,-72,32,62,21,-44,7,-40,47,-2,1,-60,-52,9,8,12,-6,3,-73,-52, 
  /* [62][0][][] */ 43,10,-74,-79,14,-35,-88,-66,32,-45,-22,-17,-3,-16,1,43,-91,8,-47,10,27,24,-36,-52,6,-80,26,7,-1,-18,-5,-4,-4,15,-43,-9,-27,-89,22,15,-4,-17,-64,-28,14,-1,-47,-4,36,43,17,11,-40,-127,11,8,-73,0,-71,-23,-28,-121,-46,7, -13,-9,-31,-32,23,9,-64,-3,12,-18,-23,-16,19,-3,-23,-10,-86,-47,-62,-4,-34,18,2,-4,9,-39,-2,23,-8,-5,-15,33,8,-9,-14,15,1,-25,-9,-27,-6,14,-19,-15,25,53,-33,-2,9,-16,-64,15,-24,-50,-10,-12,-58,-8,-93,-11,15,-118,-13,44, -75,28,6,22,26,18,-39,0,-16,13,-43,20,-21,14,-55,-8,-66,-59,-53,-51,31,6,36,13,-5,-15,-7,7,35,1,21,12,-1,-9,-1,-19,19,-27,-42,-5,-10,4,25,10,-8,14,34,48,-29,-40,-86,-16,22,-16,12,-29,-4,28,12,-3,33,-25,34,33, 
  /* [63][0][][] */ 41,-7,7,-97,49,12,-23,-8,-31,-16,-7,-1,19,-36,-4,54,-23,21,-37,-9,-62,-3,-2,-70,-13,-31,10,-17,5,-87,21,-12,-39,5,22,12,-58,-26,4,-29,-68,-127,-52,-60,13,-79,-59,14,16,-1,6,-19,-75,-13,9,29,-18,17,-102,-55,9,-22,5,-25, 15,31,43,-72,-7,-3,-11,-4,10,-37,20,-11,29,-48,5,38,16,-7,-15,9,-27,-50,23,-55,-29,-5,9,-52,-3,-48,8,9,-15,0,-17,15,0,-13,3,-39,-91,-101,-8,-121,-42,-79,-49,9,-4,-5,3,-39,-90,1,8,0,-51,-37,-90,-91,6,-66,-55,-36, -18,50,6,-35,-19,-30,2,52,31,30,-14,-75,31,-72,9,0,-28,0,-6,4,19,-69,15,41,-32,-10,15,-42,18,-4,-15,-7,5,-5,16,9,-42,-29,2,-33,-68,-9,-36,-114,-11,-67,-11,-30,-11,12,-9,-71,53,-12,-13,7,-9,15,-106,-112,-39,4,-73,-50, 
};
const TfArray<4, int> tensor_dimension12 = { 4, { 64,1,3,64 } };
const TfArray<64, float> quant12_scale = { 64, { 0.0093827228993177414, 0.0091021396219730377, 0.010234748013317585, 0.010320674628019333, 0.0043340735137462616, 0.0084883952513337135, 0.0091438069939613342, 0.011937492527067661, 0.0083631584420800209, 0.0085021806880831718, 0.010235646739602089, 0.010155566968023777, 0.0077789686620235443, 0.0069139492698013783, 0.0086680175736546516, 0.011311542242765427, 0.0081425188109278679, 0.0080565614625811577, 0.0080977156758308411, 0.0032342700287699699, 0.0085862921550869942, 0.0077007696963846684, 0.0078874798491597176, 0.0029938674997538328, 0.0087844943627715111, 0.0089510949328541756, 0.0088335778564214706, 0.0089033115655183792, 0.0084554590284824371, 0.0063095460645854473, 0.0080148437991738319, 0.010425761342048645, 0.012032406404614449, 0.0078200642019510269, 0.0075399065390229225, 0.0018519265577197075, 0.010335064493119717, 0.0079672075808048248, 0.0084990765899419785, 0.0093344720080494881, 0.0063030058518052101, 0.0097884833812713623, 0.0083219381049275398, 0.0079530384391546249, 0.0065931463614106178, 0.010035638697445393, 0.010638905689120293, 0.0084649976342916489, 0.007344590499997139, 0.007409342098981142, 0.0084793576970696449, 0.009535674937069416, 0.012644569389522076, 0.0087854033336043358, 0.010659736581146717, 0.0069217854179441929, 0.0082857422530651093, 0.0067921718582510948, 0.0090645337477326393, 0.0084018269553780556, 0.011114099994301796, 0.0067086964845657349, 0.008671722374856472, 0.010011843405663967, } };
const TfArray<64, int> quant12_zero = { 64, { 0,0,0,0,0,0,0,0,0,0,0,0,0,0,0,0,0,0,0,0,0,0,0,0,0,0,0,0,0,0,0,0,0,0,0,0,0,0,0,0,0,0,0,0,0,0,0,0,0,0,0,0,0,0,0,0,0,0,0,0,0,0,0,0 } };
const TfLiteAffineQuantization quant12 = { (TfLiteFloatArray*)&quant12_scale, (TfLiteIntArray*)&quant12_zero, 0 };
const ALIGN(8) int8_t tensor_data13[64*1*3*64] = { 
  /* [0][0][][] */ -21,10,10,41,-10,18,-72,-83,28,-89,7,3,-37,25,-57,-51,-47,27,-6,-3,-28,-4,-11,6,-90,48,-41,-55,-9,-72,28,61,-15,50,70,6,-65,-22,-2,59,-4,-13,27,10,-14,-16,57,29,8,47,-16,-90,7,61,50,-73,-1,-19,-106,3,-15,-21,-8,-6, -34,18,-36,7,8,-20,-11,-62,33,-45,-29,33,15,-3,-31,-10,0,-79,-26,-7,10,45,35,21,5,26,-12,-16,-51,-30,-27,43,-25,-23,34,28,28,17,-5,30,-94,5,33,-21,-29,-41,52,-8,-40,-16,39,-79,41,39,8,-66,29,-45,-44,8,-73,18,5,-13, 29,6,-113,37,21,-60,-75,9,-2,-15,-16,38,7,8,-104,-5,-48,3,-113,12,-43,15,27,21,-53,-7,11,-43,-70,-35,-58,-79,-5,-37,39,22,-73,-127,50,37,-16,-17,78,6,22,-62,42,19,-70,32,30,-45,-29,51,71,8,-68,12,-121,33,-70,12,6,-58, 
  /* [1][0][][] */ 20,-46,20,17,16,3,-24,21,-11,1,-43,25,-40,13,-12,-1,21,0,17,-11,-36,11,4,-3,-7,38,-40,-29,11,-22,45,41,27,-17,27,2,-17,-53,3,-1,-3,-13,-6,10,-9,12,40,-19,-4,14,22,-27,3,12,-48,22,21,12,-127,54,-47,-48,-29,5, 31,-21,24,0,-9,-10,1,-25,-9,-14,14,35,-30,8,-67,8,7,-32,-32,-10,16,-3,9,9,7,9,-32,-6,13,32,14,38,17,13,19,11,3,-18,-14,-4,1,-9,-20,-3,5,14,28,7,4,21,-28,-17,3,12,27,-7,14,26,-21,22,-29,-26,4,-27, 15,-33,-8,-26,-10,-19,22,-2,-23,-21,-1,-2,-20,-32,-10,-6,-23,22,-45,28,-33,17,-28,-16,-27,-4,-24,-1,-1,7,-8,4,-46,37,60,-2,-4,5,9,29,-12,10,-11,-2,0,-15,15,-8,-1,-17,12,-34,25,15,26,-23,39,14,-22,26,-46,-13,24,-66, 
  /* [2][0][][] */ -91,44,33,-75,-31,0,17,-26,-6,-2,-14,-14,-22,-74,-6,47,79,18,19,-35,-19,18,5,-23,-45,-7,-44,24,6,32,-35,-51,-58,38,56,-4,-5,22,-83,-1,-6,-1,-43,30,-7,99,-43,65,8,-15,-11,-66,44,-24,-81,-25,-83,-75,-31,-127,-18,-46,-15,-62, -42,-32,-14,-35,-19,23,72,-95,4,73,-25,-5,-24,-11,-34,-13,56,-2,13,-33,-38,-2,24,12,-74,8,-62,-4,41,16,-15,7,-51,15,-44,13,12,20,-33,-59,11,-75,-48,13,-7,30,-13,9,-19,-46,14,-54,74,-49,-46,18,79,-94,-8,-65,10,-41,12,-25, -46,-9,-71,-54,15,45,64,-95,31,43,-18,20,41,-15,-42,8,72,-27,28,-19,-8,-32,60,-9,-17,7,-2,-100,14,-40,-34,-89,1,48,32,6,4,32,-19,-24,4,-118,32,-2,17,31,52,22,23,-50,-97,-92,56,-67,63,-48,-15,-42,-45,-39,-22,5,-16,-42, 
  /* [3][0][][] */ -8,-16,78,-16,-11,-48,-37,2,-51,43,53,34,-69,-7,-119,8,3,-67,0,39,-49,19,-57,18,-75,-7,46,-9,-94,-92,-39,-27,58,-23,11,14,-29,-38,22,-47,5,35,-56,-26,5,-49,-57,-74,-22,16,9,-3,43,-25,-33,11,70,-3,-68,41,-59,27,-54,50, 7,37,39,-39,-22,9,-13,-30,-78,-14,43,25,-45,1,-22,-5,73,-43,49,4,-52,-18,40,-18,45,27,-24,65,21,-3,-17,31,45,-36,12,12,-13,-7,-10,-127,33,-2,-25,-2,-65,-69,-5,-23,10,3,-27,-50,21,-7,16,-23,-3,18,-40,60,-13,-28,-47,-16, -34,32,32,-35,-30,16,-47,26,2,6,54,0,38,12,-78,-115,4,15,37,30,17,-104,45,16,59,-9,-27,0,37,-117,-61,-40,62,14,49,-11,21,-47,-26,-113,-24,15,-6,17,5,57,-2,-40,56,-1,-18,-56,0,1,64,-43,-36,-23,-4,-30,-51,-49,-46,-34, 
  /* [4][0][][] */ -19,0,-5,37,12,12,15,48,-47,-61,40,-39,-53,-50,4,2,-43,-19,-63,17,-58,-26,-20,-10,-10,-28,-11,-1,32,-2,-5,8,-52,-2,-5,11,54,20,-40,-52,-23,-25,-54,-4,3,56,-60,26,-29,-7,-27,-37,-11,17,-29,13,13,7,-21,-77,-8,-71,-20,-19, -8,-69,-18,-16,35,12,-7,0,-72,10,57,-21,-11,-14,-50,-26,-64,19,-44,31,70,-35,-72,-4,-37,-30,17,-2,6,-38,35,-9,30,19,45,-10,-32,-46,-37,-14,28,-67,-3,-28,6,4,-3,30,-38,-28,5,-1,-32,33,13,-1,-12,24,-57,-37,-49,6,-36,0, -61,-18,-74,10,-2,-39,15,28,-35,18,-12,-26,-92,-38,-97,-83,22,-7,-110,-11,-34,-34,-24,0,-52,-22,1,-66,-36,37,-26,-18,-4,57,16,-14,14,-45,-62,11,14,-127,-1,48,9,-87,34,29,-50,5,-24,-3,-59,-17,-14,31,3,32,-31,3,-87,-51,12,-97, 
  /* [5][0][][] */ 17,42,51,8,28,41,17,-2,60,-40,-1,-11,-2,-6,67,27,-9,45,-53,30,25,-14,-10,12,-9,-68,-45,10,4,45,11,-13,4,-18,-114,2,-3,78,-78,-31,-12,54,42,44,-36,96,-8,-45,26,17,-81,-8,-95,-40,-13,-75,-127,-34,15,-77,-53,-18,47,-33, 73,13,15,30,-18,26,71,-52,3,-82,-6,-35,-92,26,4,-10,-14,-8,2,-38,-80,-15,-79,16,-17,13,-12,20,28,-99,31,41,9,19,65,-7,13,-30,-16,-3,-41,33,40,-8,48,29,-46,-52,20,-8,-115,-3,-75,-65,-115,-84,-77,-95,8,-28,-123,-37,23,-44, -28,-9,35,-7,27,73,23,15,107,-94,60,-14,-74,-24,68,-40,3,-40,-57,11,-28,13,-34,-12,-73,43,-10,31,5,8,-7,35,42,122,-44,14,5,-2,-12,-35,10,8,-44,-19,-1,10,43,-21,21,-82,-93,-86,-94,-17,-86,-68,-50,-79,-35,-13,-56,-60,50,2, 
  /* [6][0][][] */ -10,4,-19,7,2,-14,46,2,17,-17,0,36,-49,-5,-26,9,-15,11,-12,6,-10,-68,-37,10,4,43,-19,8,3,37,29,33,-6,85,-2,-12,-2,-18,-43,22,-37,21,-72,5,-16,-13,-6,27,0,22,-12,-1,13,-17,-74,-127,-21,2,-5,-30,-22,-48,-23,-52, -33,32,-11,-1,4,-23,7,-24,7,17,-30,27,-16,5,-17,-27,-13,-28,-36,17,-17,-11,-19,0,5,9,-16,-2,-22,-4,-4,-4,-37,44,11,4,-4,0,-9,-14,-11,-10,-2,-8,11,-2,17,-5,-8,-13,36,-12,1,20,-38,-40,-41,-23,-21,-10,-21,-3,-39,-40, 8,40,-37,31,-13,-25,-15,-31,34,-10,-12,32,-68,3,-8,-12,-70,-36,-76,1,34,21,-18,6,1,12,-1,-1,-25,18,2,-20,-45,53,6,-2,-47,-6,12,-39,19,-9,27,12,18,1,-24,2,-11,-23,52,-40,4,20,28,40,-20,-10,-11,26,-9,-26,-13,-22, 
  /* [7][0][][] */ 40,-32,-4,-29,5,-95,-24,6,-54,-26,-72,-63,-88,0,-42,-32,-38,-10,-36,-13,-16,-2,-52,16,-15,-32,3,-6,-101,-8,-109,-23,-40,-36,-21,7,21,-49,-29,-50,42,0,47,-45,36,-127,-17,-93,-88,29,14,3,-119,-1,-11,-75,-27,15,-32,-23,-3,28,-30,0, -56,-15,19,-43,3,-6,17,-13,-29,-12,31,-7,-20,8,-41,-22,38,-1,-13,-16,14,-8,-17,-29,3,9,-40,2,-13,13,-5,-22,-9,-26,-59,-9,6,-58,-1,-59,-45,2,19,-14,-20,-14,18,-16,-27,16,-10,-43,40,-7,21,-9,-22,-50,14,44,21,-5,-16,-56, -18,-23,-16,33,11,50,-4,-40,27,12,41,32,-3,21,-17,-72,-4,62,-39,-17,22,-48,21,15,10,-22,-79,-22,45,-31,13,1,33,21,16,-5,43,17,-37,39,6,-13,53,21,45,-34,30,-18,7,68,31,-25,-28,2,14,-11,-24,27,-3,9,20,-16,-16,0, 
  /* [8][0][][] */ 4,20,3,-32,7,-21,3,-31,13,-55,7,20,-8,-2,34,-127,-35,-67,-41,12,-15,-22,-18,-23,29,-10,-25,-90,-22,-54,-58,-108,-50,-1,19,-9,22,0,-47,0,-7,35,15,-4,21,47,-44,-4,8,3,-10,-7,-53,-42,-23,6,-9,-36,27,-90,24,-13,-13,2, -2,45,-22,10,-22,-9,-18,-25,7,13,9,-11,-61,46,36,-20,-50,-19,-23,-7,5,1,-9,-10,3,10,-54,-48,-28,0,-96,-42,-41,-10,-10,-13,6,-16,-8,-29,26,42,48,-6,20,49,-2,-13,8,19,-1,-51,-36,-17,-55,45,-26,10,21,-16,-8,-13,-34,-22, 29,16,61,47,-10,14,12,-25,17,16,25,-45,-10,22,41,-38,2,7,5,-17,-14,31,11,27,17,-13,-51,17,-6,-36,-10,65,40,9,-17,-1,42,-28,36,-5,-1,58,24,10,29,42,-12,-24,5,22,-46,-54,22,41,-35,-35,1,-51,58,12,-59,-34,9,-19, 
  /* [9][0][][] */ 13,-5,-7,-9,-12,26,-9,23,18,-30,20,1,-21,-8,34,-22,74,-22,-6,52,-6,-16,-62,21,77,-61,-50,84,-14,24,-96,-127,0,-37,-99,-18,28,-10,-33,50,82,53,-7,60,-46,36,-52,-22,16,-36,-6,-51,-62,-68,11,-18,33,-78,23,-124,46,19,-11,20, -44,-14,-60,33,31,22,58,-46,-29,19,66,12,-45,12,46,24,99,74,14,5,0,75,-53,-32,24,-87,-41,55,27,59,-10,18,-69,-64,39,10,29,-45,-11,-78,34,65,-60,33,14,-37,-58,-17,-10,-38,-25,-38,-127,-118,-33,-7,-31,-32,14,-72,2,-11,42,-20, 3,-38,61,14,-41,-2,71,9,28,-73,18,-45,-57,-71,41,33,57,40,-13,-26,-3,72,-21,-19,-16,-29,37,48,-8,91,16,40,0,-6,-39,1,-20,6,-12,-36,17,-4,-33,83,31,-19,-32,-54,-7,-49,-73,-101,-1,-79,-7,-24,-53,0,0,-86,-65,-19,65,19, 
  /* [10][0][][] */ -48,-68,40,20,38,10,-17,55,22,-47,-12,-52,-20,-48,95,43,-15,-12,-22,-15,67,0,7,46,68,-51,-23,62,39,6,-18,-17,-69,-21,-18,-21,-2,-35,-18,-12,27,49,-25,102,-39,-26,-78,-18,-69,-39,-83,-96,-82,-79,10,-37,-34,-62,35,-65,21,-14,41,31, 12,-28,31,37,6,30,-21,-9,19,-29,-42,-45,-93,-67,-6,27,-22,-17,-16,-48,21,-14,-32,28,21,-39,-8,42,35,30,9,14,46,9,9,29,-110,-6,7,-47,-57,6,-33,41,50,-8,-20,-44,13,35,-69,-95,-67,-43,-27,-29,58,-26,-13,-34,-47,-68,20,73, -67,-62,97,-9,11,7,2,44,15,-110,3,-91,-31,-62,26,47,16,-14,-27,-5,56,56,-48,14,-50,-3,27,45,-39,6,27,76,64,-1,-49,17,-127,2,10,-30,39,-65,-21,75,-16,18,28,-26,24,1,-89,-44,-29,-37,-85,-49,49,-37,46,31,-127,-23,18,19, 
  /* [11][0][][] */ -17,-20,83,37,-5,-26,-54,-52,-13,-42,35,-7,-77,7,6,39,82,19,0,4,37,-13,-6,14,-77,21,-28,37,8,-27,30,-3,-26,1,-2,-15,-19,-49,-1,-3,11,24,-17,1,-16,29,7,-42,-1,31,-40,-91,-8,-9,68,-20,-32,-10,-112,46,-8,-105,54,-14, 5,-23,72,-33,-3,-8,-50,-84,4,0,26,21,-27,-66,-49,-9,40,-18,10,-4,13,-8,42,5,-84,12,-14,-9,6,67,13,5,26,65,29,22,5,-79,4,-19,1,4,9,-33,-24,-62,27,-20,19,51,-24,-127,0,-1,8,-54,26,-40,-85,21,6,-100,42,0, -16,6,58,-36,15,12,-63,-46,41,-78,38,13,0,-79,-24,-62,53,27,14,-11,35,6,46,-2,-90,30,-26,21,5,20,22,-9,65,22,30,-9,11,-34,2,18,-51,0,-7,5,-6,-35,45,26,21,-8,-22,-63,2,-57,18,-103,16,-61,-35,21,-92,-26,34,-61, 
  /* [12][0][][] */ 39,-30,-80,-77,-9,-19,54,-35,-127,-13,-25,-85,87,61,-14,-48,-30,-4,40,32,-31,14,-10,16,46,-40,12,-10,-3,-29,-23,33,-7,-1,-64,-8,-48,33,-36,-60,8,-69,-28,-39,-6,57,-34,-10,-38,-16,-16,3,14,-85,-76,-66,66,-36,41,22,73,32,-15,40, 48,-46,-38,-21,1,26,47,6,-73,-4,13,-55,11,-14,-32,-10,-12,14,8,9,-11,25,-49,7,53,-34,15,-31,-18,-39,-26,-27,-12,18,-80,13,-43,-17,-28,22,-26,-40,-28,-1,-25,9,-27,-10,-26,-37,35,7,-2,-73,3,-84,-74,-32,19,-50,32,-13,-47,41, 96,-58,27,-42,1,46,16,15,-53,-1,-28,2,8,-7,-11,28,-65,24,11,-28,60,9,-63,10,61,-71,30,-60,29,10,-6,-25,-59,6,-24,23,-43,-48,-21,-75,11,49,9,-13,31,-15,-35,34,-27,-32,8,14,-31,-57,-13,-4,-39,12,56,-36,24,7,-9,57, 
  /* [13][0][][] */ 6,-8,-10,-65,-31,23,-22,10,-46,11,4,31,44,6,-13,2,23,19,43,-10,-65,-4,26,22,-59,-14,0,13,8,-63,1,-21,67,-26,11,-10,-1,-15,-8,24,-22,-7,-20,18,1,50,-48,9,15,-35,-112,-57,-35,57,-10,-39,56,5,-15,-27,-51,-33,-36,-24, 15,-18,-33,-28,26,17,-23,12,-7,-11,-76,25,16,-11,-54,32,-40,0,48,-4,10,32,20,-1,-31,-33,-33,15,-4,-35,33,-2,17,10,-56,1,27,-23,-4,-45,-82,-14,-68,-29,43,22,-34,24,6,10,-52,-81,-49,26,-80,0,-4,-13,-20,-16,-6,-36,-56,-35, -51,-17,2,-63,5,21,35,-28,-62,-62,-43,-10,51,26,-36,11,81,-14,25,-24,-12,32,23,-9,5,-36,-14,8,-23,-70,24,15,26,24,17,10,-26,-4,-30,-66,13,-62,27,41,14,31,-61,18,10,30,-68,-70,1,31,-127,-14,4,-66,-19,-48,35,-14,-53,-57, 
  /* [14][0][][] */ -3,-21,-38,36,17,36,-42,-14,-13,-47,60,-6,4,-7,-64,-45,-6,90,-26,-3,-9,19,-46,-19,78,-31,4,-29,39,11,-38,5,0,-75,-46,-1,17,4,2,61,-16,-20,40,44,-23,-75,28,-19,-27,18,21,-34,26,-17,7,-44,-127,29,-31,21,57,35,34,-33, -69,-53,-68,15,11,11,18,-19,-3,-34,60,-28,-13,7,-45,0,65,12,-1,7,-30,-41,-4,-21,46,-31,-8,32,23,-33,-29,5,-41,-27,-22,6,17,-14,-6,52,37,15,25,-1,-35,-56,11,-27,-27,1,-24,-60,-46,-9,-34,-38,5,-23,-17,38,32,43,-18,-22, -10,-33,-29,43,-17,32,-23,-37,-22,6,46,-21,-67,-35,-35,3,-83,44,-30,-19,-27,15,6,-12,36,-45,14,41,33,-53,-41,-2,-34,1,39,8,9,-18,-13,68,-22,-10,51,54,28,-58,-31,-45,1,-24,-11,-47,-76,-3,13,23,13,-5,-38,28,-24,48,-19,-13, 
  /* [15][0][][] */ 19,-37,-2,-50,-5,-17,-42,-78,14,-13,-18,-16,-27,46,29,-6,-33,-22,-26,-22,-87,41,-1,3,49,16,-53,36,-28,-51,-69,-65,65,-86,24,-23,39,-14,35,-1,4,7,-2,50,-44,-22,21,-51,26,10,18,-54,-24,-3,-6,-39,8,54,13,34,-14,-14,64,-62, 18,-16,81,-82,-7,-16,-24,-5,-26,32,-36,-31,-24,13,-30,-23,-57,20,-20,14,-27,-68,-7,16,82,-18,-21,5,-27,-28,3,-1,-15,61,-40,11,-2,-33,22,-69,-28,30,-30,43,-39,-20,2,-6,-2,-17,-21,-8,2,21,-47,-21,11,47,82,-37,16,-36,41,5, 19,-21,117,-123,7,34,-23,-48,-8,-59,-41,-50,-44,4,-22,-42,24,30,-26,-15,7,-56,-46,-15,99,-3,-31,-26,19,-37,-44,-127,-23,-15,-36,3,-3,17,-15,-69,-2,38,-54,-47,-10,-44,14,-21,31,-3,-68,14,-31,-99,-83,-66,-69,3,77,-47,54,-15,37,16, 
  /* [16][0][][] */ -20,-21,-19,-48,8,-45,1,-16,-41,-73,26,-63,29,38,-58,-60,-1,10,25,-14,-8,-57,-53,3,-23,10,-41,-76,-68,-42,-12,21,21,72,-37,10,57,-63,-7,0,21,-42,17,-20,-7,-65,55,-53,-35,-42,-102,-41,-77,-1,-75,37,-42,12,-18,-42,-17,-27,-11,-44, -35,13,-11,-9,9,-86,-24,-15,-25,-52,44,-94,-45,12,11,-51,66,-27,-13,0,-6,-21,-65,-13,-31,-53,24,-85,-43,36,40,9,27,16,-34,6,-31,-35,-13,-1,0,-7,-30,-13,-6,-72,-11,16,-14,4,-58,-14,-17,13,-12,-12,-70,-31,68,-127,13,-35,-46,-32, -30,-1,-7,0,1,12,-25,80,-12,-60,-1,-55,-11,-15,38,2,63,38,39,17,-5,-54,-25,0,-72,-22,5,-2,-7,14,-29,-42,27,7,-11,-12,29,-40,-70,10,3,-50,23,61,12,4,-32,39,-7,-60,-71,-19,-20,-24,-4,-23,-35,-11,13,-66,43,-37,37,42, 
  /* [17][0][][] */ 39,-19,-5,-105,-23,1,46,7,-22,10,-100,-22,80,16,12,9,-13,20,56,-9,36,26,35,10,-1,32,-5,-8,-1,-6,-37,-99,60,-86,-45,0,3,3,-27,-42,2,-14,15,23,-2,16,-34,-8,14,-17,92,-38,31,-26,-10,2,45,-9,2,24,30,-62,15,76, 35,-21,-30,-36,4,12,7,-19,-39,42,-48,13,5,15,-19,34,-59,9,3,7,-13,19,17,12,49,-28,-9,-17,-6,-26,-21,0,17,-98,-88,-13,23,-19,-31,-24,-27,-36,-21,34,24,53,-19,-6,-42,8,60,-43,18,-49,-17,59,21,31,7,32,33,-8,55,6, -125,-20,52,-79,27,25,-18,15,-77,-33,-81,2,28,-10,-76,31,-82,-32,-31,-34,-47,16,-99,-28,60,-36,-15,9,-54,17,-37,-54,19,-50,-28,8,-127,-59,-16,-82,-1,-8,25,41,2,36,-77,15,-45,-71,9,-36,9,-6,-22,79,-93,24,-24,-3,65,18,9,27, 
  /* [18][0][][] */ 34,-62,2,-63,21,-1,6,18,21,42,11,-4,-21,-43,-90,0,-1,-52,79,-38,29,-13,53,-57,-18,39,-53,-38,32,-16,36,54,-32,-20,-82,10,-47,-57,12,-4,7,-51,-63,-14,-18,25,-72,-18,-44,11,-56,-14,-127,11,-53,-2,68,-41,-125,8,-45,-41,-3,37, 49,-29,2,-53,-7,32,23,-5,-10,-12,-8,-8,15,-73,-15,8,29,-26,11,6,50,14,50,-14,27,-25,-27,1,20,-1,31,35,-5,6,-2,-12,-40,-44,-15,13,-38,-19,-51,13,13,29,-15,-24,-34,22,-16,-123,-59,6,-3,24,25,-69,-108,0,-60,-22,-42,-43, 46,-25,25,-59,-37,22,47,17,-79,40,-36,22,-2,-37,-17,13,-45,23,-21,17,26,30,62,26,-17,-47,-38,40,15,28,44,22,-50,78,20,12,-29,-28,-3,-29,-49,-29,-42,-3,-18,42,-54,-25,-20,39,30,-40,-59,21,-8,0,109,24,-51,57,-31,-14,36,-5, 
  /* [19][0][][] */ -44,31,53,-27,-1,-99,-56,-13,-16,30,21,12,-53,10,22,-127,-64,-80,23,13,-15,2,18,17,35,-13,26,-40,-65,12,-47,24,-26,20,-6,-11,17,23,-125,-27,61,-42,15,-32,-52,15,53,-74,-15,-10,-5,-6,29,-18,18,-31,40,-36,25,-26,-19,-58,-108,-7, 37,-14,20,-23,-12,-5,-30,9,9,14,6,-2,-49,13,-5,-46,40,24,0,-2,-17,-51,-36,-10,29,-34,-66,-54,-3,4,-68,-31,8,10,35,2,23,-23,-62,-33,34,-46,-60,-12,-14,19,-18,-11,30,-53,-17,-31,17,40,33,-6,-29,16,31,-75,-37,-28,-14,-38, 0,25,49,-28,39,36,-17,10,28,13,13,0,-10,19,14,-62,71,8,10,-23,-9,-73,-55,5,42,-3,-5,3,22,-73,-80,-14,-55,0,8,16,17,-27,-19,3,-53,-18,-40,1,29,13,17,-11,29,-51,-20,-43,20,32,0,-31,5,-36,39,-50,-60,-23,47,-28, 
  /* [20][0][][] */ 18,-110,34,14,20,47,12,10,-113,-108,10,-65,15,17,54,20,-22,-11,-28,-13,-35,-38,-11,-33,0,-25,39,42,4,-2,13,66,-3,15,-16,-4,-57,9,-28,-30,62,52,23,-16,-20,35,-8,-4,-69,-50,7,-28,-115,4,7,42,-33,-33,20,-1,12,-96,-1,68, 18,-11,-6,-9,-39,60,-55,13,-51,-23,-40,-75,31,25,1,16,42,-57,-4,6,-9,-18,-11,-24,24,-21,29,20,-14,-16,6,73,7,-4,18,-22,-49,-63,-26,-18,-70,-34,102,-13,15,13,20,-22,-31,29,14,-127,-21,-96,-13,33,37,-44,25,37,20,-72,2,30, -46,-1,4,28,9,62,29,10,0,-30,-15,-33,22,8,-6,25,7,10,-14,24,2,-27,-32,4,28,6,26,26,16,19,8,71,9,3,55,-12,-50,21,2,-4,-5,-37,34,-17,-28,-9,47,10,-13,-6,4,-125,48,-37,-69,42,84,-25,21,32,38,1,32,19, 
  /* [21][0][][] */ 18,-80,8,-28,10,46,9,-66,-71,-34,-79,-89,72,12,-73,21,8,2,32,-30,55,-3,14,-2,-23,8,-44,-49,-16,-15,3,48,32,-40,-9,1,-28,-26,24,-61,16,-45,12,21,-2,59,-43,-11,-34,-17,-28,-50,-92,-10,-68,6,34,33,17,-32,35,-34,16,79, 27,-63,-33,-20,11,-4,12,-76,-100,0,-21,-52,29,15,-19,-55,-56,-11,-17,-3,6,-21,-23,4,-63,-2,-92,-76,-23,-22,35,10,90,-95,-7,-14,-62,-49,2,-72,-37,-44,-31,-16,-16,68,-38,-55,-10,-20,-20,-32,-35,-25,-34,1,9,-13,-9,-17,5,27,-32,52, 24,-16,6,-46,-23,-74,-17,-127,-66,29,-79,-45,99,-24,-18,-77,15,38,-20,17,-18,-37,-27,5,-3,20,-47,-72,-53,-57,-24,53,82,17,-29,4,-30,-33,-79,-53,-4,-72,49,-3,51,69,-20,-79,-27,44,2,-18,3,-50,-7,-91,-12,-30,-18,9,-10,-38,-67,-41, 
  /* [22][0][][] */ -15,10,-40,-38,-18,27,-57,-48,-3,0,-12,9,-21,36,15,-127,54,22,-71,24,-90,-15,-75,-21,-3,21,-5,-43,-25,-10,-61,40,-27,38,-17,-1,-6,28,-37,-1,0,-23,71,11,27,-17,4,-24,-10,28,-8,13,-4,50,60,-15,-20,-28,-36,-61,-20,49,-12,28, 62,-3,-1,29,-17,-7,15,-81,4,31,10,16,-62,34,-15,-32,-59,-10,-57,3,32,12,-71,-16,-10,17,-7,-8,-31,-2,-16,-19,-71,28,-72,10,16,-29,-18,-39,49,-25,30,-62,34,17,4,-94,-59,24,33,-25,-10,46,-50,16,-56,-17,-54,-15,3,-23,4,14, -7,10,-50,2,3,14,56,-26,28,-1,13,41,-68,39,-5,19,-72,20,-34,27,-24,9,-26,-3,-46,26,33,-16,-11,17,7,24,-37,-31,-63,-4,-25,-75,31,26,34,-24,73,7,49,17,-17,-2,-78,5,46,-47,-42,62,-13,44,-79,-10,-74,26,-47,-21,22,-76, 
  /* [23][0][][] */ 34,8,-27,-4,-21,-25,43,-14,-11,40,22,-72,30,-47,-56,-23,27,-21,-10,-9,-35,-55,-56,-14,42,-5,-18,4,5,23,70,63,55,42,-50,-11,-39,-71,-32,52,-40,13,-56,5,-3,-26,-22,102,5,-18,-88,-55,26,-49,63,-30,52,0,-47,-10,-66,45,19,-2, 23,-21,-20,-75,-40,-90,18,-43,-31,-86,22,-84,-30,26,0,-53,-17,10,27,12,-61,-28,8,-36,-34,2,29,-67,-5,-20,-33,29,38,41,-1,-14,3,-28,-50,46,72,-87,-51,-29,16,-29,-40,-36,19,-33,-60,-14,3,-17,0,29,-9,7,7,-127,-96,11,8,69, 53,-99,-1,56,-1,-24,13,5,-34,-62,33,-115,-20,-120,40,-63,47,-11,-123,-39,-31,35,6,-11,-39,-63,-23,-95,35,-10,-86,-45,-70,53,51,8,23,-74,-37,-21,12,-95,-18,-76,11,8,54,30,-89,-2,-41,1,-100,-46,-13,12,-24,-35,-29,22,-109,31,-38,53, 
  /* [24][0][][] */ -39,-23,-58,29,15,-44,-9,36,-19,28,6,5,-66,30,-24,-69,-10,90,-23,-24,43,-12,37,0,59,33,-1,-78,-43,2,-25,12,-25,57,-4,2,-26,-25,28,41,-9,19,1,-11,-31,26,-6,-122,-8,31,25,-38,-20,24,-9,62,-79,30,-94,23,32,17,-68,9, 41,-67,36,-19,-10,-49,29,-1,21,0,24,-25,20,23,-43,-34,-87,90,33,-20,10,21,-37,-5,-2,9,25,-1,-58,-41,-27,58,-60,69,5,-2,-45,-13,21,-35,72,2,-11,-27,-57,52,-87,-26,3,-20,57,-11,11,16,-22,41,-56,64,5,-22,-17,11,-17,10, -3,-51,6,-31,24,-75,33,-72,-74,1,-20,-13,-74,28,-24,-56,-36,72,-36,25,18,7,-7,-37,-13,-120,-11,-69,-93,-23,-127,-14,21,-22,-49,14,0,-7,-3,-113,-54,18,-9,32,-22,-53,-2,-43,-11,12,30,-22,-98,-95,-5,53,-13,9,-61,-35,-24,-8,5,-18, 
  /* [25][0][][] */ -16,-19,-44,-25,15,13,-6,34,-25,-32,-51,35,6,24,-24,27,68,1,47,-1,-8,33,9,-2,-122,-28,-7,-39,-3,-22,2,-12,-81,-42,31,7,21,-5,6,-86,47,-3,-113,-65,25,30,-50,57,1,-39,-57,-23,-67,23,-127,1,-69,-5,-12,0,3,12,-51,-30, -24,-65,-13,-40,-39,1,-9,13,-83,24,-29,-22,-1,-12,-1,11,34,-45,11,-9,-42,20,-9,4,-39,-36,-25,-45,19,-31,-11,-6,13,-14,-1,4,8,-3,-10,9,22,-32,-21,-6,41,44,-57,15,14,-20,-36,-32,8,3,-16,-3,26,-1,-2,0,39,14,-36,30, 0,-79,-28,-30,0,19,5,21,-75,-19,-29,-21,27,25,-71,14,-22,-15,13,13,-28,4,33,12,11,-26,-17,-50,2,-18,22,12,-20,-2,31,6,-77,-5,-11,-17,9,-67,-27,2,-25,-6,-21,15,23,-37,-39,-2,7,16,-27,-29,-60,-59,2,-9,36,-54,-39,-1, 
  /* [26][0][][] */ -25,-7,-47,28,13,-23,-52,7,-12,49,32,25,-73,70,-13,-88,38,47,-78,10,-5,2,-27,10,7,32,1,-33,19,3,-111,-58,-30,-17,-3,5,6,-4,-22,-42,14,57,22,-22,16,7,-18,-34,-40,3,63,-37,8,-31,16,32,22,-47,-85,-18,14,9,-23,13, 58,16,-6,-22,10,4,28,17,11,8,-17,3,-75,28,-106,-4,-55,-1,-26,6,8,20,-16,12,-27,20,5,-11,-44,-3,-19,74,41,4,-23,7,-6,-41,20,-48,-69,-79,-21,-6,-38,8,-72,-71,-25,-54,30,-18,-21,-7,-27,30,-39,-29,-9,2,-17,8,-5,-1, -38,10,-24,-20,-9,-14,78,6,-13,-2,-42,17,-80,-9,-51,-6,47,13,-127,-46,67,35,-37,0,-27,12,16,-57,-50,19,-12,11,-80,-19,-21,3,16,-51,31,-44,13,-22,-8,14,56,10,-15,-16,-18,-58,38,-35,6,28,-50,55,-38,-14,-20,1,-23,-16,30,-61, 
  /* [27][0][][] */ 17,-74,20,-61,5,-22,-88,-60,-27,56,92,-10,-71,-12,-91,-53,-36,-28,68,-33,28,-58,62,-8,-36,-14,-119,-6,4,9,9,-68,49,-31,-86,8,16,-44,-14,-58,-11,-28,-96,-3,-127,-1,-30,-71,53,-4,-75,7,51,-83,117,30,83,-3,-47,32,-44,7,-54,94, -58,-47,-60,-52,-1,31,-26,-75,0,60,50,39,-62,-22,-84,-50,76,-35,93,-33,0,-89,90,-31,-106,45,-126,-30,35,-30,-51,-88,36,-62,-17,6,15,-76,8,-100,1,-44,-65,27,-99,107,-22,0,41,-1,-63,-119,9,-34,37,-46,82,-24,7,51,-50,-25,-23,-38, -91,20,-53,-31,7,1,-30,11,-25,55,-7,10,12,-73,-10,30,29,-96,68,-16,-42,-89,65,44,-81,46,-93,-64,-20,-40,-35,-9,54,-37,39,7,-6,-36,-51,-83,9,-18,-15,-11,-87,91,-12,27,50,70,6,-103,43,-40,48,-52,84,-85,-98,44,-49,-77,-106,-111, 
